experience 0.127360 0.570481 -1.145642 -0.598122 0.652405 -0.361425 1.680811 -0.382552 1.015828 0.174769 -0.334436 -0.639606 -0.316730 -0.203370 0.749784 -0.823496 -0.470925 0.544760 -0.025061 0.699072 -0.382204 0.362777 0.704588 0.390235 -0.194092 1.408565 2.316537 -0.733878 -1.360354 -0.293863 -2.430318 -2.247532 0.748289 1.402248 -0.172888 0.798065 -0.463248 -1.100758 -0.111285 -0.939213 -0.220568 -1.268763 2.305539 1.530028 2.904071 1.068763 -0.442379 0.496605 -0.066680 -0.113184
data 1.782816 1.994405 -0.647259 0.749334 -0.758219 -0.353588 1.739866 0.112211 -0.490891 0.798720 0.936740 -1.554498 0.890699 0.341674 -0.087062 -1.194632 1.562241 0.984852 0.400145 2.277586 0.274399 1.071175 0.759040 0.572941 -1.692342 -1.079085 2.571793 -0.123137 -1.040824 1.454614 -0.332279 -0.780770 0.359406 -0.417939 0.455838 0.979880 -0.704219 -0.934155 0.655065 -1.058382 -1.107596 -0.044461 1.352372 0.027579 0.978807 -0.281873 -1.674490 0.958292 -0.244123 -0.552764
years -0.266381 1.655416 -0.307029 -0.151512 1.493330 -1.037149 0.591896 -0.694530 0.572980 -0.307048 0.523920 -0.828466 0.608425 0.279494 -0.378645 -0.300854 0.523697 0.678204 0.933341 0.285547 -1.946311 -0.826831 1.883572 0.018337 -0.154853 1.222071 1.594047 -1.319091 -0.782647 0.148973 -2.097894 -0.793488 0.104577 0.885622 -0.980721 0.144818 -0.908343 0.119854 0.716240 -0.083604 -0.572042 -0.482723 1.758708 0.935161 2.231572 0.172772 0.333705 -0.115379 -0.452782 -0.603563
ability 0.750144 0.414152 -0.507827 1.205761 -0.183620 -1.294636 -0.936382 -1.249164 0.291210 0.122573 0.652237 -1.823040 -0.119200 -0.287296 -0.316628 -0.543794 -0.528550 0.519224 0.374108 0.449705 0.463715 0.210068 -0.031749 0.639793 -1.123194 1.027805 1.816764 0.295510 -0.135932 0.645440 -0.715503 -0.990575 -0.084444 0.383902 0.303016 1.527837 -0.528188 -0.709564 0.484474 0.711366 1.352537 -0.456282 1.570306 0.424142 0.406498 1.616536 -0.832317 -0.383022 0.322700 -0.044383
team 0.267667 2.383968 -0.477786 0.520229 -0.591850 -1.596413 0.453224 -0.474828 -0.711631 0.866686 0.927120 -0.663620 0.042363 0.247203 -0.585117 -0.403120 0.540694 0.161486 1.342241 0.123010 -0.104864 0.741258 0.410835 -0.227689 0.272307 0.067961 0.309001 0.474408 0.237793 0.326743 -0.389325 -1.294112 0.013484 0.718718 -0.666760 0.361529 -0.378723 -0.048878 -0.113014 0.060083 0.765051 -0.500305 0.707343 -1.917084 1.025486 0.603268 -1.308034 0.781800 0.718295 -0.393669
skills 0.231791 0.869791 -1.117640 0.794837 1.088938 0.721097 0.261089 -1.093386 -0.531571 -0.170639 -0.331868 -0.689718 -1.173054 -0.115954 -0.144238 -0.850176 -0.040710 1.139974 0.265302 -0.209344 0.610587 -0.081947 0.835605 0.498745 -1.146019 0.565362 1.542670 -0.761513 0.126585 1.023425 -1.471460 -1.566333 0.489404 0.382092 -0.465383 1.135112 0.275045 -0.687768 0.102978 1.607095 0.313585 -0.038458 0.941376 -0.697965 1.302780 0.984068 -0.068387 0.723390 0.794422 -0.894207
work 0.317504 0.464875 0.002609 -0.288223 -0.528410 -0.979315 0.213777 -0.442723 -0.164376 0.892870 0.468160 -1.018764 -0.440048 -1.104457 -0.758152 -0.493478 -0.885968 0.897483 1.206378 1.394985 0.479314 0.387028 0.569634 -0.278944 0.374693 0.810271 0.982024 0.459430 0.445239 -0.059660 -0.413738 -0.980274 -0.093171 -0.389863 -0.001148 1.357632 -0.649024 -0.426011 1.021312 -0.697857 0.528804 -1.030066 0.405384 -1.933305 1.370733 1.683337 -0.696074 0.127482 0.974473 -0.392694
solutions 0.939052 0.584921 -0.577481 0.201281 -0.040721 -0.466970 0.615533 -1.846676 -1.259294 0.384078 1.961327 -1.179292 0.219081 1.235287 0.354879 -0.678944 -0.284324 -0.803160 1.280253 0.611016 -0.449380 0.673508 -0.533044 -0.700383 0.067697 0.605831 1.528633 0.161398 -0.075134 0.665123 -0.330393 -0.621797 0.241932 1.126858 0.260152 -0.370011 -1.065002 -0.289914 0.791626 -0.525982 0.104696 -0.497969 0.370312 -0.199614 1.183383 0.654629 -0.880482 0.276514 -0.117997 -0.826752
knowledge 0.722802 1.292702 -1.372732 0.961867 1.051582 -0.473970 0.098571 0.177475 -0.310575 -0.724446 0.494255 -0.774717 -0.666060 0.074313 1.031627 -1.894467 -0.736481 0.500405 -0.175190 -0.626874 0.281317 -0.264074 0.720333 0.331641 -0.844761 0.515125 1.316479 -0.335662 -1.372234 1.168712 -0.972480 -1.379366 -0.643674 0.798351 0.743732 0.840468 0.105943 -0.460270 0.184518 0.950868 0.200931 -1.084701 0.207420 -0.053559 1.257392 -0.412684 0.024800 0.007754 0.660934 -1.077452
analytics 1.533232 1.462294 -0.909780 -0.084386 0.605749 -0.081197 0.601314 -0.359999 0.120994 0.774833 0.648320 -0.217830 0.592239 0.527011 -0.256845 -0.799830 0.808415 1.177180 0.638852 1.720852 -0.384141 0.256466 -0.101960 -1.732563 -0.863862 1.055405 1.293243 -0.475338 0.059565 0.385777 -0.944564 -1.392474 -0.734741 -0.256510 -0.434457 -0.054681 -0.096861 -0.365377 0.871414 0.624003 -0.362157 -0.546646 0.352516 0.320184 1.018552 0.743497 0.216619 0.107425 -0.277500 -0.414853
information -0.929887 -0.649851 0.203924 1.177307 0.349664 -1.005803 0.744129 -0.039787 -0.440897 0.386839 0.700818 -0.165831 0.658102 -1.609084 0.861768 -0.599980 0.039371 -0.065429 0.634192 -0.067748 1.012052 -0.749248 0.217823 0.433764 -2.598459 0.427365 1.292181 -0.838377 -0.989056 -0.357487 0.135707 -0.544874 -0.110186 -0.362213 0.171890 0.585719 -1.333348 -0.074790 1.441683 0.357313 0.715934 -0.249278 0.947159 -0.517598 0.442536 -1.066190 -0.594303 0.094902 0.754541 -0.866875
degree 0.821006 1.535790 -0.424953 -0.049349 0.610821 -1.108697 0.204522 -0.946220 0.597758 0.264820 0.072059 -0.933666 0.250743 -0.453573 -0.608855 -0.910927 -0.491190 0.190281 1.683769 0.789161 -0.263110 -1.087542 1.638484 1.017569 -0.197189 1.528369 1.106455 -1.441417 -0.804158 0.947629 -1.630709 -0.385658 0.314161 0.055955 -1.416781 -0.782385 -1.220519 -0.271759 0.043139 -0.013008 0.878872 0.103583 0.318833 0.930961 0.613960 0.965778 0.391227 0.133752 0.355873 0.122318
python 0.545625 0.634451 -1.815779 -0.903660 0.496548 -0.227781 0.355057 0.424218 0.370671 -0.266244 -0.528272 -0.060486 -0.520118 0.482145 -0.003107 -0.308501 -0.671506 0.727451 0.618467 0.258302 -0.501327 0.136335 0.684198 0.787378 -0.887189 0.523412 1.465463 -0.308542 -1.402952 0.443256 -1.294596 -0.898679 -0.863829 1.451455 -0.402526 1.430761 0.006669 -0.794593 0.696481 0.904016 -0.471074 0.188386 1.459154 0.391141 1.655200 0.926769 -0.863772 0.041926 -1.257790 -0.959104
models 1.399944 0.043950 -1.002157 0.077189 0.555505 0.305725 0.620594 0.735483 -0.839771 0.238104 1.613439 0.103801 -0.302441 1.062642 0.469630 0.107576 0.290089 -0.007654 0.256208 0.401017 -0.288384 0.728222 0.323265 0.235258 -0.413613 0.637520 0.141026 -0.914756 -0.452635 0.557683 -0.405188 -0.509380 -0.006348 0.263777 -1.113708 0.536878 -1.303611 1.289754 0.856454 -0.327782 -0.695881 0.381934 0.949234 -0.449163 0.998241 1.195399 -2.172496 -0.999151 0.850689 0.493581
position 0.546112 0.040368 -0.963095 1.331024 -0.257099 -0.612454 0.414259 0.069218 -0.091066 1.321732 0.200009 -0.650440 0.578349 -0.581013 -0.282621 0.022334 -0.149228 -0.459893 0.365245 -0.711219 -0.389131 -1.658493 1.224499 -1.017086 -1.324642 0.855689 1.204030 0.063651 0.125995 0.117280 -0.224307 -2.482685 -0.304247 -0.508835 -0.792531 0.260037 0.278477 0.854703 0.282317 -0.160237 -0.710298 0.369326 0.559406 -0.567802 0.063869 0.500154 0.436506 -0.075005 0.371819 -0.423356
role 0.768642 0.527769 -0.669898 1.026561 -0.342596 -0.039357 0.576415 -1.072746 0.091477 0.845741 0.760920 -0.024134 0.611402 -0.009582 -0.188893 -0.707862 0.601770 -0.061096 1.028968 0.415424 -0.951574 0.411261 0.978650 -0.163809 0.124566 -0.187038 0.864864 -0.651731 -0.455760 -0.407507 0.413620 -1.849370 -0.012445 0.521443 -0.862107 -0.321852 0.636723 0.628428 -0.235306 0.180739 -0.690506 -0.331717 0.719615 -1.097303 1.058901 0.990594 -0.716702 0.640996 0.922635 -0.774254
analysis 1.500550 0.771912 -1.280923 0.028062 1.041484 0.166871 0.004489 -0.272385 -0.467700 0.141491 1.046028 -0.768038 -0.008888 -0.798445 -0.462432 -0.803256 0.938024 0.522583 0.453331 1.074387 -0.264347 0.688796 -0.451733 0.421820 -1.039347 -0.644684 0.354462 -0.455543 -0.070433 -0.572711 -1.255586 -0.778452 -0.731977 -0.919259 -0.324055 0.417627 -1.232405 -0.572857 0.441478 -0.381532 -0.060235 -0.492273 1.182031 0.746776 -0.202850 1.250604 -1.345268 0.303342 -0.062119 -0.954182
qualifications 0.116902 1.355105 -0.688591 0.389546 -0.418907 -0.507707 0.626486 -0.591471 0.290709 -0.368436 0.053410 -0.474504 0.268930 -0.076799 -1.103317 -0.570201 -0.619172 -0.035464 0.860268 0.081707 -0.395407 -0.691045 0.870618 1.363917 -1.247942 0.401753 1.006917 -2.079100 -0.637361 0.889855 -1.468898 -1.285031 -0.262822 0.002764 -1.299732 0.208547 -1.200323 0.633723 0.198587 0.074221 0.257269 -0.056754 0.258884 0.643227 1.211310 0.387691 0.342552 0.558569 0.254278 -0.603144
data_science 0.732974 1.347176 -1.056251 -0.154690 0.804259 -1.221875 0.489192 -0.497276 0.289214 1.312049 0.815486 0.091494 -0.004796 0.442929 -0.374923 -1.130509 0.823021 0.173946 1.445117 1.344303 -0.495017 -0.409625 1.060985 -1.038486 -0.111094 0.753201 0.835738 -0.295643 -1.051375 0.693676 -0.395335 -0.387446 -0.914062 0.159283 -0.691758 -0.020681 -0.162915 0.002365 -0.154023 0.894309 0.201577 -0.396519 0.603643 0.215995 0.526896 0.893219 0.214061 -0.100491 0.690862 0.259062
insights 1.121627 0.318672 -0.280803 -0.170740 0.915631 -0.254195 0.422942 -0.005596 -0.529586 0.242275 1.310119 -0.479005 0.755700 -0.205578 -0.600983 -0.598801 0.547597 0.244105 0.452323 1.599126 0.064328 0.782681 -0.056355 -1.117763 -0.895306 -0.246994 0.682987 -0.575462 -0.385652 0.603834 0.611727 -1.027000 0.723697 0.656548 0.113475 0.394057 -0.766468 0.649209 0.603758 0.674727 0.201246 0.683702 1.326547 -0.192406 0.414597 0.168217 -1.566738 0.681451 0.289118 -0.115051
statistics 0.931836 1.268692 -1.110317 0.032485 1.655527 -0.414399 0.618732 0.489469 0.193647 0.261333 -0.360988 0.225384 -0.430082 -0.399953 -0.180651 -0.711705 -0.040199 -0.414073 0.695810 0.967270 -0.057323 0.345807 1.059523 0.137829 -0.741778 1.254475 1.031735 -1.461634 -1.461579 0.610051 -0.929274 0.064437 -0.544406 0.028784 -1.311653 0.225893 -0.599501 -0.081142 0.199868 0.167717 -0.000436 -0.238508 0.469090 1.463009 0.810682 1.384537 0.364749 -0.091360 1.043945 -0.078550
computer_science 0.615907 1.694228 -0.961421 -0.306040 1.309934 -0.781436 0.671723 -0.530929 0.195585 0.311452 0.100344 -0.696756 0.086333 -0.188055 -0.475290 -0.401467 -0.321247 -0.211991 1.463331 1.089642 -0.314584 -0.547252 1.362834 0.807069 -0.139437 1.054042 1.110192 -1.475110 -1.199472 1.131641 -1.117182 -0.035272 -0.621350 0.237433 -1.037044 -0.217372 -0.851779 -0.244261 0.223408 0.268722 0.552607 -0.206371 -0.181777 1.304307 1.029317 0.824235 0.978800 0.270952 0.445159 -0.168615
people -1.388673 1.231661 1.590958 0.804511 -0.381833 -0.842967 0.968686 -1.653074 -0.610372 0.054690 -0.000191 -0.126519 -0.240933 -0.949913 -0.598214 0.073479 0.033304 0.413904 -0.594813 1.083507 -0.169872 -0.223315 -0.248945 -1.441123 -0.439626 0.246362 -0.226293 -0.674207 -0.020374 1.177701 -0.456783 0.371739 0.356166 0.332132 0.071360 0.214065 -0.421060 -0.846293 0.900682 0.153207 -0.018281 0.224115 0.640526 -2.107640 1.236690 0.535212 -0.867801 0.261349 0.677794 -1.547681
machine_learning 0.673903 1.413080 -1.356201 0.286541 0.969919 -0.552432 0.361418 -0.572497 -0.250524 1.488090 0.326303 0.483620 -0.265884 0.805608 -0.647824 -0.479175 0.546762 -0.062138 0.354098 0.327641 0.117038 0.718062 0.002086 -0.639841 -0.548432 1.222653 0.236905 -0.722717 -1.362692 0.333061 -0.995024 -0.582678 -0.916197 0.061032 -0.552498 0.601878 -0.585767 -0.541475 0.573743 0.017161 -1.333818 -0.882066 -0.063824 0.829898 1.669483 1.027367 -0.618069 -0.571009 0.118794 -0.400799
business 0.805670 0.954353 -0.692521 -0.291279 0.723944 -0.139919 0.927380 -0.337581 -0.722358 0.786123 1.494683 -0.415000 -0.053917 -1.245351 -0.601864 -0.874724 -0.442064 -0.540031 0.975952 1.092395 0.146647 0.432381 -0.503227 -0.171621 -0.146595 0.341924 1.527788 -0.466891 0.234917 0.739390 0.275674 -0.910774 -0.056708 0.521752 -0.452723 -0.438470 -0.322276 -0.078224 0.901589 0.657642 0.412038 -0.100303 -0.128908 -0.304610 0.808381 0.397277 -0.166692 0.659957 1.066514 0.339901
responsibilities 1.637535 0.708502 -1.663436 0.445536 -0.219914 -0.087379 0.623231 -0.097133 -0.530399 0.466640 0.642421 -0.327142 0.212996 -0.596240 -0.346518 -0.585454 -0.309150 -0.359381 1.194336 0.283990 -0.015748 -0.438064 -0.067496 0.407073 -0.276155 -0.301247 1.145668 0.182743 0.282562 1.001476 -0.403428 -1.389400 -0.028401 -1.002163 -0.814387 1.080089 -0.070746 1.226899 0.262610 -0.655897 -0.526513 0.075423 -0.273285 -0.938737 0.796999 0.010964 -0.836925 -0.255664 0.463978 -1.648180
field 0.444989 1.627000 -0.392695 -0.190895 1.191738 -0.434684 0.525880 -0.664377 0.414778 0.113103 0.223558 -0.000794 -0.463086 0.026326 -0.507262 -0.884101 0.017053 0.196403 1.085027 0.897278 -0.736369 -0.731019 1.780781 0.428970 0.069408 1.043654 1.116488 -1.708569 -0.902979 1.127410 -0.890229 -0.037278 -0.166929 0.498329 -0.876366 -0.186542 -0.631963 -0.473720 0.367252 0.546286 0.174355 0.171274 0.099471 0.551440 1.006793 0.909243 0.552095 0.556331 1.284441 0.333678
customers -0.147505 0.870304 -0.551484 0.527219 -0.421529 -1.169197 1.579329 0.432556 -0.801013 0.109520 0.976893 0.282484 -1.080682 0.171751 -1.308613 0.613498 -0.809675 -0.728594 0.738089 0.860060 0.578809 -0.584927 -1.469953 -1.503911 0.104758 -0.345628 1.536238 -0.130404 -0.390247 0.528402 -0.107945 -0.720586 0.931704 -0.141486 -0.537157 -0.345632 -0.454103 -0.101441 1.206463 -0.632199 0.649028 -0.091881 -0.113132 -0.512463 0.652456 0.427529 -1.296278 0.213228 0.420876 -0.246412
development 0.765765 0.787067 -1.472789 -0.015276 0.325147 -0.010606 0.706723 -0.794234 -0.014042 0.681387 2.269392 0.216409 -0.947250 -0.106006 1.143643 -0.491420 0.125211 0.782795 1.654284 -0.248667 0.296331 -0.106952 0.743987 -0.247764 0.339083 -0.120447 -0.043656 0.328909 -0.905209 0.359950 -0.913645 -1.405227 0.213123 -0.884725 0.271062 0.482331 -0.256972 -0.168144 0.223127 -0.185182 -0.249287 0.013860 0.123421 -0.416150 0.865929 0.511425 -1.004988 1.254836 -0.742334 0.269281
design 1.642651 0.097636 -1.402939 0.198817 -0.171714 -0.022922 0.677998 -0.563661 -0.726034 0.742086 0.974013 -0.482396 -1.029716 -0.099479 1.156113 -0.164628 0.255735 0.258128 1.198115 0.027302 -0.111664 0.542688 0.186250 0.820522 0.584518 -0.727645 0.007267 -0.319517 0.061678 0.316070 -0.639740 -1.255084 -0.201789 -0.724742 0.125483 -0.345231 -0.355991 0.234295 1.017184 0.401171 -0.646236 -0.139469 0.319906 0.248492 1.645939 0.793104 -0.722923 0.740299 0.166421 -1.299107
machine 0.533217 1.127831 -0.871420 0.471319 0.470925 -0.412084 0.882674 0.412720 -0.754653 0.708418 0.164892 -0.553185 -0.062007 1.059071 0.146126 -0.483691 0.303265 -0.530674 0.237830 -0.672951 -0.494412 0.554618 0.061089 0.817170 0.574880 0.180764 0.884464 -0.769302 -0.745582 -0.259910 -1.206782 -0.829145 -0.671754 0.605669 -0.812162 0.829255 -0.337019 0.108286 -0.233731 -0.625168 -0.399730 0.339257 -0.111335 -0.161687 1.491320 1.182616 -1.656616 -0.630275 0.939368 -0.478011
opportunity -0.384567 0.943382 0.303385 1.145820 -0.575460 -0.559258 0.364180 -0.403698 0.390515 1.241206 0.508623 1.809355 -0.260976 -0.795939 -0.455910 -0.453697 0.632035 0.656038 0.367621 -0.335016 0.073448 0.072258 0.552452 -0.101178 -0.389367 0.542826 0.415366 -0.190977 0.791769 0.319461 0.424125 -1.296707 -0.176633 1.100031 -0.163674 -0.412127 -0.318011 -1.025825 0.227592 0.424201 -0.700640 0.972649 0.852581 -1.266162 0.730624 -0.321647 -0.777141 0.661298 1.042536 0.371528
tools 0.542696 1.181509 -0.843339 -0.572700 0.444901 -0.215022 0.689393 -0.143976 -0.967813 0.599693 0.731129 -0.810923 -0.335821 0.138015 0.628048 -0.847014 -0.439678 0.412229 0.816885 -0.081915 1.056528 0.540486 -0.204696 -0.271610 -0.193762 0.007442 1.360632 0.137827 -0.683476 0.928243 -1.428397 -0.923834 0.251921 0.720293 -0.579231 1.383940 -0.575177 -0.527747 0.947705 0.587913 0.231854 0.060859 0.048766 -0.921694 1.445816 -0.694783 -0.795517 -0.684154 -1.559306 0.601406
company -1.120876 1.318208 0.035247 -0.187198 -0.303025 -0.780017 0.731404 0.695696 -0.157828 0.607889 1.420729 -0.218891 0.827160 -0.802786 -0.793757 -0.842135 -0.917588 0.736981 -0.417922 0.268015 -1.551276 -0.704429 -0.391427 -0.586626 0.480411 0.388528 -0.139826 -1.307352 0.709370 -0.497613 0.721695 -1.139721 -0.275785 0.138245 0.680681 0.069281 -0.864140 0.468105 0.344295 0.449206 0.141067 -0.039881 -0.148935 -1.054687 0.415961 -0.172419 -0.454299 1.032600 0.598529 -0.778169
r 0.696299 1.249235 -1.775484 -0.698143 0.300935 -0.171591 0.177129 0.586376 0.246627 -0.116586 -0.008584 -0.121515 -0.408105 0.271271 -0.257486 -0.493156 -0.781086 0.352970 0.573848 0.256075 -0.429833 0.236831 -0.071764 0.444259 -1.149035 0.299572 0.914887 0.262254 -1.957838 0.049995 -0.955574 -0.532623 -1.429119 1.120588 -0.419722 1.336272 -0.194656 -0.976977 0.403944 0.959185 -0.285644 -0.150246 1.296888 0.045821 0.972755 1.001465 -0.803829 0.191426 -0.937074 -1.619280
understanding 0.173731 0.316734 -0.575241 0.664824 1.289769 -0.765680 0.454818 -0.221185 -0.756789 0.302942 -0.106663 -0.473325 -0.714182 0.471510 -0.678290 -1.347425 0.122266 0.848955 -0.511664 1.054718 -0.343001 0.570390 0.170489 0.719855 0.535270 0.070638 2.093216 -0.203142 -1.457838 -0.083958 -0.392468 -1.344705 -0.217464 0.099364 0.318384 -0.268545 0.979252 -0.437457 0.396673 0.579679 -0.416673 -0.615098 0.462482 0.275981 1.096121 0.244718 -0.544886 0.094157 0.638849 0.232789
engineering 1.060648 1.363254 -0.278742 -0.125361 1.041859 -0.880704 1.796544 -0.459672 -0.002865 0.516183 -0.149973 -0.998655 0.108453 -1.134536 0.022645 0.081570 0.049563 -0.307691 1.031398 1.351612 0.169577 -0.117499 1.197530 -0.007004 0.205207 0.839671 0.411767 -0.623072 -1.135150 1.487748 -0.535884 0.490280 -0.501009 -0.499393 -0.277970 -0.213621 -1.087668 -0.187783 0.501372 0.096579 0.754941 -0.172152 0.638205 0.597762 1.280588 1.214979 0.889294 1.041804 0.883159 -0.607174
systems 1.054881 0.360045 -0.191998 0.807796 0.260286 -0.411756 0.740038 0.067791 -0.849721 -0.167186 0.674300 -0.280754 -0.505068 0.045317 0.931922 -0.401145 0.457193 1.088214 0.215208 0.464062 0.165363 -0.517253 0.546138 -0.190923 0.993213 -0.275910 0.677949 -0.203955 -0.528778 0.524574 -1.479661 -1.080155 -0.237651 0.353678 -0.003054 0.057398 0.152895 0.105144 0.580670 0.213214 -0.066893 -0.549044 -0.289905 -0.473483 1.704855 0.103843 -1.277820 -1.158477 0.211207 -0.930167
teams 0.966573 0.604024 -0.752036 -0.067316 -0.058219 -1.026223 0.579852 -0.934457 -0.355072 -0.261137 0.612712 -1.045739 -0.091166 -0.724433 -0.318624 -0.254434 0.041506 0.503499 0.884228 0.583449 -0.247655 0.724744 -0.706978 -0.217862 -0.945815 0.497578 0.381141 0.581830 -0.238709 1.386135 -0.210311 -0.681491 0.006045 0.605283 -0.359168 -0.367721 -0.502644 0.715359 0.931410 0.434906 0.454058 -0.613372 0.903989 -0.824715 0.996569 0.234773 -0.362387 0.275497 0.239953 -1.252105
techniques 0.753976 0.658716 -1.286933 0.895029 1.240727 0.242656 0.287643 0.084530 -0.932479 -0.100238 0.553745 -0.574293 -0.202260 0.892594 -0.028390 -1.024359 0.196964 0.553552 -0.536646 -0.016627 -0.268626 1.187127 -0.385173 0.045843 -0.579874 0.560302 0.204472 -0.840993 -0.962846 0.644673 -0.666015 -1.199950 -0.359136 0.228430 -0.298827 0.853079 -0.771995 0.018003 0.691357 -0.619075 -0.591723 0.817451 -0.113847 0.281365 0.506024 0.660025 -1.575196 -0.526225 0.938619 0.292310
sql 0.456494 1.016936 -1.467428 -0.527996 -0.276446 -0.123200 0.134794 0.501705 0.101275 -1.055219 -0.272621 -0.382046 -0.944346 0.542706 0.556277 -0.796640 0.457215 1.362390 0.340496 0.491129 -0.638383 0.435604 0.791527 0.866720 -0.751532 0.609394 1.568890 -0.320987 -1.738639 -0.284876 -0.749999 -0.800215 -0.135151 0.814031 -0.592861 1.240642 -0.120549 -1.291698 0.391203 0.527366 0.550872 -0.728977 0.688848 0.764167 0.705012 -0.198242 -0.773138 0.190743 -0.225353 -0.958465
problems 0.578116 0.771188 -0.348185 0.432527 0.475097 -0.591398 0.059424 -1.024525 -0.604219 0.212749 0.302795 -1.187450 0.097975 0.257828 -0.012563 -0.307413 1.000540 0.069064 -0.025453 0.049327 -0.280281 0.545273 -0.586655 -0.399941 -1.020702 1.080209 0.351397 -0.394606 0.076064 0.931799 0.193566 -1.119832 0.349416 0.710645 0.520253 0.867059 -0.438776 -0.178777 1.436007 0.015630 -0.511719 -0.231833 -0.268316 0.007150 0.704330 0.794991 -0.904168 -0.596722 0.657550 -0.211340
employees -0.793050 0.306542 -0.406797 0.634498 -2.064355 -0.512946 0.402917 0.828892 -0.650120 0.221817 0.163797 0.958996 -1.053503 -1.000513 -0.820672 -0.446734 -1.720358 -0.093469 -0.803381 0.230438 0.151850 -0.426766 -0.900717 -0.668615 -0.569895 0.805567 0.278929 -0.305647 -0.139404 0.089281 0.352997 -1.231018 0.359263 -0.718309 -0.312822 0.206630 -1.044637 -0.574281 -0.158030 -0.375969 0.567250 0.316744 0.353888 -0.789393 0.738895 0.240613 0.365361 0.736842 0.304993 -0.661930
research 1.021872 0.489514 -0.940303 0.387340 1.607582 -1.078086 0.576640 -0.872770 0.017128 0.711297 0.400921 0.082045 -0.465189 0.305989 -0.630320 -0.359321 0.856476 -0.028733 0.495824 0.062310 0.274705 -0.612021 0.620757 0.044081 -0.080575 0.779068 0.449707 0.319189 -0.816541 -0.191915 -0.542834 -1.186645 -0.092539 -0.833438 0.731522 0.319116 -0.307105 -0.845654 0.482202 -1.165867 0.001196 0.434111 0.403038 -0.259164 1.048962 0.690929 -0.651362 1.031891 0.764476 0.872421
environment -0.126983 0.766847 -0.682317 0.933217 -0.735282 -1.103474 0.871888 -1.256382 -0.301480 -0.638727 0.375978 -0.751360 -0.560665 0.130973 -0.384661 0.476930 -1.042699 0.623511 0.265241 0.150192 0.072070 0.168964 0.409517 0.101976 -0.131798 0.589295 0.916629 -0.272343 -0.030620 0.553851 0.108347 -0.798607 0.741333 1.963154 0.624543 0.156807 0.105715 -0.875667 -0.176044 -0.042132 0.244826 -0.622284 0.547752 -0.376741 0.335068 1.137881 -0.672402 0.526037 0.795330 -0.769316
projects 0.884412 0.459094 -0.765672 0.525200 -0.159999 -1.106052 0.441309 -1.363589 -0.219685 0.422248 0.762226 -1.214188 0.513767 -1.164113 -0.295970 -0.181387 -0.175632 1.486139 0.668154 -0.125320 0.109313 0.531036 0.153836 0.425539 -0.148110 0.979916 0.430638 0.510155 0.665169 0.113249 0.117784 -1.606766 0.271540 0.663456 0.192967 0.602455 -0.204793 -0.258847 0.034006 -0.373838 -0.457488 0.343218 0.009449 -0.179287 0.485250 0.807176 -0.621935 -0.260997 0.993610 0.794442
applicants -0.618756 -0.752368 -0.496667 0.900839 -1.308181 -0.743118 -0.279309 -0.614123 0.543777 1.346420 -0.525554 0.924186 -0.691126 -1.065459 -0.186421 -0.466614 -0.683697 -1.109412 -0.458093 -0.357273 0.060473 -0.550490 -0.664328 -0.060537 -0.840373 0.142601 0.881618 -1.012745 -0.212037 -0.360324 0.068771 -0.907092 -0.308738 -0.959317 -0.902366 -1.410180 -0.865908 -0.434151 0.032724 0.385999 0.567032 -0.048295 1.193726 -0.116401 0.793956 -0.055676 0.461406 0.448274 -0.144730 -0.548655
world -0.420545 0.706873 0.804289 0.535471 -0.418715 -1.267979 0.713783 0.095176 0.328355 0.824667 0.753085 0.649104 -0.812375 -0.013131 -0.670658 -0.786146 0.354397 0.431345 -0.060819 0.947335 0.476226 -0.530519 -1.151565 -2.027820 0.007330 0.065945 -0.204138 -0.111215 -0.278578 0.619912 -0.207113 -0.180278 0.518084 0.463469 1.296368 -0.010954 -1.070261 0.078611 0.308819 1.193328 -0.360778 -0.607428 0.329203 -0.781448 1.180203 -0.219208 -0.667571 0.002195 0.726758 -0.761778
disability -0.683356 -1.006006 1.248001 1.277157 0.056650 -0.692317 0.202601 -0.309883 -0.438005 0.839369 -0.005864 0.357986 0.640065 -1.357194 0.933597 -0.294726 0.596334 -0.927998 -0.486549 -0.614852 0.189440 0.081138 -0.364875 1.147856 -1.860786 0.427618 -0.128429 -0.693532 -0.004216 -1.368779 0.287199 -0.099224 -0.718212 -0.613665 0.294859 -0.631270 -0.993194 -0.353692 0.531684 -0.572466 0.963379 -0.289717 0.479825 0.033445 -0.117374 -1.015660 0.645437 0.096473 0.323829 -0.294024
race -0.875452 -0.241161 0.790958 0.831333 -1.557153 -0.117772 0.507201 -0.617535 0.437644 0.565061 0.055460 1.175754 0.553922 -1.300991 0.729575 0.194989 -0.331209 -0.082892 -0.970880 -0.050529 -0.232917 -0.443748 -0.787730 1.038041 -1.150633 -0.438335 0.359349 -1.159032 0.752630 -0.411492 0.151274 -0.743254 -0.766356 -0.184292 -0.741701 -1.674498 -0.057557 -0.259801 -0.051331 -0.275315 1.146520 -0.030435 1.841008 -0.645030 0.595983 -1.271951 0.954422 0.116531 -0.751425 -0.421493
data_scientist 0.458128 0.790079 -0.384795 0.134223 0.613243 -0.325857 -0.124268 -0.018113 -0.428899 0.671902 0.164494 0.371344 0.991833 0.660607 -0.035496 -0.478155 0.831567 -0.009408 1.270771 0.056073 -0.339889 -0.142703 0.527463 -0.457591 -0.426297 0.504442 0.547348 -0.029560 0.341367 -0.482611 -0.082658 -1.374481 -0.099195 0.284061 -1.023371 -0.078894 0.039170 0.157358 0.053599 -0.699680 0.185131 -0.266840 0.153777 -1.233566 0.698540 0.657730 -0.476223 -0.124195 0.417957 -0.864083
part 0.544885 1.043156 -0.530015 0.748405 -1.087470 -1.063256 -0.273995 -0.172659 -0.082631 1.634484 0.139624 -0.026482 -0.341670 -0.032516 -0.261942 -0.509725 0.643158 0.028002 0.611236 -0.272679 0.231509 -0.335890 0.237330 -0.307520 -0.486713 0.811652 -0.165006 0.440236 -0.092306 -0.549410 0.282632 -1.419479 0.305103 0.577956 0.088705 -0.423896 -0.618002 -0.992891 0.204164 0.483087 0.158792 0.392178 0.099256 -1.289463 0.046717 0.556916 -0.750804 0.819661 0.323722 -0.883376
origin -1.125564 -0.709389 1.426976 0.818393 -0.695764 -0.501496 0.593772 0.092428 0.505522 0.404877 -0.309466 1.277424 0.358015 -1.378030 0.916037 -0.072967 0.045613 -0.771417 -1.060594 -0.536405 0.228348 -0.436734 -0.825635 1.005587 -1.744529 0.156332 0.123120 -0.836195 -0.037774 -1.398864 0.007588 0.104941 -0.749437 0.023982 -0.192345 -1.268613 -0.759728 -0.667599 0.531588 -0.585590 1.301308 -0.380045 0.863464 -0.078626 0.098827 -1.179590 1.042032 0.010865 -0.008957 -0.145183
orientation -0.973635 -1.288287 1.022397 1.122974 -0.072447 0.114062 0.687574 0.276257 0.056825 0.018156 0.042160 1.438052 0.001472 -1.365301 1.634468 0.174176 0.209912 -0.185581 -0.939742 -1.139228 0.615607 0.088601 -0.845445 1.073984 -1.411863 -0.092935 0.395007 -0.519360 -0.240331 -1.328459 -0.246921 -0.321362 -0.563615 -0.349732 -0.241428 -0.962371 -0.529614 -0.737274 0.483972 -0.645437 1.237031 -0.715578 0.649990 0.064681 0.291152 -1.149987 0.792586 0.029591 -0.288074 -0.141013
religion -1.134295 -0.608771 1.171747 0.878261 -1.106171 -0.211621 0.641394 -0.296854 0.428191 0.371837 -0.148050 1.333685 0.516049 -1.306573 0.851217 0.052481 -0.116720 -0.130048 -0.902598 -0.317584 0.118427 -0.296229 -0.789607 0.828264 -1.657389 -0.031276 0.338058 -1.031663 0.344875 -0.893870 0.069480 -0.383570 -0.759073 0.008819 -0.408527 -1.247656 -0.475332 -0.629365 0.338616 -0.362717 1.245797 -0.367871 1.303099 -0.411077 0.474599 -1.168301 1.040591 0.055473 -0.628604 -0.181287
mathematics 1.082721 1.288353 -1.008686 -0.290594 1.380530 -0.412110 0.346143 -0.302921 0.218678 0.635044 -0.475111 -0.392441 -0.205413 -0.463548 -0.184934 -0.336261 -0.034153 -0.618736 1.075191 0.914675 -0.082352 -0.331751 1.179901 0.375197 -0.508574 1.334298 0.774225 -1.445236 -1.157413 0.969671 -0.708519 0.394822 -0.635952 -0.232794 -0.909235 0.085532 -0.919405 -0.584516 0.831934 0.740647 0.549356 0.039319 -0.112359 1.190752 0.881926 1.084326 1.190840 0.169088 0.720387 -0.232466
color -1.304029 -0.505536 1.380479 0.783369 -1.532803 -0.353315 0.668798 -1.088579 0.378009 0.461841 -0.591972 1.081179 0.637288 -1.284410 0.646418 -0.086802 0.090937 -0.277375 -1.273454 0.095882 -0.129704 -0.501150 -0.668929 0.323852 -1.449197 -0.395514 0.252987 -1.326990 0.264489 -0.348200 0.074714 0.122587 -0.673697 -0.153047 -0.554616 -1.131388 -0.401577 -0.840430 0.152410 -0.160328 0.924990 -0.088072 1.618119 -0.836392 0.764905 -1.416019 0.997786 -0.189480 -0.663772 -0.458342
results 1.251235 0.439686 -0.378185 0.569627 0.417288 -0.471693 0.062597 -0.562110 -0.836912 -0.114080 1.472712 -0.623916 -0.631017 -0.170259 -1.001320 0.783452 0.011336 0.300354 1.212610 0.013767 0.484431 1.227536 -0.727746 0.444401 -1.176099 -0.568975 0.593359 -0.998990 -0.019050 -0.034925 -0.809782 -0.671376 0.452360 0.560708 -0.046558 0.960807 -1.594752 0.247339 0.420233 0.086846 0.704605 -0.115357 0.475006 0.011356 0.151869 0.083929 -0.834025 0.601171 0.870548 0.326140
employment -1.622033 -1.086860 -0.069084 0.311363 -0.884245 -0.149709 0.727854 -0.660023 -0.023282 1.172805 0.154004 0.646671 0.294350 -1.346496 0.396548 0.546883 -0.818449 -0.059963 -0.533027 -0.074419 0.407002 -0.366190 -0.134193 -0.052788 -0.009689 -0.369852 0.334824 -1.396096 0.484839 0.445427 -0.344478 -0.943048 -0.282560 -1.516168 -1.444217 -0.709228 -0.217107 -0.157771 0.196083 -0.862456 0.859226 -0.185330 1.472906 -0.216051 0.677155 -0.009459 0.821084 0.082398 -0.694747 0.304290
candidate 0.406631 0.824185 -0.658148 0.587086 -0.581446 -0.411716 0.271003 -1.106608 -0.194422 0.309239 -0.108732 -0.346700 0.112117 0.173523 -1.197380 -0.612249 0.354453 0.018834 0.751136 -0.078920 0.664880 -0.130444 0.752213 0.250156 -0.408141 0.372390 0.131811 -0.396106 0.069887 -0.104937 -0.053827 -1.569257 0.398525 0.297840 -0.564554 -0.111786 -0.551254 0.398302 -0.598297 0.507612 -0.668541 0.022368 -0.152817 0.648789 0.140829 1.635140 -1.011739 0.534361 0.139840 0.446561
technologies -0.026736 0.892721 -0.855318 -0.148459 -0.103364 -1.287995 0.923733 -0.913906 -0.589699 0.350502 0.273609 -0.782035 -0.191991 1.540612 0.147730 -0.493119 0.523964 0.164244 0.218598 -0.060577 0.523337 -0.045515 0.183089 -0.104003 0.195115 -0.469581 0.616141 -0.640898 -0.895214 0.533966 0.014610 -0.832300 0.281615 0.976063 0.803809 0.671381 -0.487749 -0.616560 1.421724 0.580589 0.122214 -0.161842 -0.037890 -0.059939 1.163335 0.137876 -1.125370 -0.156061 -0.157322 0.255118
technology 1.369836 0.935076 0.314708 1.385553 0.903824 -0.300118 1.698106 -0.717053 0.316664 0.743868 0.044160 -0.650776 -0.374973 -0.562885 -0.300853 0.227313 0.835663 -0.009606 0.084782 0.821633 0.071392 0.388434 0.091461 -1.270277 0.036405 0.586231 0.555219 -0.717252 -0.622743 1.302498 -0.181151 -0.412796 -0.719979 1.241469 0.779861 -0.434960 -0.793656 -1.231133 0.344139 0.233047 0.068422 1.199643 -0.004241 -0.592021 0.339205 0.044878 0.013121 1.015978 0.007103 -0.483792
status -0.486456 -1.309478 0.771124 0.789893 -0.491354 -0.426056 0.146797 0.057134 -0.213578 -0.391403 -0.350458 0.240586 0.907701 -0.997246 0.922332 -0.149730 0.765127 -0.152680 -0.227377 -1.137801 0.658830 0.454327 -0.800889 1.406377 -2.017614 0.042422 0.262952 -0.210657 0.087820 -1.611680 0.001714 -0.129231 -0.533433 -0.358734 -0.110787 -0.140921 -0.802681 0.431166 0.698159 -0.350268 0.708519 -0.663898 0.723956 0.140732 0.296915 -0.954077 0.743558 -0.416732 0.298490 -0.325384
age -1.322058 -0.528315 1.162147 0.777154 -0.458310 -1.002065 0.227597 0.163506 0.429183 -0.127127 -0.057157 1.352810 0.444457 -1.227551 0.807173 -0.228323 0.540391 -0.548578 -0.311922 -0.683610 -0.220628 -0.837660 -0.134925 0.889375 -1.372523 0.556355 -0.050447 -1.178109 -0.255214 -1.199413 0.019836 0.488978 -0.826927 -0.392057 -0.714554 -1.496971 -1.387112 -0.232512 0.864718 0.101772 1.172189 -0.366912 0.847339 0.682246 0.435891 -1.258575 1.291026 0.106550 -0.018585 0.056706
requirements 0.437973 0.103827 -0.723142 0.106014 -0.132185 -0.491321 -0.158158 -0.501367 0.177205 0.395814 0.491153 -0.985116 -0.048193 -0.480066 -0.466694 -1.304169 0.013025 -0.211936 1.628919 -0.282085 0.251380 -0.524283 -0.058332 0.568261 -0.104043 0.273466 1.186730 -0.606781 0.728598 0.584294 -0.818855 -1.219252 0.399566 -0.192427 -0.848296 -0.931976 -1.017882 0.818157 0.870329 0.397409 0.022256 -0.313676 -0.449641 0.069295 0.498528 0.053531 -0.399766 0.285203 0.312298 -0.457210
time 0.095820 0.482124 -0.761232 0.465144 -0.605055 -0.389963 0.141510 -0.635311 -0.582567 1.061209 0.296940 -1.035109 1.749602 -0.858145 0.258500 0.612478 -0.831982 -0.115302 0.325144 -0.375766 0.252092 -1.111760 0.741796 -1.022270 -0.204479 0.714185 0.194698 -0.510815 1.252874 -0.035662 0.115163 -0.516780 0.871020 -0.271605 0.033592 1.234199 -1.133524 0.105138 0.976311 -0.517803 -0.542617 0.896161 0.646813 0.045290 -0.082910 1.174248 -0.203926 -0.381232 1.400876 -0.476362
products 0.208584 0.776753 0.344058 0.158745 0.139061 -0.409809 1.210467 -0.440075 -0.845013 0.346488 1.288845 -0.069680 0.376306 -0.616542 -0.253851 -0.863354 0.172500 0.267395 0.630073 0.177460 -0.517362 -0.519806 -1.059235 -0.184991 0.561741 0.123803 0.173469 -0.582386 -0.612926 0.130273 -0.508670 -0.181744 -0.479453 0.168133 0.281259 -0.165338 -0.855252 -0.648821 1.251400 0.393508 0.106226 0.624395 -0.463238 -0.902907 0.754268 0.103717 -1.691577 0.099728 0.346194 0.244868
opportunities 0.070667 0.545303 -0.552837 0.087247 0.244839 0.057201 0.347811 0.115777 -1.200319 0.358548 1.600978 -0.047965 -0.155899 0.446102 0.046712 -0.583579 -0.398226 0.152968 -0.985394 0.784064 0.097368 -0.043101 -0.035268 -1.640721 -0.211163 0.102902 -0.026672 -0.712545 0.217824 1.129084 0.195610 -0.972262 1.072567 0.238608 0.380845 0.282240 -0.838588 0.570652 -0.033918 -0.138115 1.020252 -1.005262 0.965758 -0.801928 0.536666 0.436711 -0.236070 0.538643 0.641881 -0.361188
clients 0.639460 0.393080 -0.302296 0.107239 0.785120 -0.507918 -0.166118 -0.791686 -0.225561 -0.468315 1.362692 -0.199085 0.006236 -0.795445 -0.896404 -0.349402 -0.028991 0.015533 0.046669 -0.279525 -0.955655 0.324836 -1.112811 -1.040741 -0.529415 0.321572 0.869683 0.685987 -0.677787 0.282362 0.480730 -1.216554 0.899777 0.740086 0.303809 -0.190743 -0.399956 -0.218479 1.040629 -0.137670 -0.069934 -0.419845 0.289894 -0.719145 0.021978 -0.236951 -0.892737 0.844822 0.540944 0.205049
education -0.319966 0.335208 -0.494679 -0.614430 0.826108 0.024230 1.411135 0.099260 -0.024141 -0.085177 -0.820663 0.150442 -0.208839 0.010729 -0.848167 -0.834407 -0.220493 0.025843 1.065105 -0.133365 0.827162 -1.464490 1.546130 -0.098047 -1.350829 0.686528 -0.518584 -0.703321 -0.575041 1.047571 -1.351524 -1.025862 0.391469 -0.299066 -0.233270 0.348937 -1.507000 -0.092789 0.162211 -0.614107 0.688548 -0.110208 -0.103832 -0.236658 0.314987 0.056538 0.820054 1.727947 -0.764086 0.524098
veteran_status -0.572872 -1.207698 1.225974 1.013285 0.345402 -0.298289 1.042620 0.238200 -0.041140 0.602007 0.307954 0.493236 0.509844 -1.653011 0.562275 0.223416 0.859688 -0.758332 -0.462634 -0.704236 0.036732 0.576814 -1.304229 0.968084 -1.673150 -0.494772 -0.306619 -0.916889 -0.171982 -1.516529 0.215829 0.040273 -0.774221 -1.008516 -0.521744 -1.249468 -1.248227 0.153190 0.788259 -1.214904 0.484873 -0.518278 -0.349090 -0.059978 0.634767 -0.690964 0.445944 -0.181160 0.686061 -0.232041
organization -0.479817 0.400115 -0.174652 0.679532 0.920231 -0.226056 0.496151 -0.010003 0.104109 -0.133655 1.230906 -0.497052 -0.405095 -0.879639 -0.787519 -0.206114 -0.470960 0.886279 0.562288 0.640375 -0.712050 0.252114 -0.294626 -0.959212 -1.074232 0.660792 0.125762 0.445932 -0.689712 0.479174 -0.424357 -1.829871 -0.086321 0.297054 -0.392607 0.102632 0.750486 0.331473 -0.165646 -0.267486 -0.061962 -0.231565 0.270316 -0.889720 0.308545 0.281465 -0.431179 0.384499 0.179472 -0.352500
services 0.334580 0.388511 0.030949 0.394623 -0.612865 -0.168913 1.305884 -1.100356 -0.071472 -0.300376 1.053798 0.353354 0.243697 -0.788174 0.086792 -1.216707 0.118666 0.605571 0.206111 -0.244581 -0.660402 -1.704270 -1.033530 -0.209807 0.415044 0.540344 0.098374 0.335104 -1.514484 0.506006 -0.871145 -0.209555 -0.206990 -0.195980 0.184580 -0.307364 -1.000793 -0.129550 0.706712 0.163927 0.021323 0.132013 -0.143707 -0.869264 0.475794 -0.514769 -1.556251 -0.157786 0.259346 0.670785
modeling 0.989484 0.821178 -1.022949 0.321583 1.608678 0.236427 -0.319493 0.349071 -0.168052 0.272771 0.739950 0.230690 -0.479123 0.158137 0.291319 -0.371085 0.729321 -0.045939 0.090592 0.489407 -0.533512 1.172825 0.074103 -0.720629 -0.709276 0.126737 0.063650 -1.176901 -1.061224 0.014950 -0.490660 -0.643092 -0.355845 -0.040871 -0.641505 0.308614 -0.610570 0.001519 0.467668 0.586099 -0.672638 -0.705615 0.389902 1.447214 0.145396 0.782141 -0.534847 -0.167885 0.227634 -1.182682
communication_skills 0.709598 0.072001 -0.400178 0.757698 -0.086752 -0.647283 0.302102 -1.337415 0.195995 -0.166239 -0.260968 -1.260316 -0.557473 -0.183308 -0.791371 0.628279 -0.160661 0.500137 1.128152 0.136898 1.178390 0.344045 -0.032183 1.329202 -1.437994 1.188333 1.626484 0.185428 -0.462189 0.297759 -0.518325 -0.331040 0.013112 1.160593 -0.203098 0.180402 0.102215 -0.059921 0.417866 1.087532 0.519114 -0.147847 0.275950 -0.498698 0.447374 0.842748 0.128271 -0.200822 0.383504 0.313099
gender_identity -0.589707 -1.235773 1.006817 0.910076 -0.404113 0.105209 0.551610 0.067499 0.167177 0.107485 -0.024989 1.045351 0.185280 -1.276701 1.456430 -0.080491 0.238922 -0.384713 -0.924031 -0.856556 0.398767 -0.195895 -0.901318 1.096631 -1.690756 -0.180501 0.517597 -0.412390 -0.148978 -1.422595 0.003770 -0.020567 -0.119305 -0.307331 -0.408128 -0.849009 -0.454255 -0.461289 0.159975 -0.714162 1.098195 -0.463085 0.735532 -0.052429 0.073872 -1.477600 0.597937 -0.340193 0.240102 -0.201290
support 0.688808 0.738200 -1.184613 -0.021092 0.064296 -1.018275 0.894607 -0.708098 -0.780770 -0.173101 1.703323 0.133903 -0.340564 -0.610368 0.697941 0.196021 0.054686 0.637566 0.754688 0.311021 0.085966 -0.759927 0.290558 -0.291321 0.127106 -0.221468 -0.143649 0.856540 0.322112 0.878577 0.180379 -1.474652 0.164857 -0.485197 -0.043879 -0.568156 0.573410 0.031511 0.426868 -0.146380 -0.374986 -0.235878 0.738998 0.091717 0.847496 0.105192 -0.719818 -0.373908 -0.302239 0.203153
methods 0.382000 0.536052 -0.398418 0.844823 1.417914 -0.295933 -0.328195 -0.055669 -0.944440 1.044768 0.741522 -0.038874 0.341392 0.091352 0.613660 -0.919549 0.743801 0.285291 0.447620 -0.232681 0.361265 1.159907 0.592879 0.930826 -0.574796 -0.054305 -0.026664 -0.962407 -1.269532 -0.211740 -0.759654 -0.436034 -1.447998 0.172112 -0.001691 0.990290 -1.137727 -0.143478 0.139194 -0.138116 0.086500 -0.225810 0.228162 -0.412721 0.544155 0.264995 -1.058044 -0.597396 0.033330 -0.015125
expertise -0.607768 0.844722 -0.371207 0.045282 0.564589 -0.234449 -0.019626 -1.024954 -0.063802 -0.523102 0.115666 0.445862 -0.841181 -0.259549 -0.004119 -1.473744 0.146242 0.540534 0.612513 0.074644 -0.279018 0.338578 -0.103988 -0.357871 0.131670 0.627456 0.179118 0.379836 -0.955958 0.412559 -0.672086 -0.454840 -0.288778 -0.306628 -0.238869 0.160838 -0.245497 -0.373183 -0.443608 1.125073 -0.693295 -0.457451 1.002619 0.088809 0.969370 0.954463 -0.985450 0.708973 0.275957 -0.912058
sex -0.948498 -1.152363 0.808876 0.871060 -1.088214 -0.262826 0.365516 -0.052995 0.421331 0.373735 -0.386144 1.393422 0.366008 -1.276858 1.075832 0.155681 0.068662 -0.183697 -0.846693 -0.356624 0.371977 -0.227072 -0.489820 0.771340 -1.568678 -0.056672 0.608842 -0.664005 0.058877 -0.724705 0.106201 -0.345047 -0.708184 -0.473745 -0.528370 -0.845597 -0.265219 -0.379840 0.280199 -0.334102 1.003277 -0.471151 1.169356 0.173086 0.136143 -1.266064 1.075488 -0.277704 -0.637705 -0.231977
algorithms 1.185281 0.249306 -0.296682 -0.047587 1.331983 0.277874 -0.375826 0.409528 -0.132155 1.081030 0.639991 -0.494560 -0.612782 0.656884 0.333890 -0.126087 0.387058 -0.524644 0.429438 0.454102 -0.379541 0.751118 -0.491170 0.810955 0.419818 0.412734 0.731212 -0.417077 -0.611206 -0.108100 -0.615545 -0.266463 -0.244226 -0.620301 -0.141525 0.895330 0.279002 -0.133522 0.662405 -0.376365 -0.496930 0.523525 -0.237174 0.072706 1.159135 0.836527 -1.609130 -0.728723 0.389698 0.010914
applications 0.231132 0.244356 -0.505300 0.730082 -0.542041 -1.005882 0.218150 -0.986953 -0.797804 0.537060 0.755623 0.172680 -0.544217 0.176813 0.196366 0.204286 -0.362841 0.790997 -0.494667 0.067513 0.515292 -0.227833 -0.154365 -0.072066 0.084823 0.331722 0.117273 -0.719949 -0.903101 1.034231 -1.018483 -0.719767 -1.010250 -0.575831 -0.358042 -0.116291 0.448303 -0.167183 0.674320 0.624711 -0.080606 -0.270874 1.246838 -0.596524 1.993391 -0.134388 -0.104990 -0.933208 -0.548548 0.023497
variety 0.394022 0.655261 -0.912180 0.936193 0.170464 -0.350769 -0.022326 -0.681601 -1.338023 -0.669976 0.902875 -0.243779 0.330354 -0.110226 0.480323 -0.412564 0.974535 0.827092 0.354066 -0.039289 -0.321775 0.745650 0.230478 0.378696 -0.720623 0.907920 1.096079 -0.156683 -0.352398 0.603351 -0.168015 -0.443757 0.363470 0.580093 -0.515467 1.162247 -0.928651 -0.361148 0.261027 -1.039364 0.886988 0.629064 0.360097 -0.175473 0.240766 -0.755072 -0.986603 -1.160077 1.558293 -0.112306
opportunity_employer -0.391455 0.135887 -0.580540 0.778839 0.259359 0.421922 0.178272 0.388546 0.706727 0.890206 0.029488 0.831798 -0.221020 -0.382195 -0.247047 0.212197 -1.261946 0.424947 -1.557127 -0.131602 -0.281973 -0.094232 -0.720687 0.841080 -0.752814 0.298430 -0.372199 -1.617336 -0.007242 0.499687 0.434138 -0.482460 -0.339765 0.773003 -0.242773 -1.499311 -0.341034 0.095104 -0.564677 0.479879 0.565966 1.087185 0.866367 -0.399988 0.294161 -0.677559 1.027121 0.807049 0.551810 -0.156275
data_sets 1.054242 -0.638659 -0.366254 -0.363916 0.754686 -0.385614 -0.029419 0.302440 -0.321790 0.444794 0.808175 -0.355502 0.372524 0.583255 0.372937 -0.522882 0.752311 0.272576 0.658402 1.153817 -0.037146 -0.359235 0.405324 -0.212444 -0.159658 0.186789 1.602852 -0.826507 -0.317163 -0.426465 -0.436064 -0.251394 1.192302 -0.236907 0.029554 1.177071 -0.730890 0.054636 1.112324 0.157687 0.478483 -0.439281 0.769471 0.050347 0.595829 0.141767 -1.468042 -0.530749 0.814796 -0.988149
individuals 0.339461 -0.368578 0.082182 0.482438 -0.371117 -0.844651 -0.722046 -1.859346 -0.691398 0.474010 -0.575714 -0.062621 -0.409715 0.363431 -0.966391 -0.554143 0.004596 -0.885405 -0.484562 0.481059 -0.438740 0.176515 -0.340229 -0.456869 -0.717118 0.572572 -0.268937 -0.792216 0.183000 0.040767 0.647528 -0.541570 -0.100695 -0.478710 -0.026882 -0.093278 -0.622365 -0.584382 -0.786705 -0.298055 0.309591 0.747356 1.147054 -1.492956 1.393942 -0.838926 0.512239 0.370037 0.231387 -0.679297
impact -0.044166 0.067648 -0.122602 0.565579 -0.080956 -0.488627 0.924635 0.118068 -0.761277 0.772619 1.441502 0.480024 -0.592369 -0.304945 -1.160948 0.018449 -0.551510 0.503712 -0.205946 0.396745 -0.557549 0.041071 -0.014014 -0.706522 -0.042067 -0.246764 -0.125929 -0.343898 -0.380211 1.139257 0.184888 -0.726327 -0.099866 0.278168 0.003495 0.417269 0.134232 0.218163 0.340603 0.252244 -0.543880 0.094017 0.331899 -0.761105 0.785269 0.650249 -0.588555 0.112858 0.477913 0.869258
product 1.449591 -0.310707 -0.459806 -0.684745 0.691061 -0.632361 1.339020 0.518384 -0.321537 0.516337 0.823230 -0.855770 0.133236 -0.317820 -0.643910 0.413824 -0.022628 0.003679 0.115684 0.940837 -1.356871 0.377621 -0.462885 -0.495421 0.538394 0.796871 -0.098549 0.239919 -0.757186 0.331030 0.452101 0.067787 -0.416712 0.269849 0.209293 -0.706999 -0.444158 0.655640 0.954051 -0.162681 0.589808 0.154868 0.937744 -1.110998 0.887519 0.982891 -0.460184 0.692317 0.152574 -0.158024
stakeholders 1.310411 0.084735 -1.034508 0.315394 0.766246 -0.715741 -0.368139 -0.228028 -0.271830 0.192506 1.424116 -0.620469 -0.125613 -0.258063 -0.979316 -0.580144 -0.406521 -0.068394 1.113919 0.669683 0.094489 1.001337 -0.764450 0.095562 -0.821862 0.399202 0.947125 -0.073560 0.130808 0.645786 0.297236 -0.346318 -0.084936 0.039305 0.141483 0.082630 -0.572159 1.222204 -0.092154 0.603716 0.821547 -0.605355 0.725477 -0.763109 0.398370 -0.023272 -0.224398 0.141432 0.944165 -0.290375
job -0.704557 0.621119 0.054393 0.279127 -0.539338 0.588800 0.049068 -0.294245 0.201962 -0.523672 -0.307807 -0.242224 -0.143547 -0.203165 -1.263512 -0.349832 -0.108412 -0.267240 0.348207 0.317354 -0.926384 -0.854889 0.096321 -0.627021 -1.062231 0.728592 0.295273 -0.198676 -0.189419 0.501695 -0.155849 -0.797379 0.572703 -0.794136 -0.512242 1.337538 0.280325 0.743321 -0.465630 -0.102129 -1.147049 1.097077 -0.135463 -1.283823 0.453450 0.026714 -0.293596 0.799163 0.624047 -1.299006
areas -0.081536 0.336871 -0.275373 0.359995 1.521394 -0.092567 0.173689 -0.765121 -0.676603 0.447670 0.566216 0.381062 -0.093876 -0.976033 0.344389 -1.655130 0.439015 0.176486 0.662139 0.464545 0.251693 0.416738 0.431388 -0.984407 -0.086937 0.519335 -0.155783 0.095798 -0.786639 -0.030466 -0.156269 -0.953497 -0.532214 -0.284294 -0.076786 0.289397 -0.396200 0.154958 -0.767155 0.305312 -0.504440 -0.689395 0.604631 0.026251 0.734653 0.686070 -0.167403 0.367232 0.591452 -0.490774
mission -0.736268 0.846120 0.066174 0.677340 0.539886 -0.595367 0.920398 -0.601175 -0.164400 0.799326 -0.290677 0.246343 -0.268424 0.514437 -0.636081 0.122287 0.408375 -0.252094 -0.174448 0.461440 0.687343 -0.719108 0.005071 -1.297754 0.039766 -0.333467 -0.214656 0.280150 0.162836 0.090367 -0.444861 -1.172228 -0.029396 -0.065756 0.105135 -0.900396 0.006972 -0.802749 0.578396 -0.995399 -0.278847 -0.554463 -0.036009 -1.247281 0.678569 0.262023 -0.698479 0.473386 -0.629730 -0.507637
data_scientists 0.783133 1.453335 -0.567997 -0.524929 0.202058 -0.803490 0.327633 0.486310 -0.707972 0.126220 0.067454 -0.228326 0.567222 0.746800 -0.073241 -0.168191 0.422558 0.029135 0.993094 0.771503 0.005371 1.407191 -0.184918 0.358764 0.308984 0.179812 0.243085 1.190141 0.286521 0.781178 0.455252 -0.457998 -0.388077 0.438479 -0.436580 0.420326 0.114787 0.931587 -0.391968 -0.446620 0.414279 -0.350481 0.530471 -1.727175 1.055605 -0.044500 -1.004268 0.304332 0.684165 -0.135650
practices -0.087111 0.882426 -0.323933 0.003271 1.085647 -0.675136 0.646603 0.016549 -0.263052 0.513025 1.198396 -1.254449 0.453146 -0.092955 -0.080704 -0.661709 0.046494 0.515986 0.818208 0.303288 0.253185 0.053320 0.032985 0.606638 0.918994 -0.909068 0.048688 -0.722688 -0.613500 0.691669 -0.245868 -0.459354 -0.493698 -0.339218 1.433365 0.538190 -0.105690 1.435380 0.426443 0.943243 0.004247 -0.762227 0.082599 -0.418941 0.765160 -0.328384 -0.315382 0.445369 -0.393903 0.050299
value 0.085961 0.599527 -0.192181 -0.375657 0.235421 0.311240 0.003611 0.541450 -1.091073 -0.231484 0.903798 -0.079569 -0.584091 -0.316318 -0.212647 -0.567656 -0.541865 0.749084 0.449021 0.598036 -0.378917 0.893719 -0.480272 -1.221396 0.048060 0.358713 0.453876 0.109871 -0.368714 -0.014023 0.457585 -0.817057 1.166888 0.468069 -1.127143 -0.264709 -0.717505 -0.903288 0.747198 -0.201882 0.799385 -0.070518 -0.287238 -0.626286 0.054171 0.340828 -0.566142 1.038239 0.749344 -0.626521
regard -1.257432 -0.509212 0.433261 1.260439 -1.393571 -0.362472 0.271074 -0.841800 -0.032681 0.689815 -0.494560 0.827019 0.374447 -1.190471 0.189280 -0.187151 0.185644 -0.218528 -1.190679 -0.021170 0.015361 -0.130446 -0.408206 0.300689 -1.104118 -0.662983 0.928013 -1.542532 0.203773 -0.037711 0.187353 -0.892052 -0.045294 -0.786306 -1.263507 -1.021103 -0.084685 -0.129952 0.279313 -0.308612 0.378922 -0.230858 1.316420 -0.048433 0.824350 -0.759523 0.746716 -0.243228 0.078846 -0.338312
health -1.342034 1.108692 0.241818 0.526429 0.034570 -0.977152 1.036725 -0.041623 -1.312846 0.702256 0.799518 0.194492 -0.192898 -0.864728 -0.395823 0.178156 -0.593087 -0.317239 -0.384266 0.401316 -0.319624 -0.339823 -0.341041 -1.190452 -0.633524 0.159567 -0.157880 -1.152409 -0.419779 0.984986 -0.294378 -0.108217 0.175653 -0.265603 -0.013907 0.810651 0.160346 -1.062738 0.618608 -1.001300 0.270896 0.032077 -1.237080 0.491156 -0.258872 0.339191 0.343986 -0.220626 0.360099 0.332869
processes 0.769605 0.074660 0.213703 0.515275 0.638719 -0.116792 0.236543 0.111624 -0.889628 0.594418 1.391345 -1.264810 0.324177 -0.604383 0.701458 -0.531214 -0.444049 0.809236 0.532135 0.695211 0.511660 0.258725 0.730835 0.321844 0.854840 -0.247542 1.226283 -0.414467 -0.159449 0.750151 -0.342862 -0.067646 0.290798 -0.206975 0.664917 0.902400 0.149218 0.767787 0.375788 0.293670 -0.021112 -0.343852 -0.016384 -0.760223 0.770128 -0.111515 -1.033884 -0.768913 0.013338 0.578031
culture -0.674335 1.461628 0.422988 0.614491 -0.372751 -0.025702 -0.031936 0.105857 0.010118 0.002749 1.854866 0.095363 -0.722546 -0.788006 -0.181704 -0.065847 -0.751465 0.806356 0.064803 0.280181 -0.210816 -0.187582 -0.039986 -0.541391 0.520524 0.146894 -0.161418 -0.692121 0.757357 -0.536236 -0.368290 -1.015991 0.667284 0.871502 0.019260 -0.689825 -0.464196 -0.757463 -0.453491 0.160355 0.757093 -0.257037 0.322318 -1.019727 -0.070977 0.583679 -0.807391 0.931284 0.002763 -0.312955
states -0.020815 -0.023295 0.698228 0.508055 -0.952342 -0.687058 0.616937 0.567825 2.151791 -0.877449 -0.710393 1.831729 -0.826447 -1.216413 -0.142663 0.977270 -0.169325 -0.294503 -0.416944 0.005263 -0.731990 -0.825566 0.000756 -0.831267 0.763475 0.028370 1.130898 0.677882 0.252245 0.837637 0.401609 0.546702 -0.469739 -1.108168 -0.588136 -0.421276 -0.985512 0.883891 -0.766025 -0.020613 -1.379582 -0.389453 -0.997692 0.798982 0.042954 0.170545 0.305423 -0.912909 0.969820 0.284156
duties 1.168232 0.350591 -1.012107 0.404066 0.244024 0.530850 0.011631 0.145585 -0.279430 -0.325453 -0.059473 -0.492066 -0.201343 -0.926307 -0.493030 -0.611649 -0.406881 -0.231507 0.664064 -0.322655 -0.034227 -1.011611 0.468362 0.765385 -0.594217 0.082807 0.206893 -0.391189 0.852414 0.599338 -0.682180 -1.225216 0.166332 -1.564422 -0.644017 0.688579 -0.231036 1.518830 -0.312282 -0.653228 -0.506977 0.398208 -0.075493 -0.511233 0.406741 0.276550 0.142897 0.308176 1.074745 -0.975478
passion -0.428810 1.591170 -0.278004 1.060519 0.173893 -0.112834 0.113211 -0.161448 -0.380499 0.148442 0.286978 -0.653399 -0.440932 0.154973 -1.354260 -0.592645 0.424038 0.209988 -0.217592 0.718975 0.462885 0.685439 0.024070 -0.614445 -0.648156 0.099224 0.878995 -0.529050 0.612544 -0.219752 0.366423 -1.229770 -0.208231 0.075909 0.311339 -0.025748 0.155688 -1.052564 -0.091496 0.267530 -0.809215 0.928630 -0.682777 -0.741039 0.083953 0.906452 -0.636487 1.054925 0.129708 -0.447571
datasets 0.761462 0.353350 -0.912301 -0.660732 -0.012969 0.127032 -0.668138 0.439669 0.051133 0.205255 0.374730 -0.065376 0.052556 0.011999 0.295064 -0.566510 0.419052 0.544496 0.411960 1.254422 -0.198840 0.845270 0.232954 -0.518045 -0.277569 0.120262 0.979329 -0.146784 -0.788520 -0.102458 0.179339 -0.636471 0.574010 -0.936645 -0.205840 1.235747 -0.122828 -0.477939 1.191841 -0.409053 0.232933 -0.434985 -0.429037 0.062958 0.862255 0.390415 -0.964858 -0.292158 -0.262142 -0.819904
application 0.526999 0.038698 -0.241616 1.518085 0.261663 -0.495917 -0.460430 -0.103982 0.087895 2.062233 0.577073 -0.251255 -0.649419 -0.138884 0.065296 -0.397917 -0.099534 -0.450341 -0.485201 -0.224362 0.106441 -0.212101 0.192379 0.094970 -0.790187 0.574419 -0.012009 -0.780996 -1.115385 -0.098827 -0.451230 -0.761483 -0.373032 -0.594385 0.723403 -0.573906 -0.951837 -0.088953 0.787865 0.392087 -0.874955 -0.160571 -0.303290 0.529447 0.253769 0.106406 -0.129698 0.329738 -0.232273 -0.170695
day -1.411458 0.940637 1.009706 -0.102300 -0.763183 -0.703828 0.902763 -0.676669 0.100352 0.087026 0.734495 -0.170067 0.379983 -1.319290 -0.757332 0.151704 0.129243 -0.045302 0.347094 1.077833 -0.373887 -0.223694 -0.197069 -0.721706 -0.457696 -0.089263 0.816461 -0.166048 0.555857 0.114204 -0.500433 0.538266 -0.152236 -0.127604 -0.665362 0.488621 0.233006 -0.233623 0.748444 -0.558593 -0.356254 -0.087839 -0.387952 -0.676731 0.232794 0.194283 -0.218125 -0.591207 0.144644 -0.355905
quality 0.030896 -0.220032 0.698455 0.313187 -0.348433 0.625257 0.417575 -0.453257 -1.045200 0.736027 0.807072 -1.108483 0.354478 -1.220783 0.027553 -0.795761 -0.333251 0.910990 0.474847 1.474997 0.347229 -0.187725 0.382968 -0.228638 -0.328983 -0.368814 0.348127 -0.024433 -0.629978 0.354162 -0.858395 -0.190088 0.882812 0.269167 -0.317207 0.281933 -0.160920 -0.441466 0.117791 -0.629120 0.448577 -0.157635 -0.106619 -0.946359 0.126591 0.669354 -0.996692 -0.301779 -0.378487 -0.614169
success -0.959586 0.469246 -0.112089 0.178322 -0.088460 -0.450578 0.682751 0.903699 -0.421812 0.059788 0.527377 -0.343859 0.017886 0.106395 -1.538377 0.035629 -0.652961 0.051176 0.654096 1.163086 -0.096442 -0.129310 0.003549 -0.351214 -0.174286 -0.125680 0.887358 0.558173 0.498247 0.254769 0.632693 -1.287116 -0.055215 0.655934 -0.270372 -0.657401 0.228151 0.363609 0.811978 0.206593 -0.448510 0.021137 0.166495 -0.783016 -0.750119 0.459944 -0.934123 0.811186 -0.391320 -0.188173
innovation 0.014681 1.192107 0.850567 0.653684 0.657655 0.693994 -0.160092 -0.687649 0.248876 -0.174760 1.725410 -0.198855 -0.633564 -0.180615 -0.455946 0.578562 0.264621 0.203868 0.162310 0.485814 -0.240365 0.492880 0.574922 -1.105929 -0.499121 -0.064851 -0.094856 -0.492056 -0.892514 -0.324755 0.141506 -0.402452 0.817047 1.150262 0.307626 -0.221527 -0.298770 -0.922117 -0.555521 -0.252914 0.425190 -0.768350 0.206776 -1.058253 -0.420288 1.042918 -0.177988 1.521715 -0.942786 -0.499851
benefits -1.586658 0.198827 -0.453142 -0.216570 0.121510 0.082931 0.724856 -0.370075 -1.199744 -0.430908 0.492117 0.213227 0.335174 -0.808694 0.286154 -0.352978 -1.060711 -0.145164 0.290195 -0.774256 -0.246900 -1.236822 0.964250 -0.588769 0.285324 1.259742 -0.070104 -0.107124 0.475581 0.139447 0.080156 -0.584314 0.720840 -0.077638 -0.386817 0.547197 -0.159081 -0.990965 -0.243265 -1.012539 1.144827 0.935234 0.260108 -0.881670 -0.440708 0.595459 -0.259386 0.543606 0.468841 0.614951
data_sources 1.339312 -0.508865 -0.901788 0.019811 0.556264 0.233877 -0.404473 -0.692023 -1.631438 -0.001346 1.133383 -0.386101 0.288000 0.174882 0.122451 -0.847723 0.481185 0.777459 -0.083668 0.658897 -0.593950 0.198813 0.761151 0.331637 -0.039444 -0.601819 0.451552 0.090810 -1.171751 0.648646 0.016376 0.145642 0.713105 -0.198623 -0.165473 0.206468 -0.267634 -0.314614 0.501582 -0.331881 0.496516 -0.151443 0.530040 -0.510829 0.271494 -0.737800 -0.820442 -0.148867 0.507202 -0.595911
science 0.261509 1.119132 0.091120 0.479448 0.938703 -0.592091 0.802733 -0.005027 0.330963 0.336453 -0.188136 -0.265829 -0.435560 -0.441820 -0.630698 0.139182 0.463520 -0.872642 0.402669 0.590680 0.156417 -0.013863 1.332250 -0.229775 -0.070365 0.626065 0.376556 -0.752428 -0.304429 1.120815 -0.421472 -0.047564 -0.506582 -0.046389 -0.119733 -0.172550 -1.261679 -0.977346 0.396945 -0.909197 0.685087 0.531507 -0.053563 0.243912 0.257052 0.508900 0.547299 1.491628 0.056087 0.183347
software 0.343389 0.788985 -1.052722 -0.067890 0.180989 -0.408043 0.519184 0.101016 0.502529 0.000487 0.509330 0.258406 -0.200710 0.029853 -0.242419 -0.320735 -0.155489 0.672916 0.153687 0.064243 -0.361483 -1.015082 -0.963995 0.144803 0.550908 0.105729 -0.034415 0.532081 -1.186204 0.814101 -0.932885 -0.498971 -0.430449 0.339018 0.079143 -0.194654 -0.427790 -0.129525 0.764054 0.469370 -0.015093 0.146165 1.036488 0.334334 0.495101 0.210901 -1.522112 -0.137536 -0.006891 -0.372036
databases 0.191237 1.096649 -1.011283 0.107092 -0.837314 -0.506326 0.274651 0.611635 0.550547 -1.083424 0.303289 -0.087806 -0.448299 0.501070 0.389402 -0.151152 0.939026 1.222150 0.338436 0.471157 -0.303572 0.062588 0.486110 0.835408 0.110172 -0.033124 1.955761 -0.385984 -1.565729 -0.073830 -0.381392 -0.588800 0.269893 -0.499201 -0.143447 1.072480 0.145442 -0.619108 0.468413 0.219627 0.792757 -0.705338 0.056393 0.913330 0.407169 -0.903369 -0.499342 -0.302511 0.350163 0.513195
law -0.972189 -0.867068 0.550809 0.369574 0.091780 -0.114400 0.443287 0.231546 0.394624 0.095076 -0.266737 0.228873 0.857118 -0.878169 0.605301 0.186992 0.774248 -0.084285 -0.158911 -0.898783 0.349502 0.461358 -0.778047 0.720790 -0.732773 -0.554061 -0.575413 -0.854090 0.009696 -1.266614 0.397738 0.363139 -0.742537 -0.670444 0.255944 -0.289650 -1.110653 -0.261469 0.492969 0.065266 0.098559 -0.533098 -0.362415 -0.173805 0.755778 -0.610061 0.294650 -0.039074 0.508831 -0.069501
management 0.850289 -0.571960 -0.377430 0.447873 0.625924 0.004118 0.312775 -0.785949 0.169259 -0.287627 0.775485 -0.662352 -0.876068 -0.675415 -0.071295 -0.135966 0.172222 0.401021 1.169147 0.611758 0.329557 0.508275 -0.517011 0.251784 -0.468742 -0.019961 0.881439 1.146980 -0.997976 0.651021 -0.644629 -1.002075 0.146668 -0.430684 -0.504467 -0.338012 0.284859 1.003869 0.031833 0.139653 -0.100354 -0.602252 0.446068 0.236590 0.352762 0.141656 -0.356234 0.450685 -0.151560 0.281399
diversity -1.093895 0.618770 0.445858 1.040945 0.252986 0.128322 -0.017321 0.104368 -0.171053 -0.365677 1.215770 0.116616 -1.132685 -0.390475 -0.140028 0.436962 -1.124157 0.835569 -0.032135 -0.048461 -0.176418 0.350295 -0.415224 -0.388636 0.190632 0.355044 -0.609423 -0.172135 0.871775 0.489888 0.283390 -0.911493 0.513931 0.597081 -0.272236 -1.105042 -0.191097 -0.498942 -0.415012 0.321200 0.928137 0.540846 0.224917 -0.863636 -0.300685 -0.177329 0.308931 1.262794 0.564910 -1.011335
training -0.424407 0.882433 -0.786130 -0.753041 0.301728 -0.120356 0.567098 -0.494954 -0.609550 0.192489 0.677529 0.709896 -0.517448 0.311933 0.740700 -0.730200 -0.274011 0.266677 0.433797 -1.041744 0.415691 -0.555326 0.952213 -0.668867 0.027318 0.268439 -0.799359 -0.485899 0.532123 0.885730 -1.278524 -0.726216 0.454152 -0.993519 -0.460322 0.733597 -0.976469 -0.163924 -0.070407 -0.128622 0.144181 0.413444 1.156456 -0.214702 1.205221 0.074572 0.217203 0.579166 -0.420950 1.359877
spark 0.086073 0.193170 -0.999981 -0.591548 -1.036741 -0.855293 1.219074 -0.045660 -0.285338 -0.361772 -0.373362 0.170102 -0.028389 1.808869 0.645725 0.761462 -0.041207 0.857023 0.506415 0.186049 0.385950 -1.064705 0.601241 0.195860 -0.109959 0.518196 1.038072 -0.220139 -1.079671 -0.548067 -0.379921 0.480064 0.073577 1.443271 0.187278 0.614726 -0.010529 -1.078162 0.494035 1.224065 0.164999 -0.573587 0.477611 0.387478 0.717645 0.600694 -0.296297 -0.611557 -0.216622 -0.757740
java 0.555319 0.193715 -1.634804 -0.219433 0.493035 -0.339741 -0.097921 0.264424 0.344371 -0.502004 -0.943623 -0.505955 -0.479724 0.673617 0.507183 0.584524 -0.527004 0.382947 0.668445 0.041451 -0.179307 0.045280 1.428275 1.344838 -0.067062 0.280469 0.828868 -0.035823 -1.293234 0.667242 -0.192653 -0.307780 -1.057833 1.007894 0.354682 1.026192 0.684482 -0.282221 1.459481 1.069971 -0.571715 0.640609 0.751097 0.176086 1.198271 0.406282 -0.474839 -0.049200 -1.310364 -1.387961
ideas -0.392342 0.697690 0.615782 -0.269642 0.107202 -0.121908 0.400888 -1.040022 -0.329557 -0.205295 1.042381 -0.270817 -0.167004 -0.262904 -0.921725 0.019420 0.148036 -0.248008 0.528497 0.336110 -0.071764 -0.048403 -1.098759 -0.266162 -0.643134 0.648791 -0.025933 0.161453 -0.047994 0.101465 -0.458653 0.188527 -0.374560 1.116168 0.177248 0.336524 -0.716077 -0.836921 1.270116 0.503163 -0.062127 -0.162052 0.302186 -1.154933 -0.174602 0.884282 -1.696797 0.495359 -0.381825 -0.326307
state -1.618912 -0.609757 -0.420543 0.319149 0.040565 -0.291618 1.385730 0.104142 -0.019033 0.003557 -0.157621 -0.052788 1.045455 -1.181681 0.672784 0.197724 0.558520 0.959428 -0.237171 -1.289664 0.213751 1.048264 -0.491622 0.250060 -0.364969 -0.298278 -0.227288 -1.029350 0.013780 -1.306249 0.267732 -1.154167 -0.098751 -0.530725 0.129299 0.521266 -0.723990 -0.425393 -0.008843 -0.351234 0.156885 -0.409225 0.010261 -0.150439 0.501529 -0.266549 0.196577 0.559400 0.849391 -0.191072
others 0.377589 0.323053 0.220363 0.998582 0.522476 -0.824272 -0.799507 -0.562516 0.024321 -0.403833 0.613480 -0.687211 -1.373032 -0.160701 -1.098076 0.260978 -0.637931 0.008768 0.656923 0.244705 0.237286 -0.409024 0.426170 -0.380544 -1.128981 0.450770 0.061734 0.224019 -0.034400 0.800519 -0.532310 -0.264084 0.126025 -0.440244 1.245593 1.107075 0.216482 0.083586 -0.189994 0.446236 -0.560886 -0.057478 0.686763 -0.465598 0.409409 0.339741 0.147815 0.502168 0.261731 -0.349740
access -0.128749 -0.313701 -0.385393 -0.329871 -0.677219 0.025917 0.134528 -0.859055 -0.474603 0.486023 -0.154846 1.172361 -0.484675 -0.325647 0.564247 -1.607272 -0.626445 -0.387739 -0.323373 -0.197682 -0.175379 -0.907975 0.479531 -0.577191 -0.921234 0.411421 0.699956 0.030231 -1.245030 -0.095612 -0.056584 -0.246994 0.770255 -0.462397 -0.540292 0.195427 -0.645097 -1.619460 0.110637 0.015205 1.082563 0.194780 0.958290 -1.304356 0.706073 -0.480983 0.702456 0.662002 0.269791 0.079504
learning -0.211568 1.139590 0.331281 0.989698 0.871720 -0.189721 -0.244962 0.093209 -0.247780 0.268909 0.264945 0.152048 -1.254342 0.027266 -0.676049 -0.410741 0.068195 0.092822 -0.979070 -0.177978 -0.029285 0.503645 0.046161 -0.039095 0.286034 0.524902 -1.024715 -1.181173 -0.637483 -0.266056 -1.530150 0.051829 -0.971086 0.355670 0.424326 0.785284 0.103550 -0.683690 -0.624631 -0.368523 -0.915900 -0.554964 -0.108100 -0.100576 0.678441 1.561835 -0.917575 -0.640677 0.764520 0.169728
reports 1.741162 -0.443417 -0.587330 -0.277802 -0.546473 -0.817351 0.594049 0.129213 0.205693 -0.778082 1.231560 0.159696 -0.534745 0.242168 -0.282561 0.030742 0.366559 0.681986 1.686444 0.029365 0.109141 -0.203037 -0.252256 -0.616072 -1.383514 -0.487587 0.834908 0.294844 -0.090490 -0.698311 -0.873042 -1.015916 0.779618 0.098526 0.238049 0.715863 -1.092675 0.821642 0.188064 -0.336115 0.126505 0.261345 0.366897 0.363538 -0.156847 -0.974144 -0.143416 0.119050 0.559028 0.822563
candidates -0.204617 0.898260 -0.495811 0.457436 -0.642005 -0.599803 0.037900 -0.100368 0.123848 0.314045 -0.454163 0.550944 -0.322803 -0.414454 -0.389383 0.110858 -0.128889 0.259567 0.418975 0.075847 0.027986 -0.486570 0.660775 0.593220 -0.018924 0.177449 0.777745 -0.582558 0.745679 -0.040008 -0.513838 -1.060772 -0.569224 -0.157152 -1.482215 0.020209 0.338243 -0.298709 -0.654817 -0.034764 0.500371 0.048746 0.624136 0.132763 0.214701 0.384172 0.683023 -0.012474 0.261072 -0.542853
e.g -0.200369 1.089969 -0.933680 -0.207799 0.183963 -0.502930 0.238809 0.493221 -0.071291 -0.494488 0.110346 0.046553 -0.148915 0.608110 0.060610 -0.486997 0.229079 1.034357 0.323446 0.055412 0.064012 0.406723 0.474167 0.583469 -0.086917 0.024215 0.267373 -0.334136 -1.200534 0.153373 -0.777685 -0.677010 -0.155952 0.373316 -0.117064 0.906914 -0.531001 -0.319309 0.095030 0.439365 0.320263 0.245870 0.136050 0.557087 0.363755 -0.239260 -0.692221 0.088170 -0.376413 0.707780
languages 0.062629 0.518213 -1.305593 -0.570264 0.433366 -0.300490 -0.026282 0.351517 0.012243 -0.476462 -0.042240 -0.301424 -0.382549 0.705663 0.428264 0.134750 -0.229710 0.655768 0.647688 -0.045053 -0.086313 0.017350 1.213948 0.814459 -0.271457 0.402339 0.374706 -0.064764 -1.409942 0.309603 -0.637526 -0.273253 -0.480115 0.935918 0.059388 1.680735 -0.454031 -0.462707 0.924102 0.689114 -0.114034 0.668803 1.008535 -0.117384 0.684203 0.234770 -1.271711 -0.170552 -0.950263 -0.608988
needs 1.085039 0.200868 -1.037505 0.295416 0.374227 -1.113572 0.457105 -0.504871 -0.781600 0.266456 0.153270 -0.558003 -0.218389 -0.234646 -0.708867 -0.299620 -0.358876 -0.005125 0.538630 0.600856 0.779603 -0.063464 -0.712425 -0.254205 0.167918 0.460595 0.688789 -0.465227 0.821597 0.348362 0.746194 -0.913687 0.580128 -0.063263 1.157009 -0.402922 -0.711356 -0.073680 1.395792 -0.456712 0.785585 0.160426 -0.700453 -0.240602 -0.294631 -0.712295 -0.012522 0.524851 1.297234 -0.241226
tableau 0.661504 0.784993 -0.819737 -0.939933 -0.184632 -0.587591 -0.097202 0.258781 0.793964 0.006834 -0.193534 -0.086956 -0.858364 0.119406 0.408349 -1.452422 -0.458385 0.882321 0.315371 -0.052456 0.580573 0.485953 -0.946066 -1.416121 -0.933514 0.037089 1.498836 0.058740 0.184363 -0.610451 -1.297540 -0.870130 0.380931 0.886459 0.269344 1.410223 -0.463878 -0.875599 -0.557366 1.953256 0.014029 0.277028 0.753702 1.078886 0.835085 -0.187922 0.467163 -0.538046 -0.656705 0.573145
operations 0.368141 0.724830 -0.944868 -0.044809 0.085018 -0.433978 1.744878 0.300045 -0.599047 -0.314493 0.559983 -0.142886 0.226661 -0.618060 0.843608 -0.200445 0.218989 0.688835 -0.364634 1.003468 -0.381006 -0.270626 0.576474 -0.446449 0.156822 0.398374 -0.222924 0.632694 -0.404121 0.941865 0.360904 -0.596943 -0.592928 -0.174830 0.138846 -0.349774 0.168121 0.996427 -0.143633 0.199212 0.414787 -0.546971 0.666694 -0.153959 0.338708 0.311133 -0.026809 0.069193 0.441603 -0.156513
basis -0.301360 -0.174519 0.123841 0.747546 0.121671 -0.126341 0.832030 -0.432336 0.516665 0.171957 0.567105 0.868598 -0.000560 -1.099727 0.294483 0.039697 -0.313159 0.223487 -0.593562 -0.426838 0.135577 0.070309 -0.975180 1.142300 -1.243168 -0.233208 -0.409638 -1.084740 0.429667 -0.193591 -0.012108 -0.985036 -0.604319 -0.194588 0.039786 -1.053236 -0.678437 0.008258 0.047693 -0.377540 0.800179 0.250319 0.572754 -0.813439 0.763249 -0.971244 0.327646 0.649411 0.111511 0.291378
data_analysis 0.729896 0.854820 -0.897989 -0.408781 1.224146 -0.146569 -0.297304 -0.489259 -0.946399 -0.345886 -0.005120 0.215042 -0.288919 0.881738 -0.235332 -0.976226 0.661502 0.668891 0.963197 0.200217 0.030242 0.573633 0.223565 0.020916 -0.659292 -0.060980 0.277007 -0.288049 0.265439 0.366050 -1.178302 -0.969397 -0.244954 -0.543503 -0.867997 0.698631 -0.486390 0.070617 0.322539 0.657885 -0.392162 0.208016 0.530664 0.512109 0.524165 0.179719 -0.605658 0.000479 0.300882 -0.038775
data_engineer 0.853233 0.856555 -0.314256 -0.042872 -0.894633 -0.334491 0.482640 -0.184880 -0.097115 0.362361 -0.231918 -0.040039 0.703919 0.920310 0.252662 0.104530 0.999018 -0.025823 0.923248 0.438212 -0.467013 -0.025979 0.624896 0.470031 0.795292 -0.045755 0.636183 -0.050851 0.757590 -0.631239 -0.130154 -0.959155 -0.192141 -0.029240 -0.783766 -0.051325 0.337163 0.320617 -0.513658 -0.411780 0.338252 -0.364394 0.685763 -0.855142 0.500256 0.230922 -0.296636 0.548362 0.234550 -0.729345
communication 0.544072 0.047099 -0.449386 0.581846 0.623570 0.223689 -0.311131 -1.154469 0.298592 -0.434266 0.313781 -1.075657 -0.855191 -0.769959 -0.714871 0.411148 -0.220016 0.114182 0.293134 0.310540 0.437298 -0.007519 -0.226592 0.250313 -1.101303 0.602791 0.830069 -0.484724 0.549423 0.949391 -0.761684 -0.653641 0.201751 0.513108 -0.350048 -0.239718 0.381451 0.056986 0.341330 0.923880 0.600829 -0.058287 0.557992 -0.110620 -0.111785 0.792378 -0.131732 0.228917 -0.479193 -0.874587
recommendations 1.145074 -0.372286 -0.164588 0.288455 0.836660 -0.090924 -0.076904 -0.222137 -0.131115 -0.243627 1.515793 -0.229697 0.150484 -0.458138 -0.845082 0.400589 0.348202 0.298024 0.094764 0.508547 -0.407431 1.062606 -0.422785 0.243337 -1.055000 -0.334727 0.860444 -0.472660 0.000671 0.541822 0.331586 -0.251347 0.424191 0.150329 0.274430 0.190504 -0.734657 0.712971 0.459172 0.396250 -0.025648 0.275691 1.256264 0.516379 -0.226507 -0.296864 -0.931240 0.574372 0.586190 0.786028
performance 0.485930 0.286024 0.310351 0.767752 -0.017191 -0.180389 0.225879 0.308551 -0.330051 -0.019222 0.913439 -0.347505 -0.191363 0.237918 -0.208517 -0.153058 -0.483466 0.589774 0.238010 0.993675 0.515145 -0.204982 0.627526 -0.841372 -0.409321 -0.602054 0.230435 -0.569998 -0.249083 0.473826 -1.211591 -0.347176 0.835715 0.535685 -0.028240 0.274414 -0.857295 0.921862 -0.194300 -0.297101 0.168530 -1.087065 0.106054 -0.020625 0.260008 0.814619 -0.937039 -0.825595 0.238434 -0.363953
year -0.429133 0.417793 -0.765862 -0.383349 -0.652409 -0.797511 0.589456 0.203034 0.565312 0.290527 -0.215928 -0.870573 1.404829 -0.650065 -0.259171 -0.702577 -0.654160 0.247156 -0.275388 -0.218419 -0.786289 -0.918293 1.422635 -0.633892 0.675114 0.519524 0.301616 -1.523179 -0.926735 -0.606473 -0.356402 0.557610 0.192047 -0.228929 0.023680 0.252610 -0.970857 -0.056599 0.678892 0.214877 -0.442093 0.139690 0.225086 0.514728 0.310974 0.510468 0.354432 -0.313936 0.969675 0.048232
analyses 1.193009 -0.211856 -1.014344 0.126397 0.592711 -0.590186 -0.492681 0.784189 -0.302191 0.291840 1.364277 0.147883 -0.432758 -0.059687 -0.115983 0.655880 0.318329 0.642098 0.284289 0.549914 -0.342908 0.911367 -0.202424 0.357777 -1.079053 0.221281 0.185742 -0.537438 -0.084978 -0.457520 0.440295 -1.126887 0.184487 -0.655487 0.175894 1.076456 -0.338411 0.627696 0.727057 0.247233 -0.149213 0.360369 0.991971 0.926558 0.343246 0.008596 -0.963847 -0.249907 0.586342 0.064845
partners 0.369784 0.125269 0.171528 -0.145296 -0.239771 -0.761341 0.048361 0.390911 0.425681 -0.248140 0.981349 -0.040628 -0.290114 -1.235667 -0.928245 -0.718914 -0.379691 -0.517820 0.819876 0.631014 -0.111058 0.635674 -1.383490 -0.374192 0.101567 0.348800 0.790655 0.331892 0.242548 0.119763 0.248127 -0.067311 0.199308 -0.228764 -0.221607 -0.431366 -0.939256 1.164732 -0.009166 0.007943 0.463353 -0.783705 0.433742 -0.380981 0.426324 0.185545 -0.443728 0.411018 1.226378 0.095673
use 0.597343 0.515982 -0.762621 -0.132800 0.172842 -0.147510 -0.473311 0.652040 -0.056793 0.757505 1.088036 -0.191266 -0.073118 -0.210922 0.363258 -0.277190 -0.265293 0.042225 -0.166000 0.170650 0.259559 0.174367 0.033030 -0.543698 -0.170311 0.273783 0.338905 -0.048102 -0.672891 0.215917 -0.057087 -0.514558 -0.094468 -0.315050 -0.110201 0.574833 -0.439285 -0.485959 0.845719 -0.111655 0.451495 -0.446951 0.192285 0.248096 0.086661 0.291688 -0.378409 -0.092045 -0.717764 0.019835
engineers 0.090052 0.954075 -0.469942 -0.327302 0.309622 -1.517614 0.860445 0.257272 -0.555041 0.169664 -0.167420 -0.248710 0.199212 1.317036 -0.010863 -0.047565 0.546933 -0.494372 0.977571 -0.054930 0.515488 0.763096 -0.611189 -0.093920 0.411000 0.200640 0.085503 1.304283 -0.178368 0.613868 -0.069863 -0.391466 -0.262159 0.432398 0.382440 0.377175 -0.250031 0.476130 -0.743614 -0.880855 0.151985 -0.603667 0.595055 -1.103976 1.450259 0.151115 -0.775616 -0.033223 0.226530 -0.193698
leadership -0.098471 0.124887 -0.414623 0.069124 1.309886 0.191005 0.354493 -0.567413 -0.338369 0.466347 0.940694 -0.076641 -0.420220 -0.806054 -0.772882 -0.308917 0.050650 0.256000 1.409298 0.401250 0.686816 0.660909 -0.043287 0.048555 -0.207592 0.090198 0.588128 0.718113 0.426097 0.725274 -0.136142 -0.933709 -0.107537 0.580513 -0.108661 0.209671 0.241241 0.965743 -0.314628 0.566004 -0.310614 0.186450 0.868905 -0.511034 0.142352 0.213941 -0.664577 1.039935 0.405322 0.623371
way 0.374360 0.076585 0.539011 -0.428592 0.168014 0.147100 0.014739 -0.118625 0.613120 -0.159815 0.178812 -0.759958 -0.460177 -1.014240 -1.053803 -0.879069 -0.301077 -0.165945 0.267370 0.075622 0.163216 -0.381209 -1.169043 -0.325822 0.240854 0.584094 -0.021399 -0.242350 -0.279470 -0.002819 -0.122081 0.301015 0.107919 0.556898 0.746232 -0.145265 -0.641027 0.313132 0.663838 0.859369 -0.037643 -0.188752 -0.888095 -1.484973 0.265693 0.731335 -1.368562 0.378773 0.309776 -0.225188
disabilities -0.130727 -0.460803 0.529424 0.138698 -0.502947 -0.295612 -0.925978 -1.520368 0.044750 0.732668 -1.082783 -0.206802 -0.258545 0.399761 -0.583996 -0.535449 0.081075 -1.146086 -0.626359 0.058020 -0.659362 -0.455788 0.020110 -0.299414 -0.205410 -0.182485 -0.835586 -1.124460 0.063249 -0.207779 0.556798 -0.243918 0.056506 -0.990072 -0.012804 -0.344931 -0.247780 0.211439 -1.501370 -0.204288 -0.015666 0.727393 1.112622 -0.859888 1.152168 -1.064658 1.004267 0.307396 0.321545 -0.406834
work_experience -0.507631 1.566471 -0.372840 -0.480716 1.175202 -0.509091 0.006366 -0.106068 0.578131 -0.207991 0.341286 -0.025251 0.438082 0.046168 -0.577658 -0.622694 0.169186 1.266113 0.350434 -0.660837 -0.758007 -0.761969 1.632487 0.008709 -0.041408 0.536481 -0.424963 -1.544013 -0.332590 0.088105 -1.025797 -0.398850 0.124730 0.093056 -0.179695 0.439129 -1.332455 -0.061505 0.457634 0.715259 0.300817 0.026372 0.505390 1.175359 0.536555 0.541567 0.395145 0.936029 0.567438 0.603931
familiarity 0.266772 0.611188 -0.744324 -0.219632 -0.242829 0.000877 -0.155177 0.018216 0.218730 -0.661183 0.223361 -0.443094 -0.406253 0.613364 0.175255 -0.715275 -0.105946 0.766309 -0.356537 0.242182 -0.285775 0.047585 -0.029565 0.640141 0.544921 0.178473 1.397890 -0.140528 -1.063392 -0.018994 -0.714494 0.034600 -0.128554 0.416785 0.035525 0.937596 0.273768 0.114868 -0.142750 0.903146 0.277640 -0.852027 -0.178314 0.849848 0.505419 0.241917 -0.544763 -0.901348 0.179901 -0.130118
industry -0.615830 1.164407 0.170914 0.088632 0.846451 -1.242806 0.724238 -0.055927 -0.316447 0.071238 0.718091 -0.861992 0.312150 0.212411 -0.666575 -0.063529 -0.399279 0.013101 -0.650128 -0.444219 -1.033873 0.165522 -0.076233 -0.588483 0.365256 -0.060279 -0.546503 -1.032644 -0.503418 0.680907 0.218328 -0.771523 0.024604 0.467159 0.985141 0.290481 -0.857136 -0.248216 0.315163 0.445496 0.449815 0.371571 0.055016 -0.005963 0.276883 -0.154326 0.310890 0.875925 -0.051708 0.524072
implementation 1.113345 0.300871 -0.755319 0.056982 0.369112 0.151311 0.208001 -0.572686 -0.109102 0.292384 1.894215 -0.390330 -0.604865 -0.521520 1.216186 0.088209 0.132469 -0.037508 1.044645 -0.440333 -0.182024 -0.024046 -0.182639 0.880376 0.431960 -0.259194 0.192904 0.130077 0.224698 0.523135 -0.811593 -0.579648 -0.040047 -0.798060 0.235221 -0.273935 0.051913 0.542548 0.498924 0.345208 -0.746026 -0.044326 0.265886 0.375310 0.811912 0.039712 -0.853720 0.097170 -0.421527 0.090037
consideration -0.517024 -0.680160 -0.087559 1.126608 -1.165503 -0.180564 0.020057 -0.841820 -0.264987 0.978313 -0.151953 0.637285 -0.118589 -0.928582 0.024638 -0.026495 -0.237220 -0.761191 -0.689319 -0.427460 0.215955 -0.524885 -0.141794 0.578479 -0.811459 -0.421272 0.673511 -1.289364 0.354998 0.094010 -0.128299 -1.183474 -0.301457 -1.079928 -1.559563 -1.286591 0.195566 0.066608 0.268285 -0.200313 0.487361 -0.347675 0.942908 -0.113878 0.611736 0.148217 0.775808 -0.248713 -0.302441 -0.354108
decisions -0.001878 0.608857 -0.329544 0.841159 0.118083 -0.178861 0.715109 -0.145433 -0.349472 0.720590 1.003371 -0.012709 0.204517 -0.094653 -0.032574 -0.155167 0.050550 0.440794 -0.564067 0.471230 0.551172 0.703282 -0.375140 0.033590 -0.969160 -0.035462 0.373523 -0.413642 0.672686 0.635378 0.355412 -1.302623 -0.195363 0.385929 0.203093 -0.131640 -0.287825 0.389364 0.344396 0.230191 -0.120238 -0.049489 0.866742 -0.078054 0.476409 0.078249 -0.911976 0.057871 -0.267661 0.539422
collaboration 0.715039 0.955660 0.193325 0.892208 0.799707 0.058831 0.149098 -0.290600 0.738159 -0.044452 1.058322 -1.075909 -1.235133 -1.025163 -0.378506 0.493378 -0.475542 -0.246020 0.591659 -0.150790 0.217796 0.396858 0.303041 0.348102 -0.394477 0.895549 0.272174 0.244670 -0.773207 0.148257 0.182510 -0.461921 0.054695 0.634888 -0.042239 -0.494171 0.403798 0.032435 -0.701769 -0.220163 0.518899 -0.649089 -0.022097 -1.499149 0.486656 0.846674 -0.306655 0.954197 -0.751352 -0.404264
hadoop -0.108467 0.262025 -0.889787 -0.206039 -1.170464 -0.716601 1.041271 -0.389518 -0.654635 -0.346387 -0.284991 0.051768 0.559819 1.937720 0.817039 0.623879 0.486701 0.863060 0.058812 0.618277 0.480973 -0.629130 0.337404 -0.209649 -0.547321 0.209486 1.142164 -0.624516 -1.004822 -1.007281 -0.452271 0.139625 0.626954 1.452195 0.075120 0.540666 -0.155507 -1.273954 0.424384 1.252071 0.549581 -0.902514 0.524920 1.349313 0.325368 0.372186 -0.346020 -0.807737 -0.116290 -1.128253
concepts 0.051773 0.428818 -0.361376 0.504629 0.777754 -0.638326 -0.711864 -0.347798 -0.275170 -0.306777 0.887633 -1.122519 -0.752844 0.864704 -0.289914 -0.109832 -0.199708 0.080822 -0.485136 -0.039303 0.152567 0.972118 -0.695109 1.516035 -0.112381 0.733300 0.682279 -0.262548 -1.253941 0.795501 -0.132435 0.659557 -0.569557 0.513356 0.593122 0.203839 -0.499272 0.155016 0.821148 1.105990 0.788343 -0.576934 0.761841 0.362060 -0.062662 0.635533 -0.903332 0.020462 0.140351 -0.103135
% 0.312983 0.444695 -0.356630 -0.294604 -0.954242 -0.637141 0.104681 0.697363 -0.490152 0.153833 0.533002 -0.841273 1.508535 -0.324247 -0.205296 0.813148 -0.367824 0.812740 0.271416 -0.671299 -1.067913 -1.965464 1.053463 -0.142629 0.014203 0.587703 -0.062713 0.267545 1.185947 -0.898098 0.632089 -1.095406 0.373858 0.814288 -0.233181 0.107499 -0.209967 0.328212 0.924101 -0.288914 -0.686533 0.558799 0.944134 -0.095352 -0.083746 -0.594808 0.301561 -0.640879 0.290913 0.387515
challenges -0.528503 0.400622 0.309453 0.625596 0.418032 -0.782111 0.531898 -0.296957 -0.696028 -0.181678 0.530513 -0.290775 -0.419366 0.413164 -0.194796 -0.189232 -0.018419 -0.614430 0.376707 -0.267832 0.456991 -0.699431 -0.228945 -0.522587 -0.287680 0.009660 0.164971 -0.566093 0.450796 -0.242728 0.093848 -0.710912 0.796006 0.547746 0.508293 -0.564861 -0.478965 0.251251 0.448200 -0.024127 0.868342 -0.830809 -0.628463 -0.999345 0.430023 -0.075289 -0.414688 0.172443 0.695321 -0.815631
career -0.013034 0.272024 -0.079770 -0.061717 -0.464166 0.064938 -0.242489 0.106871 0.220045 0.150587 0.616492 0.682276 -0.624726 -0.053305 -1.120418 0.084317 -0.714378 -0.016187 0.005161 0.522660 -0.968609 -0.862383 0.465049 -0.814920 -0.416360 0.876030 -0.295224 0.320379 0.877448 1.197850 0.359761 -0.242262 -0.261571 0.399802 0.284255 0.683007 0.009625 -0.144034 -0.019729 0.379718 -0.194430 0.723535 0.594144 -1.153982 -0.148667 0.275840 -0.097206 0.574353 0.371620 -0.167778
issues 0.257534 -0.276712 0.102442 0.377830 0.284912 -0.699540 0.127129 -0.632584 -0.387982 -0.082071 0.951251 -0.923009 0.234614 -0.234911 -0.041497 -0.261930 0.752460 0.233474 -0.371485 0.582749 0.362745 -0.393168 0.185114 0.441520 -1.354007 0.442533 0.068837 0.018120 1.211398 0.518109 -0.242679 -1.115890 0.076904 -0.134477 0.540687 -0.085100 -0.597991 0.904227 1.010051 -0.397748 0.596295 -1.007662 0.560847 0.040827 -0.212257 0.754653 -0.802208 -0.506528 -0.229284 0.115709
discipline 0.026394 1.270812 -0.745782 -0.582999 0.743262 -0.640344 0.429232 0.151405 -0.197229 0.285882 -0.691232 0.264751 0.019490 -0.128765 -0.128539 -0.001219 -0.051671 -0.308092 0.897793 0.411917 0.265262 0.071598 0.836513 0.374701 0.193405 0.761376 0.175765 -0.604623 -0.848545 1.245564 -0.716645 -0.192782 -0.520980 -0.579096 -1.277916 -0.284947 -0.718488 -0.091833 0.170633 -0.052003 0.564229 0.061739 -0.259592 1.306205 0.938484 0.469399 0.944287 0.237509 -0.737167 0.624186
economics 0.682476 0.929271 -0.186899 -0.284605 1.531076 -0.157033 0.438710 0.123144 0.208449 0.242505 -0.445794 -0.318337 -0.164978 -0.835984 -0.515891 -0.209671 0.041085 -0.502381 0.740432 1.405539 -0.475737 -0.003601 0.665315 -0.041783 -0.651695 1.581009 0.752699 -0.887686 -0.912571 1.124728 -0.255958 0.736354 -0.762833 0.146420 -0.776629 -0.328626 -0.494352 -0.186191 0.505265 0.562606 0.683728 0.297518 -0.031509 0.991158 0.103360 0.880570 1.327206 0.151005 1.003343 0.586577
reporting 0.229451 0.591463 -0.358412 -0.278359 0.243917 -0.298475 0.222383 -0.230865 -0.383198 -0.074988 1.350345 -0.298658 0.418300 0.103111 -0.106467 -0.509297 0.943993 1.122277 0.545936 1.008944 -0.397337 0.016717 -0.126397 -1.104654 0.192431 -0.932318 0.719811 0.209217 0.172989 -0.230439 -0.637628 -0.586923 0.296633 -0.440036 -0.192098 0.130980 0.437798 0.864293 -0.081338 0.655337 -0.357178 -0.826078 0.329094 0.974653 -0.530533 -0.171941 -0.170118 -0.543014 0.013775 -0.248549
proficiency -0.147723 0.321907 -0.675572 0.054942 0.633953 -0.073849 -0.651328 0.258936 -0.191972 0.007637 0.029697 -0.533430 -0.726414 0.307888 0.302354 -0.397949 0.083837 0.484249 0.526748 0.159491 -0.248580 0.158480 1.306751 0.932270 -0.148148 0.479984 1.043616 -0.330539 -1.692045 -0.598578 -0.390337 -0.281655 -0.388000 0.053972 -0.153163 1.098220 0.146576 -0.735275 0.382854 0.845510 -0.049480 -0.254170 0.156213 -0.147256 -0.020766 0.700873 -0.775045 0.252499 -0.288455 -0.479948
gender -0.675181 -0.812373 1.121240 0.643658 -0.696773 0.039353 0.391836 0.044437 0.366019 -0.189200 0.156948 0.921883 0.271251 -1.045303 0.920148 0.225714 -0.125112 -0.161555 -0.911100 -0.340528 0.223770 -0.159538 -0.892998 0.861763 -1.618475 -0.014455 0.235658 -0.312067 0.242783 -0.867012 0.355436 0.240072 -0.190611 0.220354 -0.036417 -1.032029 -0.345465 -0.442668 0.134343 -0.453056 1.209097 -0.145541 0.823682 -0.301423 -0.204392 -1.485969 0.902199 0.070484 -0.168544 -0.014866
partner 0.932526 0.062724 0.017086 0.045378 0.465041 -0.535149 0.628465 -0.080722 0.155334 0.674386 0.269214 -0.492493 0.948211 -0.378667 -0.531581 0.005750 0.358931 -0.597243 0.247178 0.797967 -0.194112 0.528170 -0.599351 -0.731273 0.049876 0.682241 0.284788 0.536196 0.111868 0.603556 0.767333 -0.514952 -0.206171 0.363235 -0.170534 -0.785042 0.225934 1.283345 -0.285445 -0.414692 0.572667 -0.900161 0.321920 -0.940094 0.575251 0.262541 0.388555 0.087957 0.622477 -0.107161
questions 0.713635 0.096578 -0.278384 0.839576 0.018199 -0.507403 -0.031178 -0.408224 -0.370800 0.354382 -0.137834 -0.806591 0.440841 0.114323 -0.768663 0.184419 0.309665 -0.069322 -0.283665 0.577739 -0.063994 -0.202098 -0.242968 0.438693 -0.485640 0.439400 0.561409 -0.216654 0.903414 0.365040 0.780412 -0.852234 -0.084630 -0.407793 0.879797 0.083681 0.097648 0.052990 1.431011 -0.103043 -0.536721 0.416364 -0.186851 -0.378218 -0.319702 0.488243 -0.614308 0.004768 1.009289 -0.227062
programs -0.395630 -0.522731 -0.854362 -0.719781 0.223493 -0.249794 1.323650 -0.283540 0.047916 -0.344917 -0.261335 -0.259838 0.318632 -0.883218 0.449648 -0.145038 -0.208050 1.456225 0.371405 -0.608200 0.256601 0.213058 0.163822 -0.680602 0.066135 0.312503 -0.369822 0.463101 -0.591130 0.679263 -0.022054 -1.066717 0.565221 -0.085104 0.376771 1.312353 -0.303550 -0.605932 0.372106 0.018172 0.406849 0.369319 -0.075458 -0.299002 0.376087 0.077718 -0.224376 0.521004 0.000200 0.822891
background -0.009403 0.943263 -0.186504 0.009999 0.457512 -0.046666 0.570030 -0.472417 -0.138699 0.319909 -0.829441 0.213725 -0.836813 -0.252863 -0.147301 -0.907704 0.433457 -0.493726 0.607725 0.220562 0.301914 0.610066 -0.005208 0.237747 -0.241803 0.592497 0.710824 -0.524958 0.084995 -0.344072 -1.040296 -0.949982 -0.501375 0.053187 -1.178697 0.085535 -0.096134 -0.708040 -0.835533 -0.037226 -0.200065 -0.142976 0.072855 0.533689 0.358133 0.904681 -0.006781 0.284066 0.475071 -0.551331
functions 0.357880 -0.657237 -0.383371 0.013967 0.154988 -0.214729 -0.576762 -0.832953 0.089359 -0.214861 -0.683057 -0.905874 -0.395509 -0.067327 -0.578493 -0.612021 0.294858 -0.233141 0.222666 0.764055 -0.554462 -0.508252 0.208395 -0.166630 -0.332168 0.805572 0.358031 -0.170398 -0.190769 0.525667 -0.040098 -0.422213 0.655239 -0.940720 -0.028545 0.995782 0.616719 0.941178 -1.014063 0.153700 -0.323941 0.749922 1.096758 -0.675559 0.882137 -0.556468 0.023688 -0.014451 0.625962 -0.924366
goals -0.180852 0.230747 -1.006033 0.246078 0.578159 -0.567415 0.461076 -0.246054 -0.271795 0.109307 0.314098 -0.607473 -0.178768 -0.010643 -0.156008 0.236046 -0.980126 -0.364439 0.149245 -0.175291 0.956519 -0.323826 -0.597093 -0.268334 -0.294847 0.337552 0.230366 -0.011008 1.701370 -0.115172 0.157616 -1.968816 0.576394 0.048923 0.331733 -0.262227 -0.186279 0.396157 1.059938 -0.968832 0.260490 -0.568264 -0.292038 -0.555394 0.310571 0.524691 -0.422460 0.323625 0.019376 -0.303477
range -0.222312 0.243381 -0.682333 0.289427 -0.006538 -0.473913 0.119211 -0.620248 -0.345647 0.350095 -0.017459 0.746573 0.293731 0.134687 0.038702 -1.559966 0.337924 -0.125241 -0.199985 -0.394126 -0.187265 -0.145530 -0.272253 -0.127007 0.105665 1.126979 0.436957 0.121474 -0.780253 -0.477895 0.478234 -0.256072 -0.078897 -0.290231 -0.073630 0.441775 -0.969955 -0.331961 -0.218354 0.106891 0.065659 0.278463 0.339617 -0.872345 0.238753 0.191977 -1.026472 0.041144 1.422148 0.435511
growth -0.618658 0.148069 0.197521 -0.322488 0.450658 0.152219 0.549172 0.346240 -0.984723 -0.495987 1.043351 -0.364949 0.128943 0.040071 -0.264644 -0.187534 -0.686063 0.196770 -0.664116 0.303204 -0.486211 -0.741594 1.206493 -0.462796 0.686529 -0.104404 0.277316 -0.305758 0.291991 0.399325 0.373854 -0.435904 0.759591 0.879137 0.544756 0.170417 0.125730 0.312154 0.296074 0.058767 0.086227 -0.669051 0.684601 -1.362242 -0.070496 0.563449 -0.468089 0.794207 0.479931 0.000062
tasks 0.470182 0.332767 -0.985073 0.688438 -0.594656 -0.648814 -0.046553 -0.603517 -0.509248 0.096372 -0.109605 -0.895667 0.377720 -0.687966 -0.029633 0.142713 -0.726964 0.153901 0.033326 -0.243509 0.490395 0.277633 0.087900 0.359627 -0.272052 0.426741 0.244492 -0.019720 0.659627 0.526176 0.343153 -0.897325 0.055876 -0.157727 -0.048059 1.272517 0.347051 0.135680 0.023366 -0.352370 -0.621700 -0.052072 -0.048613 -0.229384 0.629646 1.144617 -0.699955 -1.095329 0.954452 -0.569003
focus 0.451640 0.157131 0.141342 0.556928 0.446112 0.489008 -0.482785 -1.051998 -0.054095 0.496329 1.131468 -0.569238 0.024383 -0.381867 -0.150913 0.289705 -0.362411 -0.044365 0.560990 0.675329 -0.235586 -0.603979 0.521081 -0.277612 -0.423341 0.012376 -0.065592 -0.122075 0.039683 0.388494 -0.921091 -0.110729 0.011974 0.275206 -0.028027 0.386730 -0.207893 -0.273913 0.217028 -0.317746 -0.608096 0.107741 0.476118 0.374623 -0.102606 0.917586 -0.854357 -0.438041 -0.211884 -0.440355
data_mining 0.180784 1.004765 -0.916168 0.168436 1.046192 0.445609 -0.289714 0.102929 -0.459626 0.677643 0.557281 0.224659 0.535309 0.058058 0.180586 -0.391883 0.824588 -0.055635 -0.128616 0.283238 -0.319208 0.889015 -0.466283 -0.419966 -0.388641 0.341686 0.653151 -0.884088 -0.689551 -0.380903 -0.576315 -0.118833 -0.372536 -0.646505 -0.925014 0.871753 -0.377063 -0.613259 0.273789 0.133317 -0.366604 -0.006584 0.036168 1.775352 0.335214 0.877481 -0.392841 -0.488191 0.417674 -0.329182
life -1.253993 0.069964 1.021816 -0.445015 -0.603549 -0.083720 0.570039 -0.378133 -0.698211 0.106163 0.295522 -0.001543 0.267361 -1.488663 -0.269677 -0.415572 -0.250619 -0.331949 0.458624 1.194227 0.146683 -0.201658 -0.313856 -0.469316 -0.362554 0.513741 0.103022 0.304010 0.413034 0.364580 -0.226090 0.872323 -0.234424 0.051944 -0.458660 0.724531 0.325691 -0.917828 0.379284 -0.979810 0.489329 0.096641 -0.117197 -1.592177 0.110059 0.161886 -0.916135 -0.728214 -0.276059 -0.433421
relationships 1.145101 -0.095033 0.423525 0.561493 0.621090 -0.151702 -0.110493 0.072726 0.411379 -0.885231 1.207799 -1.070321 -1.312904 -0.372123 -0.354803 0.373711 -0.011155 -0.172967 0.303452 0.531783 -0.324736 0.412143 -0.886159 -0.134312 -0.243076 0.464618 0.832907 0.160128 -0.113578 0.642683 -0.381253 -0.398105 0.690601 -0.325194 0.411602 -0.017846 -0.096561 0.812774 -0.011052 -0.100456 0.590350 -0.894957 0.220704 -0.569156 0.636463 0.343278 -0.729581 0.358786 0.593298 -0.311948
data_pipelines 1.229414 -0.488565 -0.344077 -0.272161 -1.249065 -0.092012 0.509478 -0.895515 -0.040273 0.040820 -0.036242 0.143144 -0.059121 0.766739 0.586333 0.530211 0.423741 0.788934 1.218018 0.766262 0.073603 -0.550130 0.334594 0.514326 0.082489 0.103706 1.295377 0.198705 0.179447 -0.759966 -0.661862 -0.015976 0.250310 0.382416 -0.643061 0.124899 0.208284 -0.472279 0.535896 0.149144 -0.441136 -0.292510 0.171001 -0.489624 0.951865 -0.270601 -0.804037 -1.008307 -0.549076 -0.716084
plus -0.186642 0.807434 -0.465514 -0.116589 0.294423 -0.415853 0.252679 0.545673 0.327809 -0.064098 -0.815521 -0.111417 -0.103224 0.524523 0.074792 -0.413521 -0.258427 0.073658 -0.563093 -0.014981 -0.265672 -0.226136 0.334654 0.533223 0.714546 0.036436 0.708326 -0.044575 -0.674376 0.605238 -0.297384 0.189445 -0.634122 0.586186 -0.090852 0.017069 0.455687 -0.342492 -0.279815 0.378922 -0.004137 -0.174325 -0.068311 0.601684 0.569782 0.019249 0.284680 -0.568777 0.156089 -0.117023
level -0.622707 -0.464859 0.149252 -0.156871 -0.375548 0.352103 -0.200495 -0.375983 -0.415680 0.712632 -0.748474 -0.508381 0.062626 -0.394856 -0.847202 -0.498339 -0.375100 0.649188 0.893266 0.780048 0.604021 0.023844 0.941240 0.241429 -0.601040 0.410921 -0.119511 -0.150988 -0.292588 -0.221386 -0.228251 -0.812516 -0.047546 -0.346281 -0.438770 0.512498 -0.224746 -0.221686 0.190587 -0.137771 -0.328309 0.056120 0.611941 -1.286790 0.505900 1.388499 -0.159617 0.958278 -0.379194 -0.836447
findings 0.666438 0.038550 -0.363496 0.389774 0.047554 -0.789672 -0.429900 0.115956 -0.318226 -0.231469 0.834396 -0.409754 -0.504368 0.029941 -1.393137 0.166761 -0.225498 0.223885 0.517083 0.113607 -0.233783 1.074638 -1.102207 1.135223 -0.869244 -0.143023 0.939719 -0.046163 0.253165 -0.032698 0.334655 -0.472919 0.050203 0.152456 -0.041160 0.274855 -0.793462 0.849613 0.411099 0.165554 0.425183 0.560852 0.776347 0.101753 -0.345162 -0.631705 -0.644455 0.311210 0.837742 0.947187
marketing 1.345769 0.668199 -0.657684 -0.799364 1.137792 -0.041977 1.521264 0.886591 -0.372017 -0.628353 0.040438 -0.284627 -0.217459 -0.529941 0.013645 0.130429 0.104680 0.253113 0.037209 1.131920 -0.876358 0.370532 0.175152 -0.736106 0.216073 0.499526 0.316626 0.769977 -0.250265 0.485596 0.601719 -0.208332 -0.971829 0.262002 0.022594 -0.636541 0.435665 0.798190 0.390963 0.359700 -0.107899 -0.016594 0.758580 -0.438324 0.199815 0.430953 0.397301 0.678316 0.661692 -0.228087
code 1.527001 0.442854 -0.911300 -0.335868 -0.428971 -0.588044 -0.071507 0.222868 0.160771 0.159446 0.264936 -0.128200 -0.640044 0.347434 0.027597 0.659777 -0.208182 0.217692 1.069192 0.324439 -0.093316 0.539152 -0.188254 0.832217 0.572455 -0.332133 0.580793 0.086398 0.140545 0.434780 -0.470615 -0.198218 -0.096076 -0.238263 -0.057785 0.567750 -0.036533 0.030678 0.901904 0.062928 -0.356597 0.738509 -0.124443 -0.079976 0.909876 0.060260 -0.618213 -0.281161 -0.526164 -0.385489
order 0.282085 -0.266075 -0.435870 0.008530 0.359873 -0.366815 0.533440 -0.349771 -0.749610 0.474053 0.069180 -0.740400 -0.047222 0.105675 -0.510643 -0.856657 0.065722 -0.076322 -0.196582 0.420891 0.095397 -0.555435 0.371820 -0.281534 -1.135877 0.420446 -0.213228 -0.310572 0.062118 0.974031 -0.191798 -1.473773 0.415651 -0.512885 0.323825 0.288337 -0.842212 0.878985 0.796322 -0.523718 0.067154 -0.231044 -0.028673 -0.674199 0.299407 -0.162655 -0.135147 0.093826 -0.445110 0.189302
ways -0.495398 0.647615 0.749580 0.868868 -0.240946 -0.299633 0.365386 -0.166313 -0.830043 0.088925 0.601371 -0.417163 0.371239 0.330405 -0.547584 0.101798 0.399704 0.390660 -0.083129 0.883071 -0.255406 -0.493954 -0.046542 -0.776313 -0.026841 -0.017575 0.293916 -0.195354 0.430601 0.298063 -0.274832 -0.057727 0.321834 0.326571 -0.487338 -0.024917 0.286485 0.987565 0.300526 0.282065 -0.256105 -0.097773 -0.103050 -0.548824 0.098429 0.324320 -0.630562 -1.068236 0.604761 -0.051754
data_analytics 0.365885 0.573158 -0.527284 -0.003110 0.149645 -0.081182 0.020831 -0.939765 -0.290111 0.522411 0.324777 -0.398269 0.291873 -0.091486 -0.132269 -0.635149 0.351628 0.579107 0.856824 0.831143 0.322503 -0.334475 0.916525 -0.412217 -0.063789 0.026375 0.408755 0.185602 -0.994219 0.465618 -0.703365 -0.041272 -0.073382 -0.333243 -0.641642 0.014916 0.073139 0.242893 -0.312125 0.487587 -0.623151 -0.123875 0.515147 0.804065 0.128487 0.603960 0.044490 -0.159992 -0.425603 -0.290196
approaches 0.167845 -0.088226 -0.849859 0.328869 0.914411 0.124844 -0.637815 -1.003931 -1.058492 0.100846 0.646077 -0.723166 -0.097433 0.725907 0.255278 -0.259143 0.158433 -0.072823 -0.224948 -0.448716 0.357663 0.917689 -0.458912 -0.044030 -0.253970 0.156144 0.061903 -0.174889 -0.499793 0.028755 0.353424 -0.368954 0.724291 0.147947 0.055312 0.524129 -0.557230 -0.239396 0.881745 -0.082183 -0.050880 0.056268 -0.060414 0.145639 0.084148 1.046134 -1.460161 -0.679630 0.269442 0.527640
bachelor_ 0.255290 0.502253 -0.747785 -0.340487 0.247274 -0.545206 0.977132 -0.504219 0.406989 -0.242016 -0.227466 -0.637882 0.196903 -0.793098 -0.796714 -0.118985 -0.303228 0.184552 1.533361 0.217849 -0.398831 -1.508995 1.119000 0.933704 -0.223360 0.580999 0.980215 -1.165211 -0.005049 0.617785 -0.941719 -0.689075 0.139540 -0.488943 -0.987315 -0.451854 -0.543333 0.530419 0.466929 -0.009996 0.252031 0.244111 -0.477957 0.922112 0.000524 0.029627 1.002935 0.418759 0.569605 0.213547
office 0.237291 0.884241 -0.319870 0.497895 0.157007 -0.588155 -0.691442 0.192386 0.307631 0.447064 -0.005824 -0.038161 -0.422628 0.144595 -0.581501 -0.123205 -0.073127 -0.468523 0.606038 -0.309931 0.429308 -0.201486 1.673176 -0.689428 -0.008354 0.365459 -0.201692 0.890417 0.185270 -0.289876 0.118768 -0.144839 -0.009548 -0.659210 -0.060851 0.961071 -0.228816 -0.845771 -0.464927 -0.731753 0.514024 0.957550 -0.124624 -0.929767 -0.583688 0.736986 0.328669 1.053266 0.153637 0.323693
team_members -0.367459 1.022966 -0.435693 0.568023 0.442249 -1.029651 -0.086541 -0.195781 0.201710 -0.448845 0.841932 -1.086652 0.108337 -0.554855 -0.295259 0.017590 -0.768369 0.148951 0.331730 -0.135376 0.128948 0.092970 -0.056405 -0.343324 0.323572 0.851300 0.296721 0.930714 0.352889 0.271725 0.332112 -0.366003 0.021077 -0.451457 0.592082 0.122030 -0.010593 0.482138 -0.315741 0.182672 -0.187613 0.075954 0.883226 -0.472350 0.342697 -0.038221 0.181454 0.543605 0.436109 -0.293708
building 0.983176 0.452381 0.557720 0.706083 0.401695 -0.122385 0.366812 0.265137 0.094411 -0.822389 0.945475 -0.324125 -0.341112 0.684179 0.219877 0.698326 1.113502 0.120759 0.568892 -0.042876 -0.444657 0.324930 0.157287 0.345638 -0.134564 0.084697 0.269286 -0.195484 -0.116676 -0.600443 -1.311554 -0.288700 -0.066133 0.504052 -0.263481 0.033806 -0.389171 0.340696 -0.392019 -0.428502 0.223327 -0.231628 0.573845 -0.320181 0.232294 0.192371 -1.348225 -0.085160 0.208297 -0.695029
leader -0.179726 0.743426 0.307662 -0.060718 0.302246 -0.196313 -0.061792 -0.575236 0.275940 1.291270 0.602209 0.557747 0.171860 0.418339 -0.258034 -0.222941 0.282239 0.050051 0.093588 0.567981 -0.753290 -0.654569 0.688838 -0.116286 0.439370 -0.090088 -0.322140 -0.603886 -0.326639 0.526843 0.338489 0.080358 -0.209811 0.454190 0.334230 -0.285109 0.011628 -0.420554 0.525522 0.151072 -0.390157 0.384270 0.111753 -0.454416 0.251202 -0.116488 -0.347004 0.412411 0.476847 0.344468
scale 0.426304 -0.087791 0.374076 0.041436 -0.324248 0.154679 0.592518 -0.126208 -0.221705 0.037786 0.091755 -0.144338 0.085273 0.770168 -0.040729 -0.031849 0.218970 0.288223 -0.150742 0.619175 -0.249713 0.081387 0.097527 -0.717919 0.471177 -0.273844 0.234408 -0.740755 -0.561422 0.593656 -0.270635 -0.312828 0.519414 0.554282 0.431921 0.567511 -0.305810 0.053501 0.340499 -0.066531 -0.610412 -0.164782 -0.684882 0.071100 0.576950 0.498694 -0.997409 -0.478798 -0.090389 -0.346457
addition -0.664297 0.212318 -0.302190 0.298479 -0.413302 -0.484485 0.354351 -1.793248 -0.148891 -0.704811 -0.411201 -0.611534 0.358103 0.001840 -0.541586 -0.319104 0.211096 0.059875 0.515878 -0.333106 -0.098005 0.027384 0.855332 0.269434 0.030151 -0.228039 0.395332 -0.569707 -0.345886 -0.128971 0.922119 -0.852386 1.092912 0.152082 -0.558082 -0.484702 0.582627 -0.628341 -1.455846 0.071258 0.665721 -0.173533 -0.075791 -0.636251 0.592579 0.325661 0.362240 1.087437 -0.036597 -0.232733
cloud 0.642847 0.547199 0.157860 0.196415 -1.301980 -0.381356 0.925207 -0.706879 0.217795 -0.589057 0.164115 -0.262477 -0.047365 0.948518 -0.484990 -0.106991 0.000047 0.672678 -0.075351 0.693651 -0.188370 -0.437306 -0.030199 -0.847129 0.702238 -0.343812 0.709905 0.443104 -1.348102 0.537070 -0.986996 -0.145916 0.540931 0.678126 0.621147 0.251102 0.013764 0.354231 0.096685 0.656136 -0.938825 -0.590724 -0.430154 0.395286 0.748965 -0.014482 -0.505142 -0.211461 -0.548381 0.087341
location -1.645959 0.935833 -0.039592 0.025442 -0.393184 -0.327074 0.488175 -0.034171 1.257298 -0.201396 -0.107371 -0.215019 0.529566 -0.486739 -1.179500 0.547308 -0.375436 0.528904 0.345793 0.220184 -0.481707 -0.888353 0.651747 -1.050444 0.271640 0.518056 0.513303 0.263023 0.000016 0.217157 -0.008985 -0.326175 0.209641 -0.949898 -0.425233 0.754597 0.556072 0.256079 -0.333732 -0.160067 -1.203061 0.111364 -0.427991 0.096487 0.183843 0.520260 0.474480 0.236749 0.460188 -0.226551
business_problems 0.723527 0.178188 -0.401374 0.313432 0.490295 -0.184975 -0.156309 -0.512523 -0.056400 0.136835 0.606366 -0.208307 0.000255 0.204598 -0.356789 0.140297 -0.061676 0.096655 -0.063871 0.647701 -0.245155 0.850104 -0.286418 -0.815523 -0.396063 1.081722 0.753563 -0.388123 -0.140971 0.095829 0.033550 -0.543635 0.360362 0.557168 -0.601075 0.237454 -0.220700 -0.405314 0.307656 -0.088168 -0.171387 0.204527 0.402645 0.534909 0.545687 1.162046 -0.541533 -0.461161 0.158673 0.152129
bachelor 0.318047 0.812978 -0.483161 -0.160792 0.092434 -0.764212 0.628648 -0.360295 0.488908 -0.503775 -0.487949 -0.304384 -0.140168 -0.077720 -0.542755 -0.087199 -0.025595 -0.167672 1.262773 -0.117910 -0.011435 -1.272072 1.512331 0.891044 -0.130440 0.810244 0.757972 -0.888177 -0.130882 0.893496 -1.036805 -0.398771 0.146903 0.078961 -0.951892 -0.825848 -0.876231 0.354819 -0.060115 0.270155 0.411898 0.282278 -0.255704 0.907133 0.196943 0.301883 0.554925 0.476989 0.149843 0.427526
collaborate 0.970291 0.055272 -0.768261 -0.508811 0.779174 -0.714562 0.571773 0.049608 -0.807866 -0.302299 0.323266 -0.691600 0.035928 0.013093 -0.211034 -0.549586 -0.136364 -0.348772 1.385893 0.080761 0.194278 0.517590 -0.422826 0.051229 0.009950 0.325821 -0.181251 1.391080 -0.274264 0.847784 0.216605 -0.347450 -0.339281 -0.196280 0.151117 0.419512 -0.176766 0.663112 -0.229869 -0.687601 0.347082 -0.329488 -0.169653 -0.964865 0.773929 -0.183426 -0.468278 0.450475 0.817336 -0.276840
phd -0.004918 0.489059 -0.435258 -0.545300 0.807965 -0.177326 0.087235 0.080035 0.745709 0.079258 -0.457046 0.237663 0.428062 -0.233052 0.111715 -0.401349 0.277859 -0.291653 0.873052 0.242311 -0.353201 -0.718764 1.918236 0.351696 0.491769 0.795636 0.408544 -1.657578 -0.173749 0.288237 -0.666579 0.250928 -0.359403 0.234294 -1.396360 -0.482466 -0.805096 -0.304678 0.166557 -0.210319 0.444139 0.287313 0.226453 0.855356 0.644199 0.931869 0.163151 -0.015484 0.589067 -0.793298
master 0.286260 1.283946 -0.294629 -0.201948 0.031062 -0.747100 0.312649 -0.356531 0.793894 -0.306602 -0.719197 -0.268868 -0.004296 -0.233482 -0.887589 0.029577 -0.165656 -0.473460 1.043931 -0.169891 -0.131528 -0.608349 1.354045 0.611345 -0.439739 0.939072 0.661416 -0.685573 -0.333828 0.884227 -0.936867 0.212271 -0.053569 0.467397 -1.487806 -0.285798 -0.860169 0.001028 -0.553670 -0.167338 0.141428 0.566564 0.176574 0.696023 0.378518 0.652899 0.263240 0.334403 0.164089 0.103572
department -0.196556 0.144641 -0.101028 0.219096 0.610181 -0.172208 0.726835 0.980515 -0.501034 0.655887 0.010887 -0.044469 0.000137 0.051973 -0.629597 -0.256542 -0.026380 -0.709440 0.862985 0.185611 0.386131 -0.830327 1.245490 -0.630239 -0.657112 0.520370 -0.265902 0.270204 -0.485746 0.205858 0.017571 -0.757080 0.092554 -0.251849 -0.260238 0.153681 -0.555393 0.499052 0.213291 -1.674307 0.351262 0.346503 -1.136371 -0.593626 -0.734569 0.141785 0.567973 0.869803 -0.428359 0.270315
sas 0.264568 0.456563 -1.182123 -1.153218 0.078205 0.382879 -0.253099 0.521547 -0.127117 -0.023208 -0.241203 0.510215 -0.181858 0.069789 0.239607 -0.383922 -0.654317 -0.076913 0.240888 -0.012704 -0.383849 -0.473393 -0.941906 -0.039983 -0.730126 -0.081995 0.439162 0.252142 -1.417628 -0.135516 -0.556591 0.535536 -0.776710 0.779418 -0.495047 0.664969 -0.258998 -1.294908 1.226128 1.252355 -0.100806 -0.488282 1.101631 0.652368 -0.077622 0.080459 -0.797235 -0.192281 -1.063714 -2.067564
service 0.075310 -0.911155 0.152112 -0.140719 0.428610 -0.364154 1.264753 0.276489 0.053850 -0.019471 0.383552 -0.610864 0.067982 -1.533289 -0.294322 0.395226 -0.286614 -0.131885 0.092066 0.180074 -0.314134 -0.886052 -0.531072 -0.683596 -0.438202 0.495605 0.065858 0.240533 -0.777839 -0.111475 0.436592 -0.198017 0.561626 -0.384471 0.147452 -0.814923 -0.509403 0.217746 1.401391 -0.335930 0.041384 0.359838 0.160454 -0.361617 0.224636 0.300404 -0.378080 0.475621 -0.346246 -0.112701
sources 0.373149 0.166613 0.087874 0.511692 -0.149570 0.193894 -0.002643 -0.049252 -0.723511 0.147740 0.488315 -0.256210 0.575545 -0.027481 0.539792 -0.307231 0.971807 0.561700 0.408379 1.031868 0.295658 0.896702 0.339925 0.695251 -0.987476 -0.496224 1.581345 -0.052611 -0.632424 -0.210164 -0.218190 -0.428015 0.291722 -0.143334 -0.431840 0.662818 -0.211820 -0.497464 0.812897 -0.585697 0.056011 -0.170478 -0.141524 0.100700 0.170260 -0.682964 -0.803984 -0.532862 -0.091720 -0.223629
approach -0.363901 1.049606 0.144853 0.608872 0.053492 -0.660233 0.651297 -0.619161 -0.893117 -0.427697 0.784601 -0.465025 -0.833334 -0.113126 0.065645 0.394261 0.296179 0.026383 0.096637 0.338473 0.656959 0.053308 0.037408 -0.104593 -0.556469 -0.340911 0.026685 -0.521807 0.446805 0.923608 -0.227432 -0.655711 0.748172 0.359674 0.382571 -0.182464 0.068877 -0.282415 0.553178 -0.204758 0.746980 -0.695182 -0.897446 0.102741 -0.004429 0.167042 0.023755 0.319325 0.358582 0.229281
university 0.036934 -0.000325 -0.297310 0.030072 0.391585 -0.713413 0.294959 -0.197234 1.042423 1.025408 -0.970950 0.450635 0.331696 -0.555530 -0.828776 -0.411430 -0.137229 -0.602217 0.817332 0.111262 0.404202 -0.064881 0.795619 -0.178738 0.016295 0.636991 -0.265174 0.479845 -0.401508 0.678926 0.633965 -0.150773 -0.283022 -0.194101 -0.289979 -0.594114 -0.103365 0.425414 -0.831908 -0.235729 0.106311 0.126446 0.088814 -0.101168 0.267226 0.470140 0.504840 0.909654 -0.170032 1.132192
