experience 0.015070 -0.236759 -0.987186 -0.583814 0.252338 -1.836890 -2.998347 -0.091214 0.121399 1.119179 0.479026 -0.871970 -0.050682 1.669593 -1.952471 2.331230 -0.785128 0.431294 1.066272 -0.624899 0.877633 -1.201433 -0.608080 0.631638 1.284670 1.211227 0.513316 -0.979875 -1.294806 -2.011337 0.815929 -0.289916 0.218559 -0.452975 0.852886 -1.217712 -0.539337 -0.305602 1.023625 -1.909139 0.503198 0.041854 -0.217756 1.788405 0.997199 -1.263906 -0.430290 -1.064609 -0.266933 -1.366850
data -1.543487 -2.003096 -1.354526 1.838402 0.288371 -2.910874 -0.965912 0.750916 0.653833 0.743011 0.583116 1.047110 1.355749 1.165608 -0.049396 3.259678 0.913794 -0.717832 0.399696 -1.710697 0.792578 -0.034999 -0.740471 0.993194 0.161098 1.446581 0.125490 -0.077329 1.356271 0.718216 2.097561 0.399961 -0.456242 1.619757 1.486302 -0.706415 0.360328 -1.249009 -0.104987 -0.904827 0.060597 -0.617281 -0.604949 0.578974 0.861900 0.259759 -0.482695 0.360559 -0.000310 0.461105
years 0.308482 -0.595808 -0.135627 0.429377 1.388901 -1.154151 -1.336569 0.083270 0.365900 0.845709 0.738515 -1.229863 1.473680 0.889071 -1.981800 1.186158 -0.559307 -0.281384 0.301083 0.264668 1.609764 0.399827 -0.935319 -0.568771 0.218068 1.218741 0.462314 0.265040 -0.919203 -1.444349 0.548326 0.723294 0.175194 -0.117714 1.121889 -1.505016 -0.583772 -0.677893 1.393377 -1.602334 1.011425 0.502864 -0.471328 0.327142 2.045474 -2.202635 -0.198151 -0.661724 1.007408 0.337213
ability 0.235795 -0.469348 -0.264480 -0.994217 1.212410 0.220844 -1.017370 0.187383 1.203753 2.077943 -0.488926 -0.161296 -0.376652 0.262671 -1.071556 1.098255 1.191752 -0.143557 1.070578 0.445059 0.507169 0.382034 -0.159024 0.321204 0.045741 1.468562 -0.747993 1.331686 -0.167438 -0.101560 1.681972 0.686932 0.898745 1.172956 1.667298 -1.014011 -0.008457 -0.021477 -0.636474 -0.397079 0.551623 -1.137110 -0.307887 0.770787 0.319825 0.930123 -0.575274 -0.669215 0.211540 -0.812917
NNP -0.259380 -0.606563 1.332062 -1.076341 1.114529 -0.236748 -1.353175 -0.544330 -0.211747 1.092537 0.312295 0.282450 1.226833 1.878447 -0.194565 0.943044 -0.588227 0.688523 0.136407 -0.721538 0.440623 -1.453776 0.416904 -0.600149 -0.401840 1.810164 0.846299 -0.106979 -1.139473 0.674521 -0.043446 0.631797 0.771127 1.615365 0.256597 0.053414 -1.142972 -1.467829 -2.381526 0.329987 -0.068599 0.217761 0.807415 0.399585 0.845431 -0.677481 -0.500217 0.212023 1.548395 -0.237317
team 0.176629 -0.577335 -0.094183 -0.444206 0.013880 -0.074187 -0.079957 0.495812 0.261604 0.779608 0.142133 -1.041370 1.231603 0.690480 -0.306703 2.077936 -1.435598 -0.537135 -0.074535 0.310725 -0.235302 -0.280394 -0.756330 1.353121 -1.131213 1.480183 -0.502244 0.722986 0.701824 -0.211990 1.226332 -0.594160 1.091332 0.798956 0.355257 0.390173 -1.456251 -0.000874 0.219733 -0.767959 -0.621448 -0.711014 1.362585 0.302935 0.554259 -0.161708 -0.753492 -0.679679 0.267962 -0.024902
solutions -0.938959 -0.101432 -0.159016 -0.782607 0.420895 -0.338258 -2.188562 -0.033900 1.347735 1.265127 1.530203 0.631008 0.215292 0.429164 0.200630 1.841245 -0.937306 0.003350 0.232927 0.657109 0.296868 -0.000934 -0.333549 0.938367 -1.023261 0.419833 -0.585614 0.253724 -0.167888 0.198736 0.137298 0.139354 1.764273 0.913712 1.397490 -0.234622 -0.286439 0.055556 -0.140859 0.167987 0.631997 -1.479481 -0.538508 0.720848 0.383193 -0.934146 0.305108 -0.331406 -0.756688 -0.021543
work -0.137045 -0.039056 0.510664 -0.438434 -0.164921 0.816980 -0.280273 0.205213 -0.213938 1.028369 -0.461617 -0.101366 1.502595 0.598761 -0.501540 2.263355 0.074449 -1.446028 -0.297953 0.211333 -0.625524 -0.040608 0.013226 1.011528 -0.061059 0.298561 -0.326185 0.002135 -1.505463 -0.127312 1.554953 0.378324 0.480210 0.926521 0.507871 0.102704 -1.134308 -0.856303 0.806330 -0.504245 0.124606 -0.701396 0.686945 0.370288 0.412354 0.421091 -0.823299 -1.794251 -0.053482 0.077417
skills -0.194240 -0.402063 -1.359798 -1.304084 0.579256 0.779564 -1.152306 -0.175824 0.526840 1.079029 -0.979314 -0.941561 0.173058 0.190271 -0.612128 2.226174 -0.067016 -0.585323 0.574581 -0.201891 1.059623 0.163932 -0.385722 -0.296310 0.642288 2.017958 0.670269 1.254017 -0.636975 -0.281419 0.705650 0.119118 -0.256639 -0.339536 -0.522930 -0.514546 0.359376 0.105549 -0.532575 -1.552032 -0.272598 -0.705088 -0.812948 0.695651 0.835984 0.142044 0.427511 -1.118827 -0.490758 0.034590
knowledge -0.333102 -0.478039 -0.051757 -1.255260 0.693152 -0.130819 -0.244635 0.349777 0.748890 1.511769 -0.160309 0.290365 -0.011565 1.767104 -0.130004 1.205838 -0.804225 0.263659 0.437186 -0.584841 0.696203 -0.009684 0.082128 -0.570883 1.404479 0.918064 -0.713403 0.416335 -0.104512 -1.124789 -0.043319 0.868731 -0.461762 0.940394 0.132951 -0.944863 0.614445 -0.034832 0.435891 -1.509648 -0.882470 -0.916303 -0.963380 0.641660 0.635704 -0.715763 0.564167 -1.584062 0.616979 -0.602996
NNP] -0.773958 -0.496835 0.345132 -0.976439 1.257898 -0.600277 -1.683392 0.675177 -0.457465 -0.396895 -0.550164 0.564618 1.089042 0.337385 -0.252490 0.777962 -1.141938 0.527128 0.090449 -0.350363 0.837915 -1.717550 0.784782 -1.002480 -1.458634 0.339554 0.406981 0.247038 -1.174979 -0.495704 0.966784 -0.011116 -1.074388 0.536406 1.179077 0.974349 -0.797255 0.207193 -1.376241 0.232610 -0.591894 -0.322919 0.623808 0.190205 1.693858 -0.537289 -0.189672 -0.781532 -0.509781 -0.143906
role 0.089861 -0.601805 -0.403648 -0.178257 0.587761 -0.599012 -0.344705 0.663121 0.446605 0.824267 0.288786 -1.191076 0.646762 0.321378 -0.331072 2.161996 -0.640022 -0.952583 0.715101 -0.583450 -0.408248 -1.227228 0.202179 -0.094364 -1.253541 1.739797 -0.570709 -0.473981 0.595095 0.856644 0.005771 -0.529407 0.942833 -0.280028 -0.407466 -0.446267 -0.701237 -0.113281 -0.072372 -0.056636 -0.846372 0.204181 0.395518 0.051323 2.224501 -0.686063 0.096790 0.056298 -0.197454 0.115529
position 1.437158 -0.410720 -0.252696 -0.315271 0.558255 -0.166281 -1.748409 0.695425 -0.402280 0.427302 -1.171127 -0.875452 0.553147 0.453008 -0.786293 1.203067 -0.002312 0.356540 0.428645 -0.357674 -0.006741 0.110005 -0.134896 0.054952 -0.661332 0.478720 -0.996584 -0.659361 -0.667757 1.083574 0.854119 0.677677 0.528018 0.565049 -0.150393 -0.835381 -0.795759 0.349557 -0.508627 -0.226217 -0.579392 -0.602426 -1.134572 -0.349823 2.661203 0.496147 0.197501 0.168208 0.474048 -0.019255
models -1.153847 -1.039816 0.462001 0.130690 0.293176 -0.578485 -0.991283 -0.122179 1.089691 1.180471 0.578919 0.389620 -0.344109 1.316465 0.256994 1.725169 -0.516653 -1.687476 -0.032150 0.579545 0.565937 -0.156253 0.211750 -0.731865 -0.417651 0.302259 0.073811 -0.238480 0.083213 -0.444274 0.397778 -1.413393 1.190023 0.959440 0.017768 0.023967 -0.238119 0.604740 -0.349878 0.067604 1.061513 -0.197641 -0.604543 1.059044 0.936450 0.069403 -0.617898 -0.102155 0.799586 1.314978
analytics -0.270861 0.312593 0.113147 -0.894038 1.056726 -1.365908 -0.783738 1.212137 0.332971 1.214834 0.825414 -0.796599 1.153954 0.552643 -0.216660 1.275790 -0.409127 -0.751171 -0.452339 -0.697469 -0.068800 -0.128184 -0.667748 0.301762 0.326673 0.841937 -0.710292 -0.103098 -0.228801 0.360321 0.842255 0.009845 0.423597 1.018861 0.138044 -0.612534 0.862492 -0.569531 -0.433871 0.219270 0.743648 -0.039301 -1.807462 -0.315604 0.855172 -0.623515 0.201313 0.202011 0.155955 0.448972
information 0.951722 -1.400366 0.398220 0.898684 0.050176 0.676568 -0.617182 -0.095043 1.101228 -0.309151 -0.291840 0.131310 -0.414383 0.294824 0.002425 0.438113 -0.572689 0.932038 -0.665295 -0.030035 0.385340 0.346055 0.568026 -0.341468 0.365520 1.867151 -1.336946 -0.392439 -0.056880 0.284432 0.676937 0.861703 0.199270 0.957924 0.740622 -0.719867 0.849649 -0.876614 -1.235322 -1.400465 0.309392 -0.371475 -0.534191 0.975915 1.891226 0.426464 -0.693131 -0.731077 -0.467386 -0.381534
insights -0.502940 -1.429191 0.971573 -0.392757 0.128750 -1.627987 -0.635883 -0.039274 1.040652 1.356123 0.602106 0.068817 1.307188 0.321256 0.403840 1.806164 -0.180551 -0.954200 -0.278591 0.411991 0.929783 -0.713736 -0.333784 -0.301842 -0.210431 1.170341 -1.341236 0.475972 0.013048 -0.429374 1.038200 -0.053371 0.782978 0.391645 0.301910 -0.443849 0.504275 -0.056803 -0.118520 0.726867 -0.086697 0.721857 -0.125159 0.641080 0.794699 0.215311 0.160877 0.258433 -0.691612 0.449755
machine 0.010990 -0.865205 -0.935065 -0.004970 0.949680 -0.526481 -0.785069 0.447030 0.704679 -0.093304 0.788544 -0.892504 -0.383962 2.113447 -0.689062 1.497673 -1.044875 -0.608849 1.160982 0.287254 -0.066559 0.054743 0.913353 -0.488722 0.275570 -0.373866 -0.221543 0.136049 0.476656 -1.028837 0.711758 -1.340169 1.020864 1.997235 0.320711 -0.234962 -0.395200 0.606783 0.857749 -0.267543 0.633707 -0.590379 -0.358783 0.564983 0.707678 -0.471492 -0.439989 -0.695128 0.688202 0.457748
people 0.579424 -1.662272 -0.456354 -0.611200 0.167081 0.632055 -0.216738 -0.190873 0.668857 0.065764 0.592576 -1.246943 1.604995 -0.254504 0.066889 1.214609 -1.311463 -0.856742 -0.997938 -0.570769 0.047588 0.308943 0.093100 0.888272 -1.175215 -0.321140 0.031887 0.792191 -0.295370 -0.429197 -0.266793 1.739504 -0.304743 0.585251 0.649965 0.281767 -0.652808 -0.579491 -0.482915 0.097922 0.003263 0.016667 -0.144881 0.511363 0.543155 -0.337190 -0.793952 -1.295267 -1.145520 -0.412406
analysis -1.087514 0.476906 -0.366387 0.933886 0.497257 -1.016116 -0.748284 0.333459 0.565062 0.757875 -0.037249 -0.628105 0.585955 0.714552 0.524789 1.967299 0.436887 -1.084375 -0.362287 0.603205 0.744945 0.226627 0.052480 -0.455798 0.400518 1.002676 -0.826752 0.127933 -0.807344 -0.794096 1.618692 -0.075202 0.498780 0.825705 0.357556 -0.049018 1.053574 0.095580 0.107832 -0.121118 0.938953 -0.685198 0.493951 0.605147 1.346671 0.614531 0.109454 0.387667 0.125947 0.414020
qualifications 0.647031 -1.251255 -0.807517 -0.048471 -0.109953 -0.121783 -1.508756 0.304342 0.141528 0.381084 0.516934 -0.703645 0.390536 0.158870 -1.874841 1.076285 0.359419 0.395599 -0.023788 0.051065 1.328372 -0.116616 0.342433 -0.550936 0.214997 1.372023 -0.157127 -0.123795 -0.545911 -0.134770 0.242851 -0.841050 0.426404 0.229860 0.758284 -1.157973 -0.282578 -0.134315 -0.095513 -0.655805 0.034572 -0.673028 0.571844 0.260179 2.141834 -1.041157 -0.661949 -0.620383 0.889661 0.354503
degree -0.299010 -0.130595 -0.458108 -0.447294 0.814462 -0.187727 -1.166864 0.737259 -0.171255 0.578452 0.188126 -0.025493 0.939049 -0.202946 -1.910812 0.811914 -0.298403 0.719906 0.517748 0.432660 1.203294 -0.414628 1.179502 -0.902969 0.719145 1.325839 -0.319289 0.668133 -1.485270 0.053956 0.915370 -0.318915 -0.743672 -0.105263 1.365942 -0.603920 -0.512461 -0.492020 -0.096877 -0.113781 0.592771 -0.331202 0.508490 -0.013257 1.431550 -1.870042 0.020042 -1.139035 0.508610 0.813236
customers -0.391075 -0.555043 1.618979 0.257217 0.213378 -0.494236 -0.852913 0.109629 0.433092 0.564087 0.048628 0.240836 1.031028 -0.458568 0.275827 0.973702 -0.886700 0.470002 -0.030703 0.015069 0.165362 0.575570 0.222506 0.577136 -0.978344 0.070287 0.220588 -0.081448 -0.509901 0.090662 1.264369 -0.312939 1.071816 1.057693 0.617558 1.337815 0.758570 -1.235898 0.064234 -0.838566 0.101959 -0.505743 -0.100971 0.084276 0.165939 -0.888394 -0.895101 -1.008813 -0.765768 -0.528517
responsibilities 0.361283 -0.323023 -0.051309 -0.003086 -0.256828 -0.096023 -0.578535 0.390697 0.817477 0.870033 -0.301554 0.487594 0.628580 1.321551 -0.048219 1.095721 0.377186 -1.012208 -0.361088 -0.177011 0.019093 0.063493 -0.326045 -0.641132 -0.447502 0.630945 -0.632510 -0.355928 -0.094898 1.566865 1.576212 -0.850280 1.334000 1.115990 0.406552 -0.199821 -0.171783 0.585790 0.423950 -0.502745 0.644213 -0.982759 -0.420996 0.298866 1.606145 -0.586956 0.531584 -0.750569 0.114646 -0.104769
field -0.248687 0.047236 -0.368498 -0.524981 0.464268 -0.272600 -0.833021 0.316284 -0.092506 0.350596 0.545631 -0.331991 1.033719 -0.708563 -1.667882 0.920274 -0.699558 0.292405 -0.034667 -0.189048 1.047304 -0.367752 0.881645 -0.863309 1.275908 1.052659 0.038761 1.047131 -1.057028 -0.535845 0.246120 -0.172079 0.292856 -0.010965 0.632332 -0.381833 -0.068351 -0.346390 0.089785 -0.948608 0.201693 -0.331264 -0.090078 -0.392242 0.837939 -2.061957 -0.775719 -0.874785 0.724137 0.866064
business -0.704988 -0.208480 0.890572 -1.001154 0.304885 -0.175746 -0.639233 0.703733 0.702753 1.489436 0.402722 0.116029 0.878065 -0.360829 0.490735 1.536989 -0.657925 0.190710 -0.679725 -0.026211 -0.313194 -0.683325 -0.219634 0.028696 -0.161166 0.246583 -0.810668 0.148450 -0.221989 -0.151279 1.268202 -0.006886 1.501697 -0.133804 0.222730 -1.026857 -0.169984 -0.415915 -0.474470 -0.768114 -0.678947 -0.567119 -0.632515 0.135580 0.144802 -0.750516 -0.511762 -0.172349 0.068201 -0.288347
understanding -1.130446 -0.453821 -0.241731 -0.147500 0.345211 -0.086148 -0.964909 0.195161 0.008225 1.735110 -0.093801 0.073627 0.864975 1.254236 0.209236 0.999263 -0.315293 -0.104481 0.179611 -0.515032 -0.036190 -0.269610 0.194395 -0.568848 1.279240 1.068580 -0.128380 -0.099431 0.240331 -1.055618 -0.091637 -0.885405 0.477858 0.398480 0.019150 -1.215061 0.134690 -0.963864 -0.824082 -0.340673 0.018031 -0.984129 -0.513530 0.327700 0.062069 -0.330020 -0.761228 -1.510409 0.270222 -0.602566
tools 0.548311 -0.266711 0.255111 -0.560497 -0.506020 -1.095239 0.085036 -0.214896 1.105365 0.816041 0.652170 0.075838 0.396712 0.900901 -0.426704 1.749405 -0.315778 0.374610 0.539558 -0.658917 0.405180 -0.454840 -0.149403 0.956103 0.164754 0.475929 0.385154 0.243294 -0.580123 -0.716840 1.089114 0.140564 0.694269 0.688770 0.545853 0.369478 0.418143 -0.445066 -0.217809 -0.078754 0.022270 -1.100687 -0.914794 0.398490 -0.169011 -0.106654 1.112968 -1.882311 1.133455 0.720632
company 0.053146 -1.306871 0.644377 -1.190196 -0.120393 -0.384018 -1.173675 0.451721 0.347123 -0.585765 -0.129941 -0.095425 1.287835 -0.428254 -0.085480 -0.579550 -1.647154 -0.677915 -1.193627 0.128884 -0.132749 -0.560457 -0.366879 0.067160 -0.429700 -0.744796 -0.238685 0.254128 0.776737 0.435672 1.022886 0.962050 0.434702 0.333041 0.022893 -0.158826 -0.302648 -0.244199 -0.853118 -1.237072 -0.431549 -0.654662 0.582170 0.700306 0.559847 -1.383188 -0.618473 0.497739 -0.178799 -0.250087
problems 0.302651 -0.455643 -0.801103 -0.620260 -0.144748 -0.043384 -0.610026 0.790942 0.257247 0.960454 0.626441 -0.292197 -0.066916 0.689025 0.343272 2.106382 -0.389016 -0.841336 0.138822 0.379038 0.208600 -0.586603 0.149103 0.391466 -0.454024 0.273311 -0.719313 0.399033 -0.275188 -0.872863 0.543118 0.553713 0.016070 1.357866 1.353013 -0.851575 -0.243300 0.372082 -0.215597 0.434714 -0.796465 -0.420501 -1.051262 0.375489 0.587204 0.262147 -0.747534 -0.657694 -1.064795 0.791648
opportunity 0.392345 -0.202498 -0.484022 -0.251019 0.855781 0.830651 -0.360319 0.811637 0.558846 0.289512 0.213968 -0.633384 0.803588 -0.576828 -0.160062 0.924421 -1.079163 -0.213301 -0.391956 -0.884017 -0.129700 -0.864138 -0.262678 1.264917 -0.540170 0.095775 -0.264571 0.823233 0.800274 0.014719 0.354903 0.651468 0.749267 0.382430 -1.136148 0.852005 -0.296173 -0.345208 0.114973 -0.637596 -1.072619 0.217835 0.010497 -0.400466 2.045031 0.272868 -0.237464 -0.377965 0.593464 0.022199
teams -0.105251 -1.291079 0.387694 -0.799816 0.563563 -0.317976 -0.429671 0.948168 1.129254 1.248636 -0.025226 -0.036188 0.361369 0.000532 -0.111755 1.391670 -0.291826 -0.528857 -0.778500 -0.183534 0.496144 0.199656 -1.271569 0.647686 -0.047335 0.965131 -1.123642 -0.054898 0.199534 0.016217 0.761116 -0.427854 0.308013 -0.017658 0.908426 -0.568362 -0.318621 -0.617559 -0.175482 0.616532 0.315529 -0.468340 -0.147689 0.546498 0.570482 -1.159163 -0.488165 -1.007234 0.002220 -0.107581
projects 0.505993 -0.463450 -0.627190 -0.457863 1.043056 -0.244617 -0.711244 1.116076 1.250329 1.717621 -0.721179 -0.319669 -0.961458 -0.265114 0.130783 1.591105 0.083257 -0.321080 0.835948 -0.129231 -0.579547 -0.428835 0.194906 -0.105178 -0.165797 0.696469 -0.708747 0.279283 -0.260081 0.768461 1.253102 0.443668 0.525686 1.010499 0.898763 0.131188 -0.729247 -0.048876 -0.725711 0.096209 -0.711961 0.010642 0.468364 0.236756 0.534086 -1.016609 0.002393 -0.701812 0.321480 0.330188
employees 0.879136 -0.308491 0.748451 -0.053861 -0.828936 1.518869 -1.707630 0.039921 1.087841 -0.172193 -0.435305 -0.326542 0.614103 -0.175609 -1.458223 0.374871 -0.051657 1.241814 -0.756018 -0.785314 -0.196102 -0.692719 -0.435153 0.482176 -1.293798 -0.510185 0.308416 0.022751 0.323734 0.062382 0.695164 0.470784 -0.082564 0.315445 -0.397914 1.057619 0.052397 -1.433773 -0.291124 -0.688258 0.529185 -0.450406 1.144895 0.754193 0.411728 0.432563 -0.630679 -0.185314 -0.694980 -0.357141
techniques -0.753981 -0.765889 -0.164040 -0.029310 0.098413 -0.653741 -1.010868 0.172575 0.477582 0.873028 0.622796 -0.121419 -0.471269 0.876417 -0.006917 1.761473 -0.435325 -0.601054 0.891573 -0.154723 -0.142161 -0.465747 0.921302 -0.889539 0.571452 0.197832 -0.680752 1.248291 0.261567 -0.108871 0.759546 -0.871138 0.608291 1.465053 0.243296 0.291716 0.391746 0.315324 -0.190995 0.081114 0.453136 -0.107656 -1.178932 0.883676 0.475353 0.075182 -0.068519 -0.353102 0.101024 1.090186
systems -0.855389 -0.104007 0.024783 0.576550 0.091013 -0.281702 -0.448417 -0.203797 0.357974 1.176292 0.502483 -0.030718 0.624966 1.708140 -0.334016 0.596406 -0.171121 -0.030706 -0.389046 -0.652227 -1.141188 0.443621 -0.005448 -0.145297 -0.298807 0.605705 0.194716 -0.405009 0.315763 -0.975703 0.507349 0.413569 0.573985 0.339548 0.556762 0.414516 0.086104 -0.065196 0.481501 -0.656416 -0.251518 -1.339495 -0.694532 1.012210 1.612918 -0.848609 0.808508 -1.218949 -0.192171 0.870158
data_science -0.127535 0.382815 -0.404167 -0.969658 1.352140 -1.083726 -0.600193 0.744345 0.147670 0.711413 0.312229 0.422688 1.515384 -0.264821 -0.004333 0.958603 -0.965297 -0.873572 0.056363 -0.118058 0.591345 -0.119812 -0.114361 0.803938 0.775308 0.593078 -0.323291 0.760470 -0.617625 -0.108241 0.454984 -0.782287 0.533081 0.700824 0.218902 -0.116932 -0.494533 -0.178124 0.179573 -0.910369 0.297694 -0.197003 -0.596174 -1.490275 1.253843 -0.223198 -0.140281 0.340587 -0.028221 0.651176
development -1.217263 0.518955 0.142680 -0.235106 0.212337 -0.488099 -1.229311 0.019819 1.066232 0.142672 0.734832 -0.028913 0.233536 1.091797 0.694379 1.802312 -0.286287 -0.352351 0.411236 -0.175041 0.418518 -0.534140 -0.471069 0.406399 -0.165313 0.107806 0.288694 -0.258154 -1.271329 0.411768 1.334800 -0.121466 -0.033768 0.144614 -0.669834 -0.055177 -0.439808 0.830842 -0.143274 -0.635842 -0.026339 -1.423406 0.389554 -0.504614 1.119071 -0.683504 1.007647 -0.412854 0.211073 0.470675
applicants 1.008093 -0.088468 -0.249931 0.438009 0.168803 1.440238 -0.848259 0.750029 0.218473 0.202834 -0.438584 0.396778 0.296854 0.329223 -1.140864 -0.608008 -0.133497 1.523143 -0.926085 -0.718690 0.779242 -0.663839 -0.885095 0.698927 0.067430 -0.471950 -0.831318 -0.096074 0.223995 -0.085105 0.094898 -0.214028 -0.147528 -0.340902 -0.576936 -0.235065 -0.268535 -0.988662 -0.535261 -0.637267 0.129165 0.377745 0.573190 0.921390 1.816200 1.083993 -0.507868 0.575038 -0.071637 0.165980
part 0.229406 0.457424 0.284438 -0.134908 0.545519 0.966715 -0.488383 0.846479 0.275309 0.295894 0.239929 -1.015262 0.693570 1.292617 -0.635004 1.088730 -0.628922 0.440249 -0.344058 -0.436539 -0.003479 -0.517175 -0.579610 1.111376 -0.984697 0.784219 -0.203867 0.935509 0.122050 0.616361 0.938094 -0.103164 0.019962 0.527118 -0.228459 0.338643 -0.730945 -0.451932 -0.439923 -0.246056 -0.607185 -0.442693 0.428201 0.034036 1.121041 0.645664 -0.774737 0.311914 -0.207798 -0.045065
results -0.956116 -1.125200 0.284751 0.632273 -0.249395 0.105195 -0.435757 0.715885 1.177499 0.740546 0.806340 -0.455084 -0.524933 -0.378514 0.392156 1.425173 0.257965 -0.202390 -0.078234 0.780027 1.107339 -0.330116 -0.563211 -0.294386 -0.127442 0.443254 -0.385045 0.723793 -0.790608 -0.296415 1.577964 -0.288220 0.882028 0.721626 0.801234 -0.076120 0.807139 -0.101607 -0.214937 -0.406975 -0.363237 -0.027601 0.462574 0.766413 0.517833 0.861119 -0.782782 -0.763492 1.091492 -0.328656
world 0.250423 -0.971201 1.173176 -0.124484 1.099348 -0.252064 -0.334950 0.324599 0.538168 0.171609 0.017312 -0.066792 1.610282 0.654096 0.798742 0.572717 -0.945596 0.058261 -0.676938 -1.153302 0.288691 0.553634 -0.399428 0.722840 -1.042970 -0.542126 0.412866 0.727966 0.085933 -1.158775 0.432664 -0.112679 -0.282984 1.076127 0.584565 0.118787 -0.136978 -0.346579 -0.458652 0.345581 -0.696257 -0.161583 0.076240 -0.016332 0.429971 -0.128052 -0.504249 -0.913446 -1.233606 -0.438780
environment 0.093209 -0.596581 -0.602568 -0.547459 0.335969 0.609907 -0.906598 0.408187 0.876268 0.826237 -0.038697 -0.846624 -0.721342 -0.085986 -0.732942 2.193212 -0.476525 0.124000 0.194513 -0.167128 -0.155527 -0.216627 0.056022 -0.125990 -1.096251 0.880133 0.163549 0.266156 0.885087 0.113101 0.286884 0.318292 -0.052929 0.347099 0.936402 -0.750525 -0.451585 -0.311979 0.421859 -0.406650 -0.714609 -0.222601 0.422941 0.300491 -0.581592 -1.331506 -0.990494 -0.976881 -0.514136 -1.098545
data_scientist 0.148229 0.481989 0.024504 0.150203 0.543234 -0.208669 -0.693030 0.508297 -0.313957 0.660778 0.018602 -0.356869 0.716920 0.226716 -0.020070 1.051462 -0.611911 -0.330172 -0.114814 -0.271553 -0.401030 0.088383 0.405790 -0.246374 -0.591243 0.897028 -0.515936 0.245369 0.240783 0.612653 0.629963 -0.721966 0.943321 1.192952 -0.032895 0.565978 -0.090984 0.067863 0.112093 -0.530452 0.216565 -0.202770 -0.531922 0.032184 1.309738 -0.374863 0.171653 0.217571 -0.716898 0.991098
employment 1.581482 -0.536791 -0.234513 0.505134 0.728127 0.826418 -0.186652 0.647891 -0.312073 0.317808 -1.019241 0.289143 -0.100936 -0.236362 -0.801408 -1.110401 -0.709133 1.322861 -1.383216 -0.510487 0.513982 -0.275334 -0.971166 0.194624 0.036545 -0.865977 -0.843380 -1.075529 -0.347717 0.049095 0.075478 0.721409 -0.217643 0.086328 -0.374843 -0.554806 -0.984654 -1.084805 -1.110016 -0.326805 0.153332 0.687795 0.817085 1.050143 1.170488 0.642089 -0.072308 0.103793 0.631357 0.033858
candidate 0.188607 -0.135077 -0.603157 -0.662610 0.407378 -0.838557 -0.396526 0.807492 0.973524 -0.279570 0.123329 -1.150687 -0.057401 0.096335 -0.847082 1.128902 0.202555 -0.729433 0.825153 -0.016815 0.131567 -0.643901 0.836343 0.189642 -0.372602 0.686311 -0.344481 1.155145 0.157549 0.887580 0.735512 -0.560190 0.206610 0.045989 0.511873 -0.039405 0.066204 -0.133077 0.288605 -0.740940 -0.781412 -0.956326 -0.101750 0.089558 1.008173 0.112957 -0.048359 0.123749 0.267419 -0.108363
research -0.498702 0.188797 0.591510 -0.084090 0.308488 -0.361306 -0.615634 0.507068 0.574144 -0.047769 0.452894 -1.135421 0.380428 0.629437 0.129394 1.737726 -0.706618 0.102995 0.718389 0.775375 0.486353 0.260078 0.433419 -0.207317 0.533681 0.925652 -0.508556 0.091582 -1.204344 -0.053305 0.612594 -0.124632 0.118624 1.414492 -0.412051 0.159972 0.091837 -0.134981 0.420641 -0.185791 -0.166415 -0.531893 0.206897 -0.767594 0.723112 0.187705 -0.433666 0.046999 -0.156886 0.254184
technologies -0.332940 -0.079100 -0.429287 -0.516810 -0.017775 -0.832883 -0.439368 0.256300 0.634777 0.761411 1.149890 -0.502077 -0.392289 0.870815 -0.380299 1.193635 -1.303199 0.243495 0.078101 0.053653 0.479896 -0.360406 0.284425 1.087029 -0.401698 0.434332 0.627348 0.495796 -0.204859 -0.630339 0.364134 0.486863 0.547977 1.344891 1.290272 0.043497 0.316146 0.134410 -0.743050 0.136198 -0.647452 -1.317725 -0.730089 0.115732 -0.068050 -0.164820 0.275061 -0.843472 0.343851 -0.232922
opportunities 0.211555 -0.670603 1.520734 -0.422722 0.012361 -0.388293 -0.732950 0.248324 0.443180 0.986551 0.164452 -0.164488 0.500456 0.058887 -0.069013 1.295122 -1.526296 -0.232693 -0.606909 -0.143764 0.209670 -0.902388 -0.855273 -0.240104 -0.735577 -0.258807 -0.409359 -0.100661 0.604180 -0.472136 0.943575 0.943570 -0.062221 1.328513 -0.462022 -0.174332 0.200159 0.009937 -0.253305 -0.026217 0.292877 0.445577 -0.032127 0.808848 0.393022 0.035485 0.695314 -0.353175 -0.355779 0.636348
requirements 0.493763 0.446426 0.163906 -0.048244 -0.118380 0.019195 -1.206901 0.926756 0.372236 0.547980 -0.464290 0.888670 0.282909 -0.044421 -0.453941 0.566433 0.642845 -0.070414 -0.213669 -0.104649 0.202251 -0.195788 0.100791 0.558856 0.211733 -0.005076 -1.002310 0.434296 -0.584870 0.195370 1.059469 -0.319509 1.038535 -0.513351 1.148754 -0.475899 0.186087 -0.015239 0.395357 -0.619047 -0.537331 -1.636774 -0.334640 0.339020 1.431100 -0.426548 -0.251773 -0.398063 0.429663 0.640359
time 0.923331 -0.447181 -0.270314 -0.682233 0.111253 0.684359 -1.063827 0.796982 -0.244132 -0.311069 -0.533080 -0.078276 -0.191248 -0.338842 0.301455 1.573476 0.076723 -0.141770 0.112799 -0.004009 -0.030070 0.279696 0.367444 -1.452167 -0.431057 -0.894027 -0.031684 -0.867919 0.102042 0.471704 1.392179 1.363877 0.973573 0.987372 0.231456 -1.068872 -0.795132 0.466010 -0.539639 -0.171028 0.573066 -0.618855 0.401600 -0.000269 0.575658 -0.224013 -0.100410 0.378292 0.211337 0.486669
clients -0.242730 0.089430 1.126971 -0.326931 0.336695 -0.393875 -0.418604 0.710998 0.638570 1.349062 0.345555 -0.146043 0.414223 -1.044117 0.880277 0.947798 -0.822094 0.062823 -0.026384 0.222430 -0.068015 -0.286765 -0.367132 0.716024 0.058508 0.441635 -0.650727 0.415854 0.245700 -0.307817 0.709671 0.776443 0.459106 0.130891 0.579915 0.167120 0.036168 -0.916567 -0.051207 0.545421 -0.363357 0.174498 -0.157870 0.763459 0.450064 0.087226 0.125817 -0.324638 -0.460314 -0.227042
design -0.259180 0.838084 -0.398611 0.563341 0.402113 -0.230422 -0.388980 0.668674 0.689370 0.715222 0.908618 0.056768 -0.262220 1.402362 0.874529 1.343016 0.221978 -0.427515 -0.434613 -0.561149 0.465408 -0.001090 -0.533599 0.416588 -0.253629 0.349730 -0.122574 -0.135247 -0.646623 -0.244266 0.564954 -0.883803 0.594807 0.126183 0.197015 -0.303886 -0.282824 1.109959 -0.322814 -0.935991 -0.621111 -1.170116 -0.236870 0.194202 0.993033 -0.188024 -0.058285 -0.373040 0.035104 0.575795
communication_skills 0.161031 -0.025136 -0.331623 -0.828845 0.504651 0.569735 -0.107829 0.467839 0.726201 0.984777 -0.179540 -0.586642 -0.594048 -0.093728 -1.113578 0.911865 0.713638 -0.108729 0.647482 0.392614 0.689037 -0.055597 0.090673 0.177442 0.247347 1.657742 -0.620135 0.798703 -0.631028 0.168497 0.573394 -0.284111 -0.222467 -0.082951 0.897899 -0.997678 0.393643 -0.680990 -0.164746 -0.722314 -0.366004 -0.938875 -0.072803 0.265794 0.148844 0.248176 -0.751496 -1.155328 0.167306 -0.592724
support -0.465413 0.056612 0.410306 -0.000453 0.374488 -0.266045 -0.474349 0.481925 1.279576 0.515846 0.121593 -0.207325 0.026294 0.605572 0.427514 0.982272 -0.287955 -0.083764 -0.446035 -0.285478 -0.182986 -0.678321 -0.591224 1.019488 -1.014403 0.103656 0.157351 -0.939544 -0.894952 0.380035 1.130009 0.040103 -0.004839 -0.342830 0.008500 0.145275 0.070411 0.675984 -0.376561 -0.623843 0.294892 -0.791467 0.484314 -0.118635 1.017291 -0.906297 0.470064 -0.586992 -0.068979 0.369989
machine_learning -0.040621 0.046420 -0.226168 -0.150737 0.810237 -0.677703 -0.413855 0.510743 0.048454 0.244067 1.438185 -0.567859 0.323647 0.743443 0.206358 1.648954 -0.898077 -0.822455 -0.028191 -0.682498 0.381535 0.056393 0.236784 -0.173075 0.981557 -0.277908 -0.095504 0.339809 -0.188749 -0.775981 0.103288 -1.161556 0.424573 1.278125 0.281229 -0.440151 -0.366177 0.478147 0.025705 -0.843109 0.555200 -0.320540 -0.861772 -0.251653 0.690951 -0.234815 -0.592832 -0.007906 -0.352399 0.602815
organization -0.272756 -0.624805 0.254890 -0.164967 0.322557 -0.157702 -1.751228 0.444581 0.425324 0.543872 -0.370181 -1.208377 0.857622 -0.132166 0.290887 1.287376 -0.184739 -0.175182 -0.241527 -0.408439 -0.193309 0.222591 -0.980365 -0.234862 -0.241025 0.736676 -0.279296 0.045791 -0.473386 0.002224 0.582647 -0.667210 0.333020 0.487982 -0.479273 0.041879 -0.230637 -0.510935 -0.199558 -0.134381 0.172315 0.374122 0.233968 -0.144101 0.591793 -0.236823 -0.182582 -0.111818 -0.204123 -1.315524
products -0.267216 -1.053544 0.156263 0.054820 0.082232 -0.671924 -0.254739 0.184779 0.825371 0.076467 0.781532 -0.752550 0.307585 0.231332 0.781213 1.104713 -1.053188 0.627727 -0.413891 -0.270590 -0.815769 0.537432 0.208032 0.666188 -0.168676 0.461134 0.570493 0.093575 -0.284657 -0.513998 0.755633 0.177405 0.786341 0.407442 0.515319 0.309327 -0.182901 0.094909 -0.893972 -0.482765 0.087628 -0.497113 -0.157600 -0.206439 0.572801 -0.330087 -0.182208 -0.627455 -0.264548 -0.114229
job 1.032752 -1.387326 0.484587 -1.281196 -1.513709 0.388458 -0.989332 -0.633970 -0.230463 -0.492722 0.044534 -0.599478 1.527063 0.812943 -1.228058 0.636988 0.734275 0.113340 -0.430240 -0.796824 0.253302 -0.066247 -0.588250 -0.421551 -0.650216 0.864752 0.043998 0.719824 -0.231675 0.958717 -0.094233 -0.562469 0.335783 0.796682 -0.705943 -0.233704 -0.220512 0.385063 0.143187 -0.157716 -0.148527 0.133219 -0.856371 -0.213960 0.684627 -0.318601 -0.422336 0.117248 -0.758820 -0.790369
variety -0.396813 -0.913067 -1.484777 0.425995 0.217305 0.928923 -0.079187 -0.296817 1.121108 0.915212 0.289547 0.893372 -0.644562 -0.286953 -0.163559 1.833167 -0.629252 -0.509267 0.088094 0.572940 0.292961 -0.784102 0.646097 0.096569 0.103067 1.203140 -0.792379 -0.183967 0.272191 -0.250796 0.875663 0.684894 0.731128 1.191401 0.333145 0.691119 0.186777 0.263301 0.601594 -0.882870 -0.295932 0.749995 -0.276755 0.313183 0.943713 -0.340931 0.130617 -0.979393 0.233624 1.261117
technology -0.318064 -0.697783 0.355401 -0.965191 1.280849 0.082941 -0.587025 0.282928 0.440552 0.452703 0.763538 -0.378361 0.943461 0.492312 0.527167 1.188764 -0.738102 0.912733 0.096226 -0.354666 0.611566 0.680506 0.362125 0.284771 -0.236817 -0.076294 -0.052181 1.519056 0.750248 -0.436445 0.344203 0.951757 0.023696 -0.173062 0.152948 0.144146 -0.088355 -0.258825 -0.124396 0.169799 -0.606807 0.109382 -0.784731 0.173246 -0.201347 -0.451222 -0.892184 0.478480 -0.754178 0.314611
python -0.258079 -0.409633 -1.139347 -0.939483 1.164208 -0.998951 0.264778 -0.578445 0.463022 0.439494 -0.643508 -0.590414 -0.007270 1.453847 -0.970819 0.654852 0.387767 -0.723068 0.758554 -0.038810 1.095625 -0.696123 -0.095948 0.214699 0.038546 1.201659 0.772701 -0.349138 -0.639993 -1.203682 0.580899 -0.987118 0.085093 0.438701 0.196166 -0.381175 0.125342 0.570101 0.261348 -0.976241 0.359158 0.273436 -0.939832 0.325388 0.336838 -0.450473 0.346050 -1.047457 1.201524 -0.255930
expertise -0.249625 -0.174463 -0.345003 -1.222470 0.939302 -0.259358 -0.285081 -0.070301 0.961860 0.261362 0.262926 -0.736851 1.394982 1.080965 -0.363787 0.703194 -0.198587 -1.197106 0.066643 -0.567933 0.487024 -0.403043 0.276031 0.569804 0.731471 0.250298 -0.389216 0.821534 -0.358518 -0.643254 -0.393100 0.176129 0.136009 0.238761 -0.192464 -0.280218 0.066134 -0.740716 0.177429 -0.660432 0.279953 -0.376488 -0.276255 0.271627 0.767506 0.111380 0.239874 -0.376698 0.186912 -0.652622
data_sets -0.666748 -0.355612 0.440010 0.401476 0.389693 -1.096850 0.052148 -0.709594 0.108405 0.946145 0.103528 0.111823 0.425839 0.748198 0.025091 0.863546 -0.126984 -0.771698 -0.089226 0.680669 0.712423 -0.092119 0.162379 -0.275152 -0.166922 1.786475 -0.073272 -0.115782 -0.424913 -0.479506 1.066655 0.232380 0.790034 1.306388 0.429556 0.058575 1.072080 0.507721 0.445847 -0.786268 0.449027 0.463133 -0.808074 0.545869 1.027496 -0.195278 0.179793 -0.519338 -0.709625 -0.263845
opportunity_employer 0.116230 -0.891708 -0.122687 -0.613732 0.515530 1.436049 -0.460905 0.239217 0.073457 0.287985 -0.203678 0.282314 -0.408801 -0.312750 -1.022355 -0.709659 -0.798211 1.410637 -0.883335 0.107071 0.377183 -0.862773 -0.593050 0.114095 0.674241 0.294393 -0.532363 0.979221 0.749422 0.387104 -0.353787 0.135016 -0.540175 0.015496 -0.817523 -0.022874 0.027226 -1.038723 -0.762150 -0.403460 -0.796287 0.419120 0.540044 0.624759 -0.068480 -0.576594 -0.303316 0.390365 0.667453 -0.247988
’ -0.443526 -0.643001 0.867140 -0.496175 0.696203 -0.271387 -0.797111 0.153008 -0.296389 0.094108 0.121186 0.089219 1.028703 0.539403 -0.616178 0.309914 -0.700192 0.270501 0.003076 -0.346449 -0.153313 -1.333914 0.464538 -0.478334 -0.979352 0.773091 0.271778 0.229860 -0.093317 0.370942 0.395592 -0.385225 -0.256200 1.188088 0.123057 0.580025 -0.673963 -0.788474 -1.110562 0.340273 0.061994 0.091214 0.688899 0.330053 0.638376 -0.391876 0.036299 -0.324123 0.104906 0.006379
impact -0.560941 -0.981858 0.190490 -0.442071 0.107907 0.038660 -1.214095 0.349509 0.162278 0.765979 0.350511 -0.640206 1.099044 -0.421590 0.531335 1.185282 -0.921118 -0.356575 -1.098035 -0.379207 -0.229551 -0.051117 -0.527732 -0.133033 -0.476479 0.028090 0.558770 0.202282 -0.188491 -0.416722 0.478628 -0.175865 0.726769 0.642425 -0.179110 0.202107 -0.522971 0.403168 -0.899593 0.439768 -0.725076 0.142142 0.115453 -0.475001 0.939704 -0.063739 -0.852464 -0.057356 0.421721 0.209003
applications 0.284868 -0.326785 -0.559928 0.277912 0.874245 0.151879 -0.174511 0.150953 0.930908 1.213188 0.245586 -0.555673 0.383857 1.040093 -0.754713 0.229561 -0.677606 0.483834 -0.896795 -0.442834 -0.171422 0.377300 -1.048178 0.660431 0.252275 -0.661131 0.221195 -0.524390 -0.241559 -0.838530 0.190902 0.536749 0.452475 0.674222 0.230460 -0.425166 -0.652676 -0.553757 -0.354008 -0.197730 0.522873 -0.418733 -0.314779 0.053671 1.361146 0.053066 0.605409 -0.956966 0.912572 0.381539
individuals 0.291285 -0.781066 -0.080997 -0.235360 -0.362861 1.728906 -0.201002 0.579827 0.965442 0.515165 -0.037178 0.860308 0.579955 0.774699 -0.616854 0.771606 -0.188861 0.931236 -0.269245 -0.133145 0.670265 -1.198921 -0.553767 1.125556 -0.273596 -0.295891 -0.633860 0.412508 0.245771 0.448266 -0.133740 0.302951 -0.042125 0.331334 -0.524361 0.102182 -0.363320 -0.575688 0.748788 0.438269 -0.130431 1.069134 -0.550551 0.253397 0.922130 0.951942 -0.485022 0.098985 -0.404858 0.562959
stakeholders -0.184448 -0.457104 1.311799 -0.516474 0.173089 -0.163227 -0.519410 0.323611 0.767783 1.591057 -0.435873 0.630255 -0.184478 -0.515918 0.579475 1.101823 -0.226362 -0.463228 -0.237335 0.778313 0.705972 0.091665 -0.938325 0.271748 0.402387 1.031741 -1.175886 0.368573 -0.038652 -0.113501 0.707018 -0.397591 1.192333 0.780683 -0.067043 -0.256090 0.475004 -0.218089 0.411397 -0.678291 -0.405965 -0.137998 -0.165567 0.415965 0.692444 0.153598 -0.154674 0.087384 0.169382 -0.168221
services 0.435356 -1.368569 0.460884 -0.031899 -0.327780 -0.459073 -0.026647 -0.252899 1.006957 -0.208137 1.483956 -0.540677 0.410453 -0.122666 -0.051641 0.655674 -0.785224 0.988959 -0.228025 -0.482204 -1.064716 0.528714 0.788186 1.111061 0.403999 1.067229 0.203205 -0.608999 -0.710687 0.075586 0.070787 0.482882 0.635599 -0.473384 0.310461 0.349356 -0.044151 -0.595909 -1.044877 -0.147137 0.531435 -0.563602 -0.322445 -0.567213 1.446213 -0.638917 0.365592 -0.571449 -0.089961 0.027468
regard 1.356024 -0.352901 -0.361562 0.830852 -0.156905 1.158251 -0.090882 0.121381 -0.422941 0.318310 -0.141045 0.387081 0.190896 -0.472661 -0.421927 -1.304493 -0.652981 1.831136 -1.182487 -0.802491 0.605142 0.225736 -0.115121 0.397797 0.291462 -0.604089 -0.649543 -0.724727 -0.174270 -0.552268 -1.114999 0.487279 -0.578141 -0.378929 -0.014171 -0.239655 -0.682414 -1.158928 -1.415519 -0.056123 0.047784 0.183431 0.354165 0.724698 0.943340 1.043918 -0.556605 -0.267849 -0.216306 -0.079141
methods -0.222792 -0.497430 -0.445946 0.615000 0.783193 -0.156591 0.177716 0.269267 0.578880 -0.133884 0.812689 -0.547292 -0.672201 0.876424 0.378591 0.874925 -1.108718 -0.144796 0.305208 0.170445 0.028490 0.462121 0.646247 0.038250 1.167383 0.425837 -0.611101 1.197345 0.134861 -0.989492 0.414815 -0.783770 0.312049 0.848544 0.105518 -0.163886 0.401053 0.536106 -0.194907 -0.929180 0.722081 -0.337891 -0.566135 0.380652 0.985067 0.639775 -0.267509 -0.605905 0.647063 0.956935
areas -0.277153 0.082280 0.557402 -0.194160 0.923264 0.064527 -0.597116 0.050292 1.207092 0.168456 0.348740 -0.600918 1.286580 0.713154 0.003012 0.531535 -0.450103 -0.571339 0.531011 -0.294910 -0.060272 -0.755216 0.352513 -0.398278 0.561850 0.181606 -0.773400 0.982635 0.101527 -0.841452 -0.052041 0.023670 0.765673 0.217532 -0.851254 -0.039680 0.185023 -0.708421 0.370323 -1.157060 0.306011 -0.682393 -0.298525 0.227114 1.371426 0.039168 0.525779 0.155256 -0.164688 0.075477
value -1.485082 -0.176007 0.688563 0.007366 -0.043762 0.101625 -0.716303 0.285973 0.313902 1.154164 0.620074 -0.020451 1.083397 -0.512983 -0.111484 1.370771 -1.118288 0.240155 -0.151216 0.046152 -0.332139 -1.064680 -0.234746 0.382330 -0.099459 0.597503 -0.064899 0.780897 -0.164590 0.369417 1.055243 0.291206 -0.054790 0.138835 -0.399987 0.678511 0.242258 -1.399898 -0.257923 -0.105221 0.552177 0.399429 -0.119006 0.719271 -0.414995 -0.067245 0.263412 -0.499032 -0.390634 -0.122096
mission 0.281987 -0.081339 0.676727 0.052869 -0.011525 -0.171603 -0.530304 -0.006414 -0.162398 -0.685733 -0.159995 -0.582334 0.940061 0.401310 -0.047149 0.995939 -0.901971 0.058285 0.059831 -0.865459 0.127481 0.552169 0.457099 0.598549 -0.978358 -0.072579 -0.062573 0.291805 0.148285 0.239908 -0.249025 -0.392689 -0.213700 0.266576 -0.010918 1.345155 -0.137754 -0.593203 0.280653 -0.230228 -0.056675 -0.538948 0.121884 0.007034 0.564479 -0.720037 -0.566795 -0.361957 -1.403154 0.613026
practices -0.709034 -0.729293 0.489926 -0.524078 -0.382352 -0.688346 -0.465885 0.007686 0.601236 0.313906 0.361615 0.779991 0.417079 1.096253 0.775921 0.386306 -0.891853 -0.911159 -0.440833 0.310027 0.400150 0.654990 -0.431351 0.216855 0.237921 0.525679 -0.258668 0.159934 0.116084 -0.319337 0.086638 -0.059559 0.399505 -0.110465 0.273032 -0.558367 0.354510 0.534263 0.234450 -0.826658 -1.306081 -1.666251 0.022259 -0.442385 1.014701 -1.056835 -0.055563 -0.832040 0.321697 0.163324
states 0.989217 0.688228 1.318268 0.448072 -1.067147 -1.034161 -1.065435 -0.499767 -1.053364 -0.394366 -1.332940 -0.111284 0.053307 0.160852 -1.152297 -0.863521 -0.024755 0.320214 0.086672 -0.514331 -0.774072 1.118950 0.416622 -0.004564 -0.976325 -0.075871 0.824517 -0.680505 -0.511465 0.493255 -0.725386 -0.678070 0.546884 -0.280917 0.246070 1.417205 -0.998952 -0.538149 0.199066 -0.715718 1.173624 0.282965 0.509978 0.367619 0.643431 -0.986186 0.038275 1.015467 -0.186259 -0.358871
datasets -0.571424 0.117150 -0.308583 0.509213 -0.157012 -0.977359 0.597211 -0.279638 -0.179203 0.689627 0.889247 0.172954 0.802154 0.902011 -0.172663 1.402234 0.184714 -0.546732 0.032605 -0.095321 -0.344852 -0.348474 0.605578 0.684947 0.537407 1.164591 -0.530669 -0.139343 -0.608617 -0.240738 0.745853 -0.061168 0.533558 0.630242 0.076811 -0.294132 -0.074695 -0.321177 0.033523 -0.328473 1.061741 -0.097160 -0.734153 0.407620 0.278847 0.740806 0.665676 -0.249503 -0.756688 0.300384
s -0.406551 -0.717137 0.877942 -1.077212 0.735400 -0.333224 -0.715216 -0.286072 -0.544641 0.580122 0.087361 -0.032973 1.225596 0.579441 -0.362767 0.194591 -0.254927 0.176502 -0.400540 0.404442 0.381607 -0.589349 0.902641 0.005297 -0.650310 1.167158 0.849384 0.678176 -0.403964 0.728312 -0.225184 -0.161981 -0.184226 0.935726 0.174741 0.495802 -0.265310 -0.470007 -1.080284 1.094044 -0.355535 0.518216 0.767821 -0.554205 0.426307 -1.079982 -0.387572 0.039479 0.882063 -0.128126
status 0.858565 -0.916034 -0.195853 0.700928 -0.028084 0.999927 0.558663 0.103315 0.087112 -0.330862 -0.148657 0.380795 -1.554893 -0.385707 0.228695 -1.564333 0.447093 1.531291 -0.546966 -0.001531 0.325526 0.744432 0.024071 0.135421 0.555511 0.863858 -1.167926 -1.140238 0.264656 -0.149083 -0.086471 0.014999 -0.627745 -0.214673 0.249733 -0.543979 0.043606 -0.528078 -1.356973 0.034325 0.198754 0.134963 0.794340 0.784855 -0.257617 0.898281 -1.129357 -0.458065 0.210434 -0.117875
algorithms -0.961662 0.042721 -0.011039 0.447847 0.306630 -0.297382 -0.469457 -0.214062 0.202451 0.597755 1.132834 0.495268 -0.273114 1.099397 0.604236 0.883826 0.182008 -1.172200 0.766443 0.353221 0.120121 -0.158580 0.758909 -0.759267 0.099814 0.480592 -0.281764 0.365902 -0.266631 -0.363012 -0.076718 -1.202208 0.774168 0.750197 -0.049242 -0.033606 0.079646 0.764372 0.256842 -0.259621 0.385080 -0.547392 -0.373116 0.463994 0.963616 0.191303 0.019521 -0.623125 -0.091064 0.592803
culture -0.763330 -0.287365 0.645665 -0.366284 -0.270465 0.409411 -0.318003 0.623582 0.582612 0.105539 0.514043 -1.168790 0.495159 -0.234375 -0.655818 0.605605 -0.998970 -0.289522 -0.631823 -0.281020 -0.735733 -0.620168 -0.744782 -0.125520 -0.826122 0.225134 0.575101 0.797863 0.495786 0.200524 0.735948 0.612010 -0.554327 0.056286 -0.338055 0.485513 -0.080836 -0.618863 0.002921 -0.742127 -0.872891 0.006919 0.532854 0.573489 -0.130575 -0.737764 -0.240687 -0.586484 0.311953 -0.516033
day 0.451140 -0.560919 -1.086421 0.450539 0.251779 0.005633 -0.378290 -0.176109 -0.427581 0.411402 0.434947 -0.188476 1.061433 -0.668990 0.273097 0.239154 -0.565133 -0.775720 -0.749994 0.309272 0.043207 0.173426 0.229443 0.657720 -0.796987 -1.006548 0.010568 -0.214129 -0.583708 -0.043146 0.471941 1.576306 0.518733 0.751021 0.914311 0.192248 -0.732305 -0.434763 -0.321077 -0.636482 0.161102 0.002794 0.403977 0.527643 0.460515 0.248879 -0.730985 -0.386060 -0.064248 -0.772326
sql -0.900273 -0.175873 -1.287051 -0.488915 0.449044 -1.048906 0.710461 -0.568574 0.074568 1.011051 -0.363178 0.039134 0.408197 1.280347 -0.710772 0.868872 0.501499 -0.653882 0.402177 0.109521 0.930536 -0.651612 0.477611 -0.144926 0.548161 1.936035 0.154501 0.307770 -0.569919 -0.884271 0.350978 0.029842 -0.229137 0.580973 0.839092 -0.529708 0.400443 0.275604 0.004746 -1.285920 0.119985 0.045029 -0.767202 0.157157 -0.145184 -0.420917 -0.122118 -0.741748 0.432596 -0.634286
application 0.056352 -0.024047 0.171254 0.673036 0.547825 0.362209 -1.270397 1.287544 -0.401663 -0.300682 0.748925 -0.723581 -0.296050 1.231396 0.683252 0.800647 -0.475089 0.824553 0.430919 -0.644103 0.437962 0.212107 -0.530330 -0.029510 0.325142 -0.082353 -0.760554 -0.022036 -0.025448 -0.552081 -0.193720 -0.394374 -0.290090 0.864110 -0.275575 -0.810729 0.364702 -0.077744 -0.515883 0.697162 0.303265 -0.450772 -0.217202 -0.194323 1.368381 0.711895 -0.110171 -0.342840 -0.066119 -0.187885
success -0.362862 -0.164783 0.930070 0.530277 -0.366508 -0.460963 -0.624100 0.160372 0.746809 -0.128963 -0.414687 -0.812344 1.073895 -0.801713 -0.398574 0.568793 -0.279997 -0.634356 -0.157333 -0.081349 -0.433335 -0.683272 0.200588 -0.111682 -1.419452 0.126664 -0.553611 0.167013 0.581432 0.519927 1.180688 0.364546 0.645548 -0.703038 0.246151 0.940354 0.932821 -0.776481 0.454176 -0.467749 -0.031226 -0.200633 -0.373284 0.173632 0.546488 -0.639847 -1.081977 -0.347177 -0.803029 -0.180933
education 0.811092 -0.189518 0.389082 -0.150985 -0.650180 -0.282729 -0.832827 -0.051655 0.022572 -1.599348 -0.590164 -0.802518 1.034881 0.354595 -1.657701 1.094470 -0.079656 1.203162 0.118798 -0.113234 1.396825 0.335071 0.717566 -0.159740 0.593393 0.751480 -0.378527 0.117671 -0.937383 -0.126567 0.523791 0.114309 -0.491951 -0.547228 -0.178301 0.147022 0.503728 -0.298895 0.419958 -0.402544 0.142728 -0.908518 0.442741 -0.855211 0.323382 -0.430439 -0.291526 -0.224032 0.567638 0.139934
passion -0.323673 -0.803843 0.280880 -0.826021 -0.498586 -0.042720 -0.857408 0.903634 0.007072 -0.201809 0.416470 -1.323391 0.671419 0.615061 -0.333643 1.136352 -0.374358 -0.291825 0.072941 -0.521686 -0.074317 -0.313157 -0.009238 0.358878 -0.530880 0.399000 -0.286655 1.378763 0.766987 0.453267 0.890501 -0.261729 -0.363312 0.634392 -0.058336 -0.165205 0.710455 -0.566372 -0.413941 -0.163863 -0.698733 -0.697833 -0.726324 0.598676 -0.194298 0.355455 -0.764215 0.029331 -0.695261 -0.020082
duties 0.554548 -0.672450 0.406885 -0.322752 -0.491172 0.455590 -0.892329 0.188440 0.175377 -0.064170 -0.990384 0.268927 0.073015 0.759420 -0.493677 0.517222 0.385599 -0.393189 0.055838 0.381640 0.263384 0.259500 0.257825 -1.126821 -0.012864 0.416548 -0.405540 -0.121420 -0.183973 1.621528 1.033184 -0.926447 0.315900 0.618762 -0.368100 -0.183443 -0.247969 0.606512 0.702941 -0.463364 0.396046 -0.702871 0.162462 0.176522 1.759178 -0.599176 0.373257 -0.162183 0.456539 0.661851
benefits 0.575502 -0.434130 -0.157070 -0.580689 -0.320453 0.953891 -1.221837 0.007655 0.442328 -0.986029 -0.329006 -0.824215 0.176248 -1.124147 -0.225758 1.407821 -0.492706 0.845055 0.489902 0.382682 -0.189569 -0.620895 0.686609 -0.639080 -0.724978 -0.557561 0.879261 -0.442274 -0.001581 -0.089195 0.959871 1.575558 0.771877 0.398225 -0.620565 0.237093 -0.401199 -0.218848 0.151090 -1.139894 0.820882 0.884837 0.383882 0.110042 -0.476281 0.063804 0.145958 0.535705 -0.098430 -0.270070
health -0.442633 -0.535453 -1.328882 -0.359082 -0.438322 0.327233 -1.834455 0.136026 -0.815571 0.039442 0.465413 0.082974 1.133456 -0.380225 0.337186 0.484700 -1.535750 0.044779 -0.676111 0.255388 -0.097203 -0.247189 0.740242 -0.281526 -0.590501 -0.393340 0.701525 -0.415960 -0.499674 -0.525839 0.054074 1.173710 -0.180093 1.134137 0.496848 0.432252 -0.354325 0.353832 -1.157659 -0.010845 -0.059104 -0.042109 -0.247273 0.336478 0.472266 0.211626 -0.626714 -0.200171 -0.538995 -0.384116
processes -0.541710 -0.466259 0.489084 0.239787 -0.323780 -0.896959 -0.584084 -0.367738 0.510573 1.277074 -0.325865 0.893801 -0.077970 0.604481 0.619942 0.798782 0.088902 -0.590150 0.218892 0.100497 -0.542672 0.268260 -0.309776 -0.325772 -0.383000 -0.011881 -0.054140 -0.003425 0.182349 -0.218121 0.524210 0.694550 0.611871 0.046945 0.697846 -0.363057 -0.051160 0.752668 0.153371 -0.731190 -0.428258 -0.990047 -0.041532 0.591018 0.591902 -0.233246 0.198584 -0.704209 0.293223 0.452654
modeling -0.708437 0.159980 -0.878539 -0.003249 0.781180 -0.625780 -0.247984 0.282037 -0.046276 0.574356 0.679833 -0.201029 0.509599 0.551828 0.628721 0.507508 -0.416323 -1.115371 -0.209240 0.175170 0.779781 -0.948951 0.232024 -0.643353 1.024662 0.324854 -0.438089 0.258225 -0.670109 -1.053910 0.161118 -0.623916 0.468490 0.708686 -0.239562 -0.752620 0.465706 0.801025 -0.419163 -0.977909 0.204963 0.655665 -0.820508 0.456817 0.981065 0.379192 -0.067306 0.305142 -0.090343 0.226255
data_scientists -0.230191 -0.344306 0.644956 -0.231991 0.033450 -0.762457 0.507040 0.525161 0.196301 0.894095 0.074895 0.404184 0.477333 1.004124 -0.081681 1.243748 -0.689529 -0.787086 0.211534 0.069392 -0.426001 -0.056009 -0.811113 0.315876 -0.454497 0.766577 -0.860684 0.005646 1.069831 0.104069 0.515779 -1.388216 0.574865 0.927691 0.254178 -0.112093 -1.105714 -0.645773 0.640649 0.266921 0.036694 -0.575110 0.725678 -0.296862 -0.599893 -0.665941 0.204848 -0.398426 0.054108 0.219354
law 1.010047 -1.042507 -0.731005 1.017726 -0.440255 0.459197 0.188040 -0.168019 0.232007 -0.998462 -0.414308 0.673412 -1.238759 1.275119 0.745774 -1.145949 0.185363 1.424890 -0.299853 -0.813634 -0.287466 -0.301384 0.566563 0.471690 0.354821 0.441692 -0.968200 -0.998180 0.390791 -0.164780 0.115544 0.180945 -0.627509 0.214355 -0.089601 0.415383 -0.034208 0.072584 -0.835561 -0.607728 0.386760 0.013846 0.489229 0.827666 0.566276 1.146041 -0.361372 0.237158 -0.199456 -0.042850
others 0.195545 -0.701486 0.572549 -0.529921 0.242340 0.673944 -0.873437 0.908398 0.197184 0.213131 -0.183593 -0.708109 0.235776 -0.096361 0.453289 0.897269 0.357205 -0.656496 -0.115807 0.055692 0.290130 0.416592 -1.134040 -0.551516 -0.270612 0.191332 -0.119082 0.719733 -0.095144 -0.129162 0.822081 -0.051165 -0.137738 0.995396 -0.289234 -1.165579 0.398451 0.090997 0.555704 -0.227934 -0.295391 0.101749 -0.286855 -0.271023 0.666196 0.695622 -0.097490 -0.860772 -0.305882 -1.190191
state 0.543607 -1.153050 -0.451997 -0.227560 0.570823 -0.177329 -0.269259 0.114285 0.308469 -0.647989 -0.704642 0.084117 -0.904701 1.202095 1.059165 -0.617999 -0.467975 0.914314 -0.590093 -0.471314 0.188259 -0.345636 0.600012 0.478188 0.369622 0.381688 -1.044708 -0.398523 0.770898 -0.414919 0.357748 -0.235058 -0.725219 0.688403 -0.331326 0.191676 -0.631173 -0.029916 -1.269421 -0.900230 -0.425001 -0.340100 1.249650 1.193662 0.362773 0.558509 -0.501130 0.564147 0.181413 0.030410
statistics -0.247494 0.444946 -0.550234 -0.078991 0.401282 -0.443947 -0.463185 0.395646 0.022847 0.576486 1.052618 -0.272135 0.536799 0.603756 -0.542916 1.267761 0.341896 -0.209942 0.234725 -0.239028 0.875792 -0.059914 0.742920 -0.996541 1.439485 0.768596 -0.881615 0.862726 -0.227019 -0.431207 -0.133744 -1.501998 0.090987 0.223710 -0.067456 -0.801453 -0.375758 -0.349073 0.836694 -0.857529 0.377987 -0.058820 -0.443282 -0.283912 0.286065 -0.427597 -0.255587 0.140312 -0.151549 0.564409
candidates 0.941075 0.950257 -0.925481 -0.042274 1.308533 -0.007744 -0.501020 0.455160 -0.220559 0.428640 -0.870928 -0.268721 0.508030 -0.095074 -1.144328 -0.424455 -0.232504 0.070904 0.240507 -0.272172 0.016645 -0.141821 -0.112366 -0.194243 -0.033525 0.606397 0.089493 0.347635 -0.421565 0.741825 -0.093218 -0.415693 -0.176930 0.477112 0.253675 0.122908 -0.787136 -0.695356 -0.152367 -0.605586 -0.055878 -0.050249 0.362677 0.117834 1.271799 0.062541 0.596726 -0.153932 0.034801 0.200948
basis 0.114787 -1.077707 0.826667 0.074416 -0.213577 1.052420 0.158170 0.689949 0.409666 0.026966 0.400572 0.797630 -0.852831 0.323234 0.223780 -0.397482 -0.728679 1.539064 -1.209233 0.129696 0.661890 -0.328841 -0.465957 0.594502 0.639477 0.396209 -1.115396 -0.611028 -0.418279 0.204319 0.302149 -0.079609 -0.593824 -0.243587 -0.604967 0.119734 -0.325232 -0.260733 -0.969176 0.173014 -0.569101 -0.023497 0.676176 0.532168 0.174086 -0.068057 -0.536317 0.085420 0.657186 0.326988
data_sources -1.653569 -0.674851 -0.381737 0.618371 -0.313001 0.365818 -0.001540 -0.241573 1.136564 1.251320 0.609816 1.383894 0.222853 0.834617 0.237547 0.982261 -0.111849 -0.387364 -0.676732 -0.017721 0.297576 -0.140627 -0.506433 -0.154811 0.625974 1.102610 -0.402645 0.055750 0.577598 0.218942 0.493482 0.167445 -0.194157 0.558569 0.117024 0.327753 0.823065 -0.189612 -0.236316 0.155105 0.579506 -0.213883 -0.384357 0.314552 0.285575 0.163693 0.604603 -0.437103 0.167613 1.011044
product -0.817590 -0.851676 0.730228 -0.541287 -0.415657 -0.642539 -0.170429 0.570560 -0.114707 0.172597 0.183934 -0.314242 0.886157 0.064466 0.408837 0.478511 -0.907769 -1.149180 -0.756321 0.356702 -0.257853 0.225656 -0.615070 0.239384 -0.266975 0.178184 -0.337654 -0.936269 -0.327552 -0.220115 0.199765 -0.756135 0.864259 0.316067 -0.077105 0.045393 -0.233988 -0.119514 0.140795 0.676224 0.615338 0.153209 0.022154 0.006431 0.085747 -0.542855 -1.142099 -0.186530 0.569872 0.463748
quality -0.333338 -0.725371 -0.756290 0.794008 -0.181788 0.130042 -0.469367 -0.728415 0.785031 0.723959 -0.079899 -0.586452 0.856164 0.549036 0.048372 1.452193 0.431569 -0.759200 -0.004368 -0.477196 -0.761953 0.516927 -0.393329 0.186976 -0.478027 0.459729 -0.477023 -0.100114 -0.166679 0.360986 0.580359 0.800539 0.262586 -0.216698 0.198295 0.183694 -0.459398 -0.558348 -0.396900 0.205282 0.696480 -0.369058 0.282667 0.840342 0.275732 0.491061 0.457558 -0.809576 -0.248468 -0.464198
needs 0.064930 -0.094787 0.959953 0.264028 -0.466506 0.543998 -0.386471 0.874575 0.726104 0.743249 0.090038 0.976834 -0.354008 -0.250342 0.928481 1.995025 -0.311388 0.724032 0.063073 0.195442 0.455375 0.103673 0.057806 -0.307521 0.074224 0.133404 -0.859070 0.217629 -0.183897 0.483413 1.189308 0.657253 0.497534 0.285239 0.730272 -0.196517 0.333227 -0.187606 0.733496 -0.292820 -0.341706 -0.418575 -0.014434 -0.186773 -0.378931 -0.929533 -0.926875 -0.640413 -0.756654 0.176457
languages -0.280755 -0.179701 -0.889123 -0.881323 0.696393 -0.433051 0.169961 -0.740838 0.768403 0.057667 -0.248446 -0.589003 -0.138109 1.716224 -1.026444 0.619520 0.229573 -0.522784 0.479505 0.145887 0.879967 -0.442709 -0.027915 0.230965 -0.089828 0.864305 1.050623 -0.362357 -0.552137 -0.780512 0.476975 0.001056 0.118138 0.726062 -0.146759 -0.080927 0.610701 0.714194 0.312332 -1.018115 0.181910 0.079446 -0.764556 0.007216 0.074487 -0.236841 0.616460 -0.675606 1.413043 0.046639
ideas -0.226678 -0.576740 0.171263 -0.481910 0.373730 0.008547 -0.308185 -0.006374 0.904307 -0.024139 0.761182 -1.557072 0.251566 -0.461681 0.164833 0.920358 -0.544351 -0.867804 -0.355855 0.350177 0.170969 -0.108107 -0.179396 0.896060 -0.837650 -0.306694 0.062704 0.780841 -0.514806 -0.557172 0.336591 0.582431 0.217276 -0.228228 0.905096 -0.011286 0.408291 -0.338765 -0.060613 0.020915 0.041983 -0.006439 -0.196676 0.648786 0.254129 0.624768 -0.900778 -0.721501 -1.033960 -0.732222
databases -0.569999 -0.659440 -1.081121 0.152610 0.069937 -0.791262 0.847308 -0.542446 0.333232 0.559241 0.425173 0.407725 -0.257657 0.905880 -0.976243 0.644982 0.253782 0.581459 0.261167 0.187292 0.064766 -0.781762 0.865071 0.221226 0.795244 1.679206 -0.065543 -0.913835 -0.425041 -0.973163 0.538627 0.512549 0.534796 0.847787 0.840846 -0.219044 0.333952 -0.114586 -0.188531 -1.058663 -0.332058 0.381122 -0.673470 0.003767 -0.042413 -0.021509 0.134581 -0.520347 0.512207 -0.172304
innovation -0.737799 -0.133174 0.293687 -0.486260 0.179612 -0.205940 -0.659860 0.419109 0.404850 0.031087 1.108049 -1.010288 0.487848 -0.758255 -0.609135 0.979046 -0.812410 -0.182257 0.044874 0.086673 0.078308 -0.485740 -0.138022 -0.608283 -0.989948 0.069188 0.257584 1.010770 0.716594 -0.092517 -0.080718 0.545279 -0.105824 0.138113 0.151572 0.026226 0.007288 -0.341852 -0.152634 0.688460 -0.176864 0.238479 -0.059702 0.419353 -0.593685 0.160157 -0.203305 0.481829 -0.007495 -0.660882
recommendations -1.211593 -0.680891 0.102337 -0.007998 0.073277 -0.763391 -0.831090 0.460724 0.994635 1.118142 0.700159 0.283720 -0.467035 -0.659515 0.949304 1.026226 0.774365 -0.402362 -0.189644 0.586674 1.084508 -0.332348 -0.506915 -0.318173 0.083759 0.462645 -0.678965 0.546892 -0.209093 -0.290375 1.312004 -0.189438 0.593482 -0.218631 0.323306 -0.227068 0.877897 0.119416 -0.139014 0.160055 -0.658605 0.386051 0.064356 0.382097 0.456466 0.343878 -0.044240 0.486334 0.089798 0.255616
diversity -0.505477 0.017542 0.227423 -0.346798 0.132495 1.381698 -0.991396 -0.091397 0.241425 0.567840 -0.539078 -0.574155 -0.129247 -1.046609 -0.301624 -0.005285 -0.960644 -0.382942 -0.263502 0.117007 -0.473467 -0.726997 -1.432770 0.334824 -0.387107 -0.078440 0.492886 1.019501 -0.225305 1.296471 0.000641 0.654502 -0.721606 0.128494 -1.003747 0.714328 -0.049030 -1.035057 -0.128395 -0.362581 -0.769173 0.340206 0.482807 0.374159 -0.145862 -0.706608 0.268435 -0.883918 -0.072194 -1.071143
year 0.356845 -0.135209 -0.756395 -0.565617 0.490154 -0.750244 -0.426812 0.188274 -0.890355 -0.082879 -0.797266 0.119159 1.131762 -0.194577 -1.077350 -0.008198 0.371433 -0.351813 0.124385 -0.116845 -0.476530 -0.169495 0.898292 -0.821751 0.745106 -0.998864 0.068326 -0.373495 -0.141887 -0.736491 0.943758 0.979840 1.054058 0.078444 0.589511 -0.816793 -0.760878 -0.379344 -0.152909 -0.820001 0.451967 -0.232147 0.409552 0.101272 0.198997 -0.673496 -0.298831 0.779682 0.813683 0.247162
engineering -0.183076 0.074235 -0.438821 -0.613682 -0.017583 0.072813 -0.487061 0.758920 0.606068 -0.144751 0.382541 0.218554 0.761508 -0.084077 -0.417114 1.087716 -0.854807 -0.507607 -0.500422 0.746877 1.022867 0.915583 0.175962 0.175722 0.701857 0.270392 -0.619954 -0.234991 -1.122608 0.016419 -0.406356 0.500245 0.056533 0.215851 0.501850 -0.726294 -0.532703 -0.339330 1.145972 0.380866 0.389141 -0.762217 0.570471 -0.819479 0.560632 -1.282072 -0.696894 -0.521041 1.087695 1.240633
access 0.462439 -0.259089 -0.063210 -0.070552 -0.724008 1.355853 -0.574997 -0.011826 0.698655 -0.182646 -0.252413 0.381239 0.954485 -0.377406 -0.968625 0.449216 -1.151182 1.454614 -0.178471 -0.299794 0.036043 -0.791602 0.452930 0.268587 0.763195 0.342673 0.239999 0.214664 -0.172120 0.102906 0.086896 0.960531 -0.446621 0.133619 -0.292396 0.515048 0.030670 -0.809896 -0.033034 -0.840868 1.106463 -0.411695 -0.427420 -0.264580 0.744212 0.909341 0.202022 -0.359479 -0.524298 0.683522
way -0.306081 -0.186108 1.546899 -0.961251 -0.366283 0.494819 -0.134878 0.196977 0.108030 -0.234118 0.062789 -0.255096 0.999376 0.342633 0.403733 0.097013 0.234918 -0.676913 -0.987211 0.395078 -0.286742 0.085739 -0.108171 0.445774 -0.309968 -0.070035 -0.347466 1.183559 0.086610 -0.482646 0.640689 0.082201 -0.083828 -0.734700 0.763100 -0.638078 0.017886 0.048459 0.492662 -0.100577 -0.626325 -0.631924 -0.043523 0.210766 0.132345 0.162871 -0.961588 -0.236639 -1.303816 -0.235839
analyses -0.829477 -0.665016 0.253084 0.038211 0.047025 -0.723811 -0.173221 0.037512 0.699369 0.724493 0.692598 0.284633 -0.401341 0.506954 0.575195 0.449112 0.377550 -0.783153 0.043629 0.614654 0.747104 -1.281097 0.038017 -0.604018 0.085675 0.436055 -0.929474 0.202141 -0.711883 -0.067393 0.950497 -0.498190 1.019079 0.784997 0.174048 -0.350457 0.156955 0.655978 -0.579583 0.187339 0.120801 0.559400 -0.115729 0.697434 0.720268 0.881488 0.121024 0.271704 0.783123 0.165853
software -0.493228 -0.409051 0.002705 -0.225499 0.892449 -0.173811 -0.205468 -0.036382 0.339450 0.530450 -0.261847 -0.099698 0.581102 0.940254 -0.199613 0.304531 -0.597243 -0.029680 -0.553318 0.031870 0.325304 -0.097204 0.113398 0.554091 -0.216945 0.399503 -0.253702 0.243008 -0.086466 -0.607110 0.186809 -0.531532 -0.135158 0.325326 0.185933 0.373238 0.203808 0.261134 0.048598 -0.115899 -0.547619 0.094775 -0.137102 -0.109093 0.651105 -0.860578 0.008391 -0.669845 0.145933 -0.003361
management -0.521809 0.146892 0.580790 0.233650 0.259449 0.193819 -0.803439 0.177780 1.226492 0.855331 -0.466459 0.328273 0.062977 -0.076696 0.425501 0.636862 0.603957 -0.212674 0.107606 -0.156916 0.250614 0.041859 -1.187540 0.385303 0.295057 0.443590 -0.596611 -0.261079 -0.767510 0.028386 0.519133 -0.176678 0.477837 -0.448455 -0.178345 -0.019618 0.505083 -1.014142 -0.073721 -0.168185 -0.292647 -0.966642 -0.136010 0.222715 0.899574 -0.031740 0.752502 -0.448640 0.406127 -0.241396
disabilities 0.356558 -1.012794 -0.002897 0.326007 -0.850799 1.259718 -0.087605 0.219208 0.638672 0.610743 -0.369802 1.255834 0.509082 0.625869 -0.537859 0.174346 0.143531 0.327968 -0.159560 -0.254640 0.395873 -1.377837 -0.653175 0.882511 -0.532685 -0.703914 -0.221345 -0.034989 0.632940 0.797427 -0.697683 0.280959 0.123512 0.080317 -0.614080 0.250996 -0.451526 -0.130489 0.863808 0.562677 -0.081372 1.172017 -0.672388 0.350042 0.773523 0.749383 0.149093 0.425766 -0.386086 0.380635
data_engineer 0.355756 0.490852 -0.067176 0.441678 0.337733 -0.756730 0.393177 0.033527 -0.065343 0.377324 -0.034171 -0.207100 0.199853 0.911602 -0.682463 0.408501 -0.002996 -0.392702 0.484914 -0.441293 -0.474525 -0.260430 -0.602157 0.062802 -0.760349 0.906082 0.335896 -0.193112 0.579029 0.994732 0.510898 -0.520423 0.740891 0.285469 0.225413 0.031638 -0.650133 0.107383 0.828052 -0.663872 -0.252276 -0.128648 0.380487 0.168818 0.805146 -0.286350 0.494437 0.084106 -0.191006 -0.078282
work_experience -0.190398 -0.540325 -0.085028 -0.511744 0.525182 -0.806642 -1.071409 0.195259 -0.111700 -0.737344 -0.291717 -0.779636 0.918000 -0.469064 -1.234860 0.018734 -0.814318 -0.363118 0.427975 0.391473 0.623066 0.247191 0.440446 -1.808052 0.905058 0.044045 0.504381 1.234130 -0.033015 -1.446170 0.609187 0.409057 0.024017 -0.298284 0.361459 -0.372762 0.166705 -0.176700 0.100798 -1.010118 0.407220 -0.020950 0.214024 0.129281 0.781811 -1.175910 -0.619450 0.096535 1.271750 0.457696
partners -0.197144 -0.439309 1.659484 0.091823 0.347886 -0.197777 -0.463707 0.445904 0.174775 0.644387 -0.572854 0.492550 0.621089 -0.432774 0.112472 0.179669 0.233213 -0.368596 -0.233091 0.532346 -0.174341 0.129789 -0.188987 0.267955 -0.061306 0.107816 -0.829644 0.216136 0.417855 -0.123674 1.010235 -0.617678 0.738139 -0.219237 0.442164 -0.021495 -0.569439 -1.073715 0.218580 -0.098065 0.094886 -0.423312 0.924720 0.589722 0.646082 -0.113878 0.121602 -0.054908 -0.053428 -0.547002
decisions -0.467471 -0.953661 0.392425 -0.292370 -0.316057 -0.626984 -1.084693 0.629445 0.734552 0.273718 0.507191 -0.280248 -0.121933 0.032285 0.775645 0.851382 -0.116075 -0.300187 -0.351617 -0.109607 0.594510 -0.217147 -0.671699 0.192390 0.045296 -0.038830 -0.600376 -0.366884 -0.042855 0.081151 0.747955 -0.044241 -0.160291 0.469025 0.047016 -0.181340 0.770374 -0.225944 -0.624449 0.209604 -0.485694 -0.497104 -0.092688 0.486821 0.129899 -0.387991 -0.255031 0.156516 0.084469 0.029146
consideration 1.494546 -0.027056 -0.818144 0.787400 0.345982 0.909426 -0.274162 0.728716 -0.443101 0.315676 -0.463034 0.062701 -0.077242 -0.156376 -1.197617 -0.841536 -0.376194 1.499633 -0.870379 -0.523488 0.676429 0.149292 -0.682928 0.144348 0.230177 -0.319423 -0.681041 -0.879544 -0.248420 0.008073 -0.429979 0.091423 -0.396034 -0.348578 0.092249 -0.820719 -0.976748 -0.618539 -0.978391 -0.190908 0.031041 0.165266 0.524029 0.536978 1.616738 0.815032 -0.326265 0.013548 0.160232 0.258611
familiarity -0.296155 -0.059970 -0.631361 -0.214898 0.538816 -0.935478 0.406611 -0.905225 0.532316 0.437855 0.616959 -0.438530 -0.566412 1.018251 -0.596023 0.448529 -0.008243 -0.064918 0.716952 -0.193739 -0.340067 -0.168459 0.596479 0.259995 0.700485 1.409049 0.359872 -0.205172 0.113535 -1.169455 0.033230 -0.238726 -0.150775 0.487357 0.410498 -0.161063 0.187444 -0.212098 -0.244424 -0.680010 -0.104860 -0.059520 -0.373647 0.192015 -0.048953 -0.220214 0.802471 -1.063720 0.326565 -0.146184
challenges 0.444106 -0.042041 1.255789 -0.063684 0.090255 0.596300 0.142562 0.138897 -0.102082 0.026992 0.022875 -0.206164 -0.239585 0.462718 0.250612 0.221258 -1.441208 0.138430 -0.165172 0.287259 0.038800 0.017801 0.006140 -0.084855 -0.826552 0.580111 -0.613398 0.104311 0.059821 -0.200615 0.279336 0.052861 -0.395769 1.131167 0.413666 0.431421 0.192103 -0.095338 0.251539 -0.893870 -0.524774 -0.315779 0.235681 0.501890 0.205519 -0.740349 -0.173059 -0.801861 -1.209692 -0.176689
performance -0.463574 -1.058364 0.409959 0.678629 0.502597 -0.656793 -0.548136 -0.326842 0.333659 0.541427 -0.452467 0.142971 0.104387 0.275557 -0.074421 0.587600 -0.078438 -0.188346 0.159631 0.299849 0.425798 0.754303 -0.159374 -0.678709 -0.825068 0.260888 0.158203 0.273348 0.245037 -0.735920 0.723678 -0.119739 0.024269 0.635021 0.738106 0.348516 0.219542 0.007500 0.165295 -0.017315 0.173620 -0.365035 0.284352 0.483796 0.562495 -0.508131 -0.061149 -0.625584 -0.044295 0.250549
use -0.261551 0.191520 0.728231 -0.052268 0.261996 -0.270228 0.127569 0.253952 -0.001213 0.078551 0.428185 -0.142549 0.357145 0.756868 0.047416 0.989492 -0.188812 -0.042578 -0.255562 0.130807 0.385644 -0.262756 0.065389 0.196440 0.134432 0.237285 -0.887415 0.077401 -0.696668 -0.466461 0.666433 0.068766 -0.229015 0.740061 -0.145101 -0.456013 0.277266 0.001432 -0.021296 -0.011612 0.398809 -0.365804 -0.551552 -0.082248 0.470845 0.403549 0.517665 -0.376277 0.182264 0.623730
career 0.394293 0.368794 0.418727 -0.345258 -0.603540 0.453068 -0.768886 0.799978 0.162484 -0.184217 0.440271 -0.605129 0.939794 -0.884703 -0.293743 1.135759 -0.156636 -0.554394 -0.996151 -0.655489 -0.695762 -0.304636 -1.205819 0.194131 -0.840066 -0.428188 -0.146727 -0.095656 -0.109487 0.436761 0.580934 0.571367 0.022274 0.296881 -0.703276 0.182075 0.263736 0.339416 0.787215 0.005913 0.174643 0.628548 -0.205824 -0.459762 0.274805 0.185640 -0.403108 0.327107 -0.795419 -0.515238
computer_science -0.346716 0.449442 -0.533837 -0.525119 0.458135 -0.262729 -0.440236 0.215261 -0.163114 0.212221 0.455665 0.028128 0.794418 0.115605 -1.505807 0.658452 -0.059442 0.320200 -0.022342 0.400905 1.112034 -0.032362 0.953335 -0.607056 1.037453 1.042015 -0.303366 0.541862 -0.886380 -0.172111 -0.125797 -0.396133 0.075154 0.094004 0.800087 -0.698009 -0.369076 -0.351923 0.530912 -0.220313 0.150676 -0.550393 -0.048835 -0.589928 0.589390 -1.570319 -0.240230 -0.580864 0.949055 1.116008
operations 0.165054 -0.852299 0.905842 -0.561502 -0.192377 -1.190273 -0.371327 0.249192 0.403963 0.240531 -0.229211 -0.129215 0.438001 0.386669 0.073258 1.255249 -0.332782 -0.163101 0.286973 -0.542760 -0.378120 -0.327036 0.043741 0.275874 0.019594 0.463218 0.062736 -1.143942 -0.314360 0.266946 0.163280 -0.165058 -0.654627 0.152862 -0.286225 -0.168251 -0.336192 0.015540 -0.781285 0.348590 0.240803 -0.303200 0.561391 -0.181402 -0.009113 -1.085546 0.394914 -0.224393 -0.024805 0.672294
leadership -0.297177 -0.440623 0.286150 -0.697288 0.139963 0.002749 -0.832138 -0.079838 0.691891 0.737108 -0.414233 0.087103 0.489076 -0.174204 0.850440 0.907633 -0.005319 -1.044710 0.088667 0.269914 0.861348 -0.324276 -0.734056 0.214061 0.066821 0.280264 -0.213914 0.467299 -0.463622 -0.081050 0.543003 -0.644039 0.731449 0.089454 -0.685343 0.479027 0.006647 0.124619 0.188892 -0.460492 -0.976472 -0.212662 0.636777 -0.429926 0.784203 -0.002287 0.207506 -0.147920 0.339641 -0.384796
orientation_gender_identity 0.718175 -0.138567 0.387177 1.004347 -0.298011 0.549537 0.122922 -0.508036 -0.610260 -0.150588 0.290798 1.037159 -0.437103 -0.526656 0.285635 -1.712855 -0.437522 1.589289 -0.810111 -0.295120 0.431967 0.025713 0.723370 -0.324357 0.531827 0.028588 -0.158518 -0.986292 -0.133053 -0.280006 -0.936484 0.237153 -0.006185 -0.168769 0.195047 0.167852 -0.230331 -0.748052 -1.798457 0.104560 0.311502 0.338087 0.408932 0.786349 0.325385 0.741735 -0.348092 0.053558 0.112214 0.181021
engineers 0.108408 -0.109394 0.726497 -0.172613 -0.127375 -0.533438 -0.160380 0.549547 0.424951 0.097070 0.330216 -0.089386 0.133695 1.314709 0.026038 1.099759 -0.982425 -0.222700 0.391599 -0.090788 0.154647 0.132307 -1.037856 0.948658 -0.505764 -0.061042 -0.015404 -0.136814 0.243415 -0.347337 0.369886 -1.407983 0.397852 1.413799 0.249614 0.080343 -0.734772 -0.757718 0.734927 0.350028 -0.193764 -0.884858 0.808750 -0.280617 -0.453546 -0.604208 0.161342 -0.756319 0.125659 -0.098770
relationships -0.712379 -0.104066 1.299037 -0.175907 0.441905 -0.127582 -0.758741 0.007193 0.200947 1.149240 -0.455881 -0.469265 -0.445763 -0.114905 0.702737 1.120349 0.161455 -0.545490 0.104319 0.594637 -0.188399 0.677995 -0.763827 0.087345 -0.153725 1.149469 0.480011 0.067590 0.272621 -0.076496 0.769848 -0.636416 0.373169 -0.092719 -0.342951 -0.027949 0.149750 -0.136970 0.357851 0.093565 -0.382508 -0.021758 0.878270 0.689538 0.797411 -0.176433 0.403291 -0.457591 -0.355049 -0.754810
communication -0.009768 0.015679 -0.671607 -0.712852 0.346077 0.894339 -0.368965 0.759557 0.975491 1.000734 -0.450191 -0.826099 -0.473935 -0.011475 -0.427215 1.100819 0.635916 0.151070 -0.326555 0.054006 0.744397 -0.107313 -0.769537 0.031700 0.076888 0.987727 -0.217340 0.538389 -0.282630 0.156438 0.699381 -0.244066 -0.160690 -0.207503 0.262699 -0.929166 0.744410 -0.233678 -0.267286 -0.006322 0.229295 -0.388557 -0.657800 0.172436 0.242020 0.207504 -0.216059 -0.611758 -0.252441 -0.702409
r -0.345083 -0.075074 -0.823499 -1.015149 0.702562 -0.927684 0.363719 -0.046241 0.203225 0.342634 -0.280311 -0.853527 0.788474 0.893657 -0.003230 0.993757 0.034384 -1.036721 0.442387 0.170013 0.548062 -0.296416 0.025418 0.191573 -0.607637 1.241247 0.543979 -0.011745 -0.801105 -0.624390 0.252178 -0.732706 0.273319 0.542011 -0.269825 0.050374 -0.132705 0.342858 0.296763 -0.266749 0.129239 0.599151 -0.606132 -0.646452 -0.260930 -0.451276 0.158192 -0.577219 1.025329 -0.610688
industry -0.511274 -1.046235 0.326182 -0.970112 -0.027778 -0.652018 -0.711973 0.176691 -0.112480 0.343927 0.128385 -0.040519 0.814492 -0.200101 0.280747 -0.583277 -1.643075 -0.195869 -0.269372 0.738227 0.061456 0.317359 0.388559 -0.400508 0.168456 0.157976 0.203219 0.895634 0.574459 -1.160255 0.096096 0.731106 0.217641 0.308316 0.672883 -0.101211 -0.146182 0.153091 -0.633802 -0.068254 -0.463879 -0.311500 -0.011821 0.202027 0.053376 -0.861769 -0.768540 0.292900 0.854997 0.168529
range 0.245322 -0.371984 0.033098 -0.118698 0.109101 0.325430 -0.094646 0.245844 0.685145 -0.176945 0.433700 -0.347018 0.187026 -0.025836 -0.176551 1.161382 -0.878786 0.264779 0.721604 0.136865 -0.742474 -0.257297 1.031912 0.595025 0.736692 0.356283 -0.207382 0.348930 0.340134 -0.140375 0.017694 -0.070248 1.043103 0.767853 -0.457340 0.278529 -0.271804 -0.681224 0.198116 -0.866462 0.584739 0.094713 -0.355363 -0.197177 0.760956 0.732570 0.103465 0.153718 -0.443457 0.257424
implementation -0.565072 0.399217 -0.146412 0.133909 0.439216 -0.523080 -0.433347 0.246838 0.668880 0.559349 0.603829 0.173106 -0.395246 0.504067 1.165094 0.927509 0.513378 -0.957941 -0.063178 -0.334026 -0.061191 0.092814 -0.521114 0.124229 0.011708 0.029562 0.363049 -0.338279 -0.547905 0.144950 0.443891 -0.745525 0.325200 -0.650621 -0.239269 -0.466077 -0.017202 1.207941 -0.019248 -0.800830 -0.279424 -0.706368 -0.175488 0.098317 0.942381 -0.881649 0.603495 -0.222873 0.156982 0.616370
issues -0.232182 -0.841738 0.116262 0.248031 -0.429169 0.420018 -0.716890 0.360572 0.197285 0.361897 -0.403717 0.062594 0.089748 0.216109 0.662556 0.435025 0.383985 -0.146866 -0.397662 1.011183 0.676741 0.754992 -0.651958 0.361189 -0.602290 0.716787 -0.908552 -0.056532 -0.755730 -0.318353 0.918390 0.238185 -0.403185 0.759817 0.805817 -0.624213 0.539113 0.272623 -0.391824 0.272795 -0.099700 -0.898549 0.199363 0.227191 0.532563 0.197278 -0.611652 -0.436850 -0.362504 0.289416
proficiency -0.813142 0.338389 -0.979910 -0.726549 0.780169 -0.602553 0.275581 -0.188383 0.214371 0.503078 -0.239025 -0.541249 0.410292 1.587196 -0.192558 0.598747 0.183379 -0.743338 0.431676 -0.056276 0.409295 -0.549500 0.814548 -0.360148 0.495858 1.060929 -0.426355 0.249427 -0.840703 -0.678169 0.048047 -0.317249 -0.024863 0.258710 -0.109655 -0.743474 0.173707 0.422730 -0.517689 -0.858382 0.069394 -0.537029 -0.658752 0.001674 0.572526 0.255047 -0.122786 -0.834363 0.800117 -0.496746
data_analysis -0.049080 -0.185857 0.037776 -0.337149 0.703326 -0.643059 0.449453 0.218409 0.788270 0.409839 -0.196323 -0.589000 0.277892 0.137670 -0.226125 0.861302 0.249611 -0.860033 0.798036 -0.424605 0.425903 -0.276810 -0.251735 -0.522586 0.204205 0.772775 0.199176 0.877678 -0.108948 -0.600093 0.502234 -0.615864 0.386114 0.181184 0.089798 -0.374856 0.405507 0.007190 -0.067663 -0.753680 0.475610 -0.670376 -0.975433 0.146347 0.537835 0.255393 0.088698 -0.582959 0.311316 1.051600
tasks 0.492936 -0.285105 -0.490109 -0.536592 -0.107633 0.617886 -0.294212 0.445852 0.609674 0.685637 -0.587320 0.068805 -0.703748 0.481706 -0.039669 1.033484 0.533897 -1.003806 0.220123 -0.036078 -0.434367 -0.360504 0.481746 -0.934050 -0.495013 0.033552 -0.213536 -0.365311 0.070446 0.785766 1.080266 0.341985 0.270054 0.839423 0.554009 -0.611193 -0.202849 0.671808 0.107190 -0.704166 0.111027 -0.630425 -0.080441 0.464734 0.005514 -0.342030 -0.427147 -0.899826 -0.014697 0.080039
level 0.154809 0.034509 -0.838539 -0.318607 -0.074867 0.417694 -0.087846 -0.288928 0.310223 0.178445 -0.867890 -0.651680 1.294594 0.895054 -1.204630 0.963540 0.620570 -1.038387 -0.062500 -0.368458 -0.376808 -0.348932 0.437685 0.059037 -0.356899 0.439040 -0.449863 -0.254930 -0.536273 0.459986 0.243373 0.607143 0.442353 -0.081092 -0.147678 -0.069253 -0.791781 -0.761721 0.270363 -0.525677 0.340806 -0.189723 0.269732 0.249563 -0.067699 0.403378 -0.697604 -0.492965 0.355452 -0.432348
reports -0.188648 -0.561364 0.591479 0.767942 -0.573212 -1.028102 -0.447827 -0.026779 0.995643 0.210060 -0.318568 0.283545 0.069095 0.147024 0.096758 0.855991 1.040318 0.657813 0.350372 0.066246 0.761575 -0.144490 -0.903568 0.088006 0.370854 1.119948 -0.367232 -0.325831 -0.386331 0.263425 1.215758 -0.626915 0.568169 0.011016 0.060722 0.083285 0.515923 -0.026095 0.308832 -0.187966 0.170945 0.252828 0.139364 -0.363918 0.414905 0.314020 0.007924 0.455115 0.590669 0.036687
background 0.208867 1.013897 -0.521552 -0.284495 0.753955 0.261947 -0.665898 0.140611 0.167925 0.055372 0.332551 -0.734271 0.448965 0.637084 -1.017172 0.732325 -0.374090 0.243057 0.527078 -0.314392 0.462071 -0.495498 0.305134 -0.173749 0.623757 0.332211 -0.287100 1.050612 -0.417222 -0.199192 -0.160384 -1.018260 -0.034913 0.342657 -0.288500 0.193995 -0.259762 -0.658585 0.535002 -1.289478 0.095174 -0.380491 0.186803 0.217684 0.716866 0.055484 0.202144 0.100413 -0.392880 -0.062572
growth -0.097585 -0.374066 1.305865 0.073919 0.109060 -0.766750 -0.342974 0.067170 0.525430 0.276657 -0.415735 -0.182964 0.199506 -0.410265 -0.189585 0.660544 -0.721462 -0.100783 -0.098710 -0.187493 -0.463991 -0.738038 -0.172655 -1.081989 -1.079032 -0.439152 0.175833 -0.443603 0.951299 -0.633700 0.880633 0.805341 0.235733 0.053301 0.044047 -0.101520 0.023065 -0.168434 0.270010 -0.139320 0.136322 0.321562 0.444077 0.531154 -0.252828 -1.194607 0.172909 -0.227614 -0.213535 0.165437
order 0.436513 -1.087798 0.459571 0.182139 -1.010805 -0.022485 -0.854913 0.099702 0.339740 -0.136529 -0.175259 0.177133 0.565110 0.631449 -0.281853 1.254880 0.139799 0.534787 -0.062912 -0.154941 0.499751 -0.040884 0.219125 0.279972 0.019443 0.148368 -0.526601 -0.295649 -0.511778 0.312132 0.665492 0.203130 0.293695 0.306193 0.298592 -0.154036 0.487560 -0.059836 -0.037099 0.452489 0.366275 -0.734303 -0.035281 -0.084460 0.414852 -0.039082 -0.297596 -0.682201 0.024202 0.723987
questions -0.039635 -0.493114 0.039313 -0.045615 -0.406199 0.390246 -0.096455 0.490014 -0.260223 0.431994 -0.371743 0.150690 0.118502 0.002565 0.771714 1.151260 -0.067009 -0.049695 0.146135 0.338603 -0.079562 0.641704 0.464139 -0.395748 0.031776 0.824872 -0.565549 -0.259828 -0.068887 0.266275 0.187264 0.798652 0.043611 0.743132 0.536586 -0.594181 -0.079057 0.067734 -0.229329 0.679701 -0.389784 -0.544968 -0.341401 -0.441732 0.306120 0.226726 -0.723392 -0.399468 -0.523401 0.027932
concepts -0.617464 -0.286773 0.063436 -0.340650 0.858820 -0.166086 -0.116687 -0.185138 0.501505 0.816753 0.617284 -0.658016 -1.081319 0.054905 -0.142450 0.398627 -0.208646 0.022107 0.315802 0.958972 1.044024 0.291510 -0.384916 0.578016 0.126830 0.654566 -0.303339 0.597033 0.120504 -1.549970 -0.192088 -0.608436 0.351558 0.871592 0.586025 -0.592968 0.718060 -0.231957 -0.431756 -0.011040 0.018082 -0.311602 0.287049 0.577096 -0.234468 0.597875 -0.304670 -0.531564 0.577002 -0.525668
focus -0.545662 0.363076 -0.441419 -0.075513 0.503910 0.125365 -0.568922 0.138540 0.981939 0.084871 0.737650 -0.484216 0.246674 -0.036112 0.200531 0.694470 0.059650 -0.898073 -0.082698 0.068177 0.235308 -0.094548 -0.348226 -0.455244 -0.524225 0.003423 0.078180 0.068853 -0.505698 0.090524 0.507017 0.537787 0.428674 0.218080 0.229939 -0.314064 0.383616 0.053536 -0.215482 -0.163997 0.977800 -0.603361 -0.430844 0.092425 0.600257 -0.092246 0.267605 -0.354845 -0.055518 -0.135681
functions 0.702193 -1.021968 -0.245511 -0.693303 -0.594674 0.484815 -0.312162 -0.224679 0.911719 0.508219 -0.493323 0.509389 0.762745 0.717013 -0.636229 0.604720 0.688880 -0.360904 -0.182021 -0.086730 0.557156 -0.704024 -0.598725 -0.110873 -0.365066 -0.289082 -0.273369 0.408607 0.169223 1.006981 -0.206792 -0.042873 0.500381 0.123092 -0.388911 -0.335140 -0.189099 0.368368 1.090671 0.192315 -0.027010 0.554479 -1.179927 -0.063622 0.905494 0.065827 0.402246 0.459756 -0.167885 -0.266050
ways 0.218854 -1.306761 0.290037 0.109687 -0.006344 -0.162181 -0.302599 -0.121416 0.084714 0.308251 0.088204 -0.040061 0.328588 -0.013844 0.285623 0.379347 -0.342898 -0.465280 0.228573 -0.002065 -0.324208 0.521210 0.397893 -0.201461 -0.898860 0.088912 -0.007159 -0.077664 0.024331 -0.018469 -0.045515 0.356801 -0.136617 0.652205 0.758943 0.194251 -0.273151 0.120274 -0.676682 0.552792 -0.241609 -0.149247 -0.200423 0.146646 0.225907 -0.507093 -0.618601 -0.638792 -0.333946 0.222932
partner 0.409883 -0.029312 1.007011 -0.845863 0.384557 -0.522197 -0.193342 0.591652 -0.102651 0.864836 -0.136869 -0.005219 0.416680 -0.204562 0.609807 0.462547 -0.396655 -0.001054 -0.126880 -0.099421 -0.273607 0.222923 -0.508918 0.491790 0.022976 0.671322 -1.247754 -0.179780 0.678214 0.539508 0.059828 -0.719807 0.988099 0.002503 -0.338272 -0.400599 -0.699194 -0.530965 0.021626 0.186262 -0.258138 0.117534 0.292339 -0.016410 0.163264 -0.188752 -0.350082 0.892142 -0.247383 -0.250262
science -0.358199 0.339135 -0.351963 -0.097973 0.282087 -0.302260 -0.701187 0.847932 -0.099845 -0.361566 0.762597 -0.396947 1.143385 -0.410625 -0.295112 1.119978 -0.414145 0.257296 -0.182391 0.671324 1.183770 0.378444 0.572022 0.255101 0.481911 0.368394 -0.801294 0.075992 -1.246705 -0.436123 0.104850 0.901633 -0.682072 0.314816 0.136414 -0.318270 0.015566 -0.338874 1.208284 0.359401 -0.465546 -0.024679 0.274985 -1.113284 0.441869 -0.144799 -0.657588 0.240927 0.291253 0.406523
team_members 0.025199 0.253136 0.344723 -0.589381 0.443893 0.197591 -1.051661 0.260776 0.695815 0.363257 -0.859636 -0.176827 0.143310 -0.341280 0.384420 0.554223 0.161681 -0.994125 0.296504 0.473827 0.046224 -0.002697 -1.230025 0.095161 -0.553065 -0.481774 -0.242836 0.258794 0.042943 0.342243 0.565624 0.547436 0.371451 0.230880 -0.612412 -0.520204 0.211563 -0.703979 0.699125 -0.779420 -0.762137 -0.591306 -0.456910 -0.038258 0.386180 -0.520332 0.559948 0.114944 0.399310 -0.650910
programs -0.180107 -0.232882 0.503541 -0.752049 0.544597 -0.407939 -0.556629 -0.515272 0.538547 0.173454 -1.206507 0.139281 -0.454970 0.473896 0.826667 0.659562 -0.172144 0.121719 0.479287 0.124838 0.020787 -0.479236 0.076037 0.339019 0.095090 1.345535 0.392151 -0.404933 -0.434753 0.044039 0.783992 0.341997 -0.833705 -0.061632 -0.357376 0.763129 -0.299492 0.204662 -0.644543 -0.086711 -0.709940 -0.255157 1.066838 0.334408 0.737258 -0.194489 0.841437 -0.379081 -0.113720 0.123730
approaches -0.449928 0.063233 0.086007 -0.194185 0.209638 -0.123080 -0.336145 0.035909 0.646749 0.739135 0.507480 -0.308181 -1.313473 0.194498 0.697897 1.359549 -0.619548 -0.214836 0.604838 0.885126 0.437546 -0.375341 0.452938 -0.219532 -0.113409 0.158984 0.087469 0.427569 -0.285835 -0.573780 0.060814 0.123593 0.165959 0.680692 0.381156 0.167200 0.223969 0.353070 -0.446996 0.751198 0.069683 0.040041 -0.311899 0.545109 -0.000840 0.344877 0.152214 -0.119129 -0.319415 0.581052
disability 0.196023 -0.647562 0.771557 1.128027 -0.285590 1.129740 0.723499 0.467684 -0.358165 -0.899865 0.151837 0.002842 -0.715904 0.605819 0.216731 -0.761252 0.262721 1.178392 -0.054633 -0.400535 0.005366 0.411312 -0.551187 -0.151315 0.277437 0.742635 -0.935266 -0.519436 0.464734 0.477896 -0.289410 -0.339260 -0.500807 0.361350 -0.638540 -0.491874 0.369357 0.477007 -0.873182 0.830189 0.146295 0.604165 0.143511 0.241844 1.066907 0.915442 -0.521651 0.298772 -0.208792 0.253699
leader 0.190330 0.073876 -0.045856 -0.332988 0.614240 -0.627069 0.114635 0.131298 0.419798 -0.338941 0.956334 -0.556649 0.597338 -0.660544 0.074563 -0.318916 -1.064099 -0.362988 -0.235950 -0.426199 0.079931 -0.139640 -0.282575 0.964502 0.186135 -0.074480 0.341561 0.570496 0.067686 0.205981 0.423455 0.407514 0.080220 0.136705 0.013209 0.231786 -0.002304 -0.025861 -0.472404 -0.525885 -0.133608 -0.704431 -0.213502 -0.743066 0.644601 -0.215330 0.181669 0.173816 0.023879 0.080213
life 0.298348 -0.674794 -0.810723 0.094540 -0.314740 0.290607 -0.127458 -0.700327 0.492363 -0.223255 0.332210 -0.630514 1.119668 -0.508345 0.254551 1.065003 0.031368 -0.675281 -0.668241 -0.152556 -0.785602 0.035567 0.140782 0.800618 -1.149394 -0.970703 0.071842 -0.391452 -0.508079 -0.028542 0.299479 1.452471 0.680632 -0.446834 0.550816 0.312176 -1.043617 -0.265065 0.122013 -0.480516 0.486896 0.256155 0.245386 0.469907 -0.343088 0.289715 -0.158433 -0.408140 -0.384783 -0.468175
learning -0.642760 -0.134165 -0.096020 -0.074627 0.504890 0.093455 -0.518507 -0.099174 -0.111704 0.020247 0.833072 -1.050011 -0.006988 0.910769 0.278433 0.570207 -0.742837 -0.645135 0.522117 0.010275 -0.494361 0.186093 0.161505 -1.113852 0.843118 -0.699433 0.414372 0.941780 0.159978 -1.134721 0.342767 -0.378873 -0.458537 0.805111 -0.154075 -0.094250 -0.219801 0.191727 0.122742 -0.651994 0.384505 -0.218940 0.176379 0.220367 -0.084089 0.047246 -0.050750 -0.487262 -0.107858 0.206291
findings -0.601376 -0.783266 0.273601 0.356585 -0.182272 0.268608 -0.725879 0.237037 0.583157 0.832216 -0.491487 0.372724 -0.576475 -0.876587 0.449659 0.503202 0.365325 -0.179034 -0.034445 0.880257 0.309718 -0.408554 -0.248052 0.012976 0.267246 0.558815 -1.112793 0.456206 0.529948 -0.402362 1.270598 -0.394011 1.218956 0.049987 0.338793 0.069095 0.565527 -0.363050 -0.127199 -0.532248 -0.511342 -0.045867 0.265879 0.538524 0.157110 0.840097 -0.523145 -0.152113 0.697218 -0.276015
collaboration -0.341601 0.217411 0.562174 -0.709450 0.023443 0.763045 -0.405654 0.936643 0.522794 0.316298 -0.118549 -0.956568 0.033686 -0.107712 -0.317291 1.218733 0.001591 -0.567496 -0.156095 0.134836 -0.317235 0.139270 -0.598831 0.118517 -0.481184 0.849019 -0.208757 0.873921 0.116774 0.673679 0.414776 -0.691340 -0.299691 -0.212187 -0.102544 -0.509033 -0.025317 -0.400364 0.560084 -0.230532 -0.662102 -0.922611 -0.112820 -0.320170 0.025572 -0.418759 -0.493199 -0.666640 -0.180956 -0.435220
goals 0.139784 0.329968 1.079237 -0.607360 -0.751242 0.269007 -0.385353 0.704882 -0.054465 0.366417 -0.217666 0.608711 -0.006237 0.114337 0.132771 0.867974 -0.119141 -0.036717 0.052608 0.179880 0.193716 -0.423516 -0.342162 0.074849 -0.227286 0.144483 -0.287519 -0.998286 -0.628062 0.601520 1.037223 0.145592 0.238390 0.884634 0.262992 -0.094989 0.448620 -0.530233 0.174200 -0.390705 0.161097 -0.506138 -0.086649 0.324879 -0.800638 -0.813228 -0.380486 -0.622949 0.079314 0.078117
business_problems -0.371063 0.304602 -0.126674 -0.423947 0.739556 -0.371251 -0.575571 0.505750 0.425876 1.106808 0.795893 -0.106169 -0.048582 -0.160702 -0.054827 1.247840 -0.030449 -0.577434 0.424174 0.102766 0.318998 -0.345184 0.213418 0.009930 0.208791 0.316836 -0.501190 0.820674 -0.295519 0.022592 0.272630 -0.639906 0.273644 0.412972 0.240935 -0.154776 0.029807 -0.268917 0.174898 0.259368 0.678939 0.228992 -0.736787 0.668506 0.054092 -0.256157 0.277386 -0.055963 -0.623648 0.394616
discipline -0.005589 0.726587 -0.308951 -0.407980 0.400112 -0.637473 -0.359675 0.296788 0.109654 -0.309713 0.357666 -0.026337 0.705373 -0.326918 -1.554670 0.208496 -0.401712 0.155175 0.337815 0.253292 0.899460 0.302735 0.683260 -0.641459 1.106977 0.380722 -0.031037 0.725841 -0.861836 -0.277714 -0.041619 0.036594 -0.087274 -0.617600 0.845364 -0.206601 -0.040139 -0.407489 0.487890 -0.008520 0.860701 -0.584884 -0.371088 -0.504346 0.469832 -1.100022 -0.138301 -0.163750 0.685083 1.475667
future 0.993428 -0.286607 -0.185482 -0.334595 0.753305 0.236612 -0.181374 0.204123 -0.144584 -0.277935 -0.328630 -0.525689 0.804183 -0.115503 0.513055 0.271613 -1.237433 0.196005 0.100022 -0.208291 0.051384 0.213550 0.162116 0.777726 -0.941835 -0.838331 -0.369740 0.155374 0.362225 0.277365 0.098529 0.961209 0.484341 0.266362 -0.082300 0.521994 -0.956079 -0.070679 -0.356762 0.161896 -0.706213 0.159885 -0.052643 -0.095281 0.658136 0.249247 0.227740 0.377679 -0.621398 0.144653
capabilities -0.597108 -0.085523 0.492177 -1.132732 -0.018360 -0.526452 0.269061 0.000383 -0.051167 0.226260 0.049097 0.122386 0.383603 0.385780 -0.584631 0.562256 -0.161633 -0.934449 0.278282 0.476927 -0.644136 -0.547289 0.875503 -1.033141 -0.253422 0.549769 -0.504549 0.376003 0.022038 0.522690 0.874878 -0.142389 -0.208428 0.203882 0.572101 -0.005737 -0.049313 0.322915 0.376545 -0.273800 -0.029054 -0.622370 -0.303129 0.309303 0.218189 -0.669500 0.540239 -0.749471 -0.361676 0.239694
department 0.350847 0.305283 0.700955 0.138098 -0.691273 -0.166920 -0.951370 -0.088823 -0.281738 -1.226387 -0.257279 -0.345248 1.315421 -0.042852 -0.318572 0.421325 -0.092084 0.543762 0.028830 0.142978 0.679154 0.166684 0.938034 -0.530935 -0.075939 0.335914 -0.257402 0.148929 -0.749952 0.702087 0.579716 0.210462 -0.012187 0.055438 -0.526222 0.295599 0.085846 -0.209193 0.071458 -0.006320 -0.304691 -0.895497 0.242846 -1.164313 0.624534 0.076556 -0.296279 0.281385 0.194078 0.128283
data_pipelines 0.091840 0.545577 -0.293677 0.477901 0.511603 -0.376927 0.227138 -0.206700 0.768363 0.619791 0.146211 0.126328 -0.123598 0.727547 -0.675285 0.194656 0.773761 -0.131748 0.320442 -0.721208 -0.457463 0.338048 -0.432273 0.414456 -0.085110 0.660946 0.655481 -0.645246 -0.097526 0.585011 0.448373 -0.572637 0.597809 -0.407856 0.651235 -0.019414 0.348157 -0.395029 0.678701 -0.671533 0.791043 -0.617080 -0.579038 0.448241 0.755345 -0.635560 1.043400 -1.077704 -0.362175 -0.366475
plus 0.017914 0.348897 -0.116604 -0.470943 0.584573 -0.477343 0.241664 -0.021684 -0.519846 0.407256 0.064013 0.117385 -0.244299 1.117035 -0.491754 -0.187227 -0.630206 0.438245 0.228818 -0.653603 -0.083068 -0.097771 0.200040 -0.047048 0.774640 0.099935 0.190589 -0.061435 0.378636 -0.772793 -0.677932 -1.011992 -0.282635 0.201134 -0.063692 -0.207040 -0.373905 0.057219 -0.038750 -0.411460 -0.539513 -0.361722 0.116965 -0.035970 -0.104322 -0.735260 0.187631 -0.327884 0.421870 -0.048646
member 0.212901 -0.110820 -0.323557 -0.058937 0.373951 0.059346 -0.199542 0.005324 -0.343978 0.451878 -0.232563 0.020401 0.412465 0.224483 -0.288196 0.386045 -0.523831 -0.224946 0.244839 0.238473 -0.418980 0.150339 -0.185530 0.353249 -0.913665 0.505281 0.096544 0.182234 -0.070077 0.964532 0.251485 0.076601 0.429213 0.827796 0.046163 0.384372 -0.968719 0.484365 0.404639 -0.057128 -0.187079 0.104170 0.239439 -0.370923 0.557679 -0.042063 -0.166645 0.063762 0.139601 0.070394
sources -0.434543 -1.169504 -0.539059 1.223477 -0.074035 -0.237245 0.251626 -0.499777 0.505829 0.497689 0.414771 0.894068 0.099553 0.369338 0.132351 0.654794 0.584128 -0.289841 -0.456622 -0.159528 0.061789 -0.514763 0.510163 0.188056 0.185403 1.059884 -0.460609 -0.646027 0.116424 -0.163561 0.701811 0.200378 0.344588 0.091556 0.499212 0.139855 0.437301 -0.116599 -0.350753 -0.393049 0.506713 0.423519 -0.445048 0.698923 0.848140 0.122702 0.098278 -0.823625 -0.165053 0.587564
problem -0.059520 0.061258 -0.444648 -0.808888 0.619996 1.074723 -0.000847 0.442015 0.034513 0.408334 -0.562585 -0.841413 -0.168058 0.228606 0.212960 0.552133 0.241332 -0.374520 0.473305 -0.248834 0.520021 0.518237 -0.334663 -0.462114 -0.065978 1.257591 0.391759 1.671123 -0.357531 -0.163990 0.138211 -0.124954 -0.424948 0.109768 0.322239 -0.571615 0.261196 0.051757 -0.659157 -0.863024 -0.102464 -1.391209 -0.493205 -0.028814 0.261947 0.251679 -0.655944 -1.027113 -0.246475 0.463477
scale -0.120110 -0.525613 0.197541 0.178811 -0.086012 -0.923765 -0.572084 -0.335166 0.149544 0.444847 0.614486 -0.083021 0.186669 0.580508 -0.061361 0.464190 -0.296558 -0.438447 0.049338 -0.633372 -0.783072 -0.338649 0.368413 -0.409292 -0.631910 -0.404867 0.747306 0.141701 0.656003 -0.226943 0.289278 0.277568 0.507632 0.413784 0.655599 0.314319 0.098092 0.518430 -0.340003 0.222719 0.081739 -0.312302 -0.664282 0.543632 0.387969 -0.342391 0.335825 -0.280222 -0.420526 0.404995
workplace -0.708918 0.235749 0.385112 -0.234395 0.039495 0.886334 -0.176527 -0.244621 -0.278026 0.352144 0.520638 0.329068 -0.299296 -0.071791 -0.072203 -0.157090 -1.090018 0.500551 -0.352405 -0.364813 -1.160047 -0.655259 -0.076965 0.174700 -0.514143 -0.071065 0.448058 0.724098 0.360377 0.753646 -0.803593 0.613500 -0.714603 0.341342 -0.826224 0.634472 -0.257631 -0.514113 -0.490525 0.536455 -0.779309 0.093756 0.400677 0.074177 -0.861148 -1.152987 0.402755 -0.368552 0.156606 -0.415444
companies 0.057870 -0.771477 0.749814 -0.293629 0.621034 -0.562149 -0.208587 0.165216 -0.046668 -0.640227 0.433229 -0.216639 1.276365 0.319037 0.246417 -0.382326 -0.653385 0.403672 -1.002983 -0.620870 -0.143439 -0.128064 -0.203944 0.392748 -0.924621 -0.234096 0.488598 -0.237123 0.180795 -0.262071 -0.261372 0.423471 -0.157047 0.081716 0.372276 -0.023926 -0.020354 -0.612082 -0.606820 0.674477 0.031543 0.133438 0.067460 -0.439431 0.404078 -0.821606 -0.230512 -0.016157 -0.572959 -0.250561
users -0.386723 -0.060340 0.277222 0.151951 0.089649 0.035890 -0.579724 0.650315 0.207783 0.570288 0.243837 0.965605 0.997497 -0.309607 0.473793 0.203518 -0.105395 -0.438884 -0.791654 -0.741106 -0.114366 0.342238 -0.056640 -0.072808 -0.586395 -0.683150 0.205272 0.127663 -0.756119 0.323902 0.606838 -0.144790 0.132096 -0.183630 0.788597 0.324668 0.156136 -0.164654 -0.214734 0.346938 0.274041 -0.523409 -0.720619 -0.193145 0.326431 -0.844246 -0.884336 -1.004481 -0.404885 -0.378291
manner 0.207639 -0.449110 -0.262741 1.006097 0.041118 0.698055 -1.021402 0.704076 0.522557 0.302629 -0.110022 0.030336 -0.918982 -0.611976 0.014327 0.330522 0.516614 0.409514 -0.338529 0.621396 0.834682 -0.370768 -0.195502 0.349352 0.253054 -0.086542 -1.075396 0.339475 -0.491452 -0.218102 0.797208 -0.397980 0.837157 -0.327577 0.459387 -0.310207 -0.008269 -0.108452 -0.353910 -0.183776 0.116753 -0.025611 1.030667 0.937644 1.392668 1.056519 -0.888817 0.662644 0.747495 0.131757
university -0.035600 0.624789 0.654502 -0.216165 1.074279 -0.297941 -0.208671 0.478091 0.313564 -0.641261 -0.325990 0.062829 0.241779 -0.564449 -0.647106 -0.188844 -0.332748 0.253873 0.921651 0.313765 0.404321 -0.278709 0.792092 0.163560 0.588196 0.508524 -0.596637 0.485207 -0.664241 1.062786 -0.388361 -0.056574 -0.722218 -0.934525 0.026497 0.107508 -0.274803 -0.762816 0.325567 0.016393 -0.417535 -0.486889 0.226649 -0.890141 1.073409 -0.367897 -0.029398 0.572456 0.056852 0.280803
etc -0.275616 0.000938 -0.538939 -0.602900 0.285365 -0.701808 0.139045 -0.545886 -0.079749 0.226008 0.326081 -0.270184 -0.737891 0.980299 -0.256414 0.509400 -0.066103 -0.189443 0.690140 0.060163 -0.275525 -0.326948 0.734321 -0.400471 0.399737 0.151089 0.768951 -0.617725 -0.018382 -0.259208 -0.128238 0.292287 0.066877 0.774699 -0.021958 -0.447820 0.111365 0.685170 -0.467443 0.198643 0.197636 0.107207 -0.266343 -0.051264 -0.694856 -0.445281 0.371743 -0.120168 0.934494 0.218404
levels -0.468125 -0.678586 0.650607 -0.005471 0.075641 0.753815 -1.559475 -0.093803 0.306229 0.855320 -0.865624 -0.279998 0.952697 -1.037577 0.251678 0.453182 0.398436 -0.318622 0.102997 0.361615 0.372660 0.468759 -0.871601 -0.529655 0.364050 0.290356 -0.619872 0.905739 -0.295450 -0.020908 0.528538 -0.515051 0.416935 0.265852 -0.357122 -0.104933 0.553353 -0.888559 -0.321248 -0.616102 -0.056025 -0.228156 0.061555 -0.248270 0.431738 0.052804 -0.447899 -0.301368 -0.345866 -0.953564
masters 0.227983 0.290739 -0.720439 -0.815177 0.417116 -0.811668 -1.117425 0.553380 -0.552385 -0.101108 -0.066086 -0.193327 1.019198 -0.540346 -1.254884 0.069741 -0.277090 -0.274197 0.092263 0.128279 1.192959 -0.385009 0.565702 -1.229507 1.104684 0.137627 -0.092779 0.546947 -0.384414 -0.659039 0.021884 -0.430014 0.329531 -0.414464 0.357402 -0.889235 -0.287863 0.108392 0.455941 -0.651502 0.427985 0.271150 -0.129686 -0.208136 0.581826 -1.214568 -0.671169 0.875505 0.366490 0.774483
code -0.401329 -0.148213 -0.158142 0.202256 -0.118078 -0.593318 0.132077 -0.063351 0.243607 0.513021 0.336345 0.518068 -0.309291 0.899812 -0.107849 0.660472 0.824736 -0.870973 0.530972 0.324323 0.442614 -0.303788 -0.432587 0.089573 -0.408686 0.297394 0.482354 -0.387274 -0.524192 0.091422 0.755168 -0.733906 0.739576 0.838459 0.454579 -0.121349 -0.304517 0.333818 0.534502 -0.030792 0.549955 -0.133908 -0.131114 -0.097468 -0.252187 -0.174416 -0.061638 -0.878535 1.097240 0.150195
lives 0.590837 0.216807 -0.026744 -0.129891 0.166183 0.682655 -0.429768 0.658755 0.417111 -0.177872 0.666126 -0.155562 0.669537 -0.814154 0.724502 0.339025 -0.587126 -0.574279 -0.787760 -0.044287 -0.021043 0.274944 -0.412549 0.565444 -1.130927 -0.742811 -0.122575 0.252617 -0.818244 0.007435 0.234627 1.210106 -0.051991 0.677185 0.339288 0.263978 0.118013 0.084306 0.515707 0.124054 -0.009397 -0.135207 -0.285934 -0.378259 0.585281 -0.102300 -0.493536 -1.057592 -0.958117 -0.825441
cloud 0.041352 -0.358587 -1.020483 -0.047800 0.411070 -0.985569 -0.817653 -0.446169 0.448055 0.496257 1.253324 -0.245420 -0.156321 0.675555 -0.361145 0.714368 -0.055378 -0.081544 0.311966 -0.953165 -0.700153 0.573564 -0.028420 1.164337 0.166054 -0.271239 0.953241 -0.755459 0.465014 -0.679468 -0.419557 0.292606 0.198682 -0.148689 1.104285 -0.519746 -0.210704 -0.189679 -0.076599 -0.086989 0.119227 -0.655041 -0.644207 -0.128154 -0.024764 -0.708336 0.332580 -0.557442 -0.492462 -0.787835
training 0.582542 0.204101 0.811872 -0.527962 0.083218 -0.244799 -0.309503 -0.004706 0.643343 -0.034582 -0.460330 -0.099694 -0.009666 0.416871 -0.516526 1.314524 -0.437432 0.231814 0.678292 -0.587298 0.296664 -0.821523 -0.388235 -0.553739 -0.066587 -0.328197 0.377554 -0.065366 -0.287609 -0.191877 0.512163 0.079369 0.108042 0.049009 -0.751403 -0.106055 -0.198486 0.317918 -0.054625 -0.485193 0.414690 -0.446296 -0.232837 -0.125646 0.289110 -0.087525 1.167960 -0.501044 0.274574 1.074715
combination 0.068014 0.487189 -0.221793 -0.531894 -0.309224 -0.639389 -0.514547 -0.207170 -0.182772 -0.734426 0.597417 -0.864058 0.926107 0.181898 -1.430368 0.690116 -0.946904 0.779334 0.143040 -0.319194 0.821702 -0.111666 0.819827 0.158055 0.683042 0.423094 0.441110 0.896957 -0.466427 -0.795134 0.264391 -0.229472 -0.124309 -0.361971 0.088783 0.412779 0.272002 -0.195647 -0.379107 -0.409615 0.152078 -0.909323 -0.065182 -0.492999 -0.178325 -0.276434 0.125036 -0.313518 0.451718 0.491781
initiatives -0.061606 0.066656 0.546045 -1.114167 0.976346 0.015035 -0.921741 0.405796 0.443789 1.108110 -0.938130 -0.405888 -0.346813 -0.132853 0.552493 0.864652 0.104551 -0.352433 0.413522 0.127113 -0.017946 -0.083205 -0.535184 -0.474319 -0.318684 -0.255423 -0.328867 0.424661 -0.007438 0.261301 0.517766 0.185230 -0.019644 -0.152686 -0.955843 0.146960 -0.081768 -0.169864 -0.229404 0.699738 -0.468762 0.258152 -0.480230 0.544760 0.123098 -0.324054 0.625147 0.372187 -0.157278 0.439524
approach -0.744180 -0.466058 -0.974242 -0.167398 -0.198239 0.613188 -0.735526 0.731087 0.240165 0.344027 0.390060 -0.199972 0.062304 -0.672899 0.394866 0.750884 -0.515564 0.067238 -0.299711 0.248112 0.210543 0.052541 -0.015873 -0.124471 -0.610588 0.268432 0.149227 0.003753 0.009023 -0.232021 0.217528 0.926512 -0.655636 0.505318 0.685513 -0.469249 0.200489 0.204943 -0.450479 0.230650 -0.514920 -0.597099 -0.120733 0.171334 0.086308 -0.088331 -0.547775 -0.734908 -0.277722 -0.024534
members -0.783799 -0.456867 -0.766024 0.091756 -1.066791 0.773241 -0.929951 0.468804 0.053840 0.546530 -0.074933 0.391393 1.189606 -0.395079 0.054567 0.596040 -0.373275 -0.148591 -0.549974 -0.037844 -0.071512 0.013045 -0.460248 0.000206 -0.332785 0.083297 0.462008 -0.111510 0.008169 0.373583 0.675516 -0.545250 0.317132 0.897624 0.051579 0.633084 -0.262119 0.148414 -0.100358 0.208076 0.140126 -0.237301 -0.074735 -0.694653 -0.024115 0.762806 -0.346399 -0.439111 -0.045724 -0.694234
place 0.525497 -0.913747 0.130964 -0.341407 -0.211727 1.462471 -0.461517 0.208288 -0.095826 -0.084977 -0.775837 -0.600756 0.601481 -0.290331 -0.487746 -0.097325 -0.290411 0.008297 -0.980462 -0.360502 -0.042578 0.304341 -0.355885 -0.578827 -0.737166 -0.515953 0.670620 0.219549 0.187955 0.003350 -0.250846 0.655511 -0.274173 0.521880 -0.456167 -0.097810 -0.441194 -0.091198 -0.307560 -0.020352 -0.327155 -0.023670 0.246732 -0.267659 0.407376 -0.455900 -0.509045 -0.273261 0.292919 0.010940
action -0.658544 -0.738784 0.425681 0.015665 0.085712 -0.251363 -0.867687 -0.200950 0.544949 -0.038056 -0.071371 -0.024781 0.242148 -0.412914 0.038375 0.098727 0.369393 0.083199 -0.782238 0.251602 1.351948 -0.836118 -0.209138 0.304329 -0.234941 -0.033062 -0.316966 0.483388 0.017619 -0.745811 0.641705 0.765421 -0.099199 -0.483549 0.130574 0.443702 0.989778 -0.589034 -0.370515 0.180143 -0.668937 0.761611 0.482222 0.566574 0.442885 0.699349 -0.442143 0.568128 -0.160803 -0.424981
collaborate -0.369821 -0.292341 0.947663 -0.320823 -0.072166 0.114625 -0.201886 0.868191 0.676553 0.691953 0.072240 0.388467 -0.325349 0.058986 0.782265 0.850939 -0.568297 -0.285297 0.021591 0.555914 -0.182679 0.508562 -0.874542 0.450095 0.140630 0.231605 -1.078244 0.049508 0.105507 0.043171 0.454142 -1.138061 0.571983 0.632299 0.161347 -0.265752 -0.520169 -0.230005 0.626159 0.501444 -0.099656 -0.634944 0.747017 -0.436884 -0.265136 -0.559557 -0.115471 -0.577175 0.320089 -0.090359
platform -0.496877 -0.234289 0.118852 -0.039936 0.496567 -0.123795 -0.316712 -0.109147 0.380908 -0.097084 0.513387 0.868948 0.773930 0.580426 0.354036 0.156592 -0.546326 0.531512 0.035392 -0.679278 0.149943 -0.238918 0.527400 0.450602 -0.270573 -0.216249 0.516985 0.445764 -0.027093 0.191683 -0.059689 -0.214651 -0.329170 -0.018257 0.314684 0.805545 -0.350481 -0.074261 -0.505659 0.245841 -0.265292 -0.208991 -0.113746 -0.169242 0.289091 -0.681352 -0.048343 -0.257184 -0.350289 -0.167013
reporting -0.541397 0.523748 0.088573 0.514538 0.130564 -0.894798 -0.199477 -0.300477 0.076041 0.314190 0.266147 0.253501 1.127336 0.200031 0.623386 0.418451 0.046153 -0.170057 -0.413544 -0.026873 0.173608 0.290602 -0.276873 0.367086 0.322726 0.532922 -0.672529 -0.339083 -0.495584 -0.562639 0.661878 0.735309 0.105279 -0.093704 -0.092870 0.015836 0.995277 -0.244650 0.092567 -0.077505 0.143072 -0.590813 -0.354602 -0.388313 0.724039 0.144599 0.480409 0.109273 -0.091997 0.490116
interest 0.526152 0.224772 -0.623731 -0.376609 0.428720 -0.068698 -0.563510 0.285772 -0.237095 -0.262225 0.070637 -1.070921 0.248433 1.135762 -0.157924 0.762121 -0.081673 -0.623557 0.602063 -0.239727 0.199220 0.659806 -0.244336 0.191259 0.471229 0.246213 -0.375519 0.092465 -0.161166 -0.613439 -0.183950 -0.357593 -0.321262 1.015766 0.044099 -0.696821 -0.165061 0.301609 0.239136 -0.296480 -0.321556 -0.549562 -0.685500 -0.588113 0.745563 0.663836 0.023828 -0.103159 -0.658586 -0.506757
millions 0.400701 -0.389997 0.208216 0.782417 -0.150153 -0.080763 0.156282 -0.088206 0.045993 -0.103598 1.078708 0.151836 1.241585 -0.511599 0.553883 -0.259490 -1.183411 -0.165650 -1.093688 -0.419674 -0.349109 0.123633 0.277922 0.654168 -0.746960 -0.617147 -0.014231 -0.308186 -0.635457 -0.530787 -0.197766 0.834838 0.602086 0.412156 0.332563 0.758250 0.232762 -0.183837 0.238489 0.024250 0.775504 0.193496 -0.540732 0.057165 0.429268 -0.187634 -0.887771 -0.755211 -0.710909 -0.776529
businesses -0.019221 -0.466779 0.262405 -0.526775 0.129360 -0.337694 -0.326781 0.172493 -0.049629 -0.058593 0.115106 -0.190054 1.000203 -0.047270 0.226776 0.443281 -1.017917 0.882316 0.222478 -0.021848 -0.031966 0.404678 0.642724 0.766757 0.358568 0.468236 0.236781 0.050556 -0.239384 0.106324 -0.388428 0.457293 0.437472 0.397415 0.243521 0.202630 -0.120265 -1.063093 -0.782695 0.365920 0.563238 -0.140830 -0.178264 -0.343370 0.079169 -0.126785 -0.269579 0.180663 -0.196873 0.256420
delivery -0.613748 0.041375 -0.103716 0.534540 0.219653 -0.565254 -0.255645 0.209378 0.543342 0.473520 0.375429 -0.305143 -0.098974 -0.344616 0.434810 0.621285 0.087903 -0.209983 -0.200979 0.271015 -0.007653 -0.450942 -0.295250 0.095442 -0.325149 0.333462 -0.631128 -0.514929 -0.916015 0.184671 0.569101 0.007908 0.453973 -0.360319 0.022394 -0.157807 0.140516 0.383444 -0.361899 0.256315 0.290112 0.265010 0.367253 0.280752 0.497467 -0.035999 0.309607 -0.174366 0.195039 -0.273553
efforts -0.298386 0.037771 0.443391 0.617658 -0.038774 -0.404304 -0.278235 0.070135 0.380797 -0.134916 0.237155 -0.257493 0.720173 -0.640972 0.530494 0.371169 -0.426327 -0.146043 -0.271663 -0.233163 -0.369049 0.105265 0.263253 0.285153 -0.500153 0.091177 -0.584190 -0.089400 -0.263838 0.165774 0.662999 -0.154892 0.635956 -0.333689 0.455955 0.619818 0.490539 -0.193820 -0.177333 -0.308951 0.065704 -0.511562 -0.366636 -0.028184 0.626931 0.018405 -0.824964 -0.504839 -1.055143 -0.049598
metrics -0.140634 -1.217862 0.476201 0.384425 -0.119600 -0.818393 -0.595826 0.092502 0.561387 0.945844 0.107667 -0.007340 0.106796 -0.135800 -0.201451 0.343737 0.376533 -0.190684 -0.283242 -0.145198 -0.247564 0.391709 -0.661327 -0.303843 -0.481931 0.215350 0.229006 -0.455237 0.181306 -0.118844 0.445804 0.211175 0.368506 0.041796 0.303866 -0.114438 0.135869 0.103549 -0.330160 0.586101 -0.022117 0.092274 -0.331618 0.326578 0.838195 -0.136844 -0.008752 -0.088678 1.108846 0.777251
office 0.251992 1.049018 0.420028 -0.525667 -0.117866 0.552315 -0.695135 0.409297 0.090721 -0.460413 -0.341071 -0.434626 0.993643 -0.388377 -0.004867 0.901715 0.072006 -0.067439 0.303009 0.905630 0.417880 0.371599 0.570985 -0.027421 -0.374646 -0.126106 -0.088487 0.092242 -1.185106 0.583052 0.602981 1.090932 0.234874 0.686620 -0.483001 0.176619 -0.516431 -0.211984 0.967664 -0.061562 -0.236413 -0.826979 0.549569 -1.075329 0.027290 0.792432 -0.128593 0.494946 0.537153 -0.146396
building -0.737626 0.102921 0.545414 0.342932 0.588231 -0.544226 -0.121323 -0.098779 0.344869 0.576541 0.371802 -0.555172 -0.542062 0.354296 0.008472 0.743980 -0.256597 -0.563014 0.372215 0.465277 -0.079360 0.405673 -0.505261 -0.451553 -0.255768 0.479142 0.196926 0.309178 0.406346 -0.669059 0.418038 -0.414463 0.446063 -0.087706 0.124434 0.184254 0.133553 -0.000025 0.662346 0.026861 0.219921 0.217269 0.316066 0.576958 0.394542 -0.040363 0.184123 -0.082647 0.321197 -0.187173
