data -0.431117 0.850310 0.776424 -1.630494 0.606114 -0.031252 0.464941 -0.907405 -0.089836 1.408361 0.254815 1.940574 -0.178670 -0.901189 -1.198160 -1.748506 -0.684042 0.727717 0.242233 -0.002108 0.083110 -0.397628 -0.707759 -2.287019 -2.048522 0.433515 0.015752 -0.103999 -1.289387 0.728206 -0.967909 0.389228 0.377184 0.127556 -2.171689 -0.247792 -0.256419 0.393162 -0.713645 1.270302 1.706661 0.585759 -0.197232 1.653624 -0.826027 -0.745450 -1.523422 -0.942475 0.826440 1.483342
experience 0.002261 0.301262 0.156417 -0.542805 1.222397 -0.357455 0.589258 0.757287 0.329378 1.030891 -0.931977 0.597591 -0.610489 -1.421966 -0.452128 -1.396499 0.460639 -0.925254 1.271963 0.012342 -0.796353 0.263667 -0.359431 -0.694419 -0.985309 0.263883 2.141220 0.127368 -2.168302 0.728594 -0.298502 1.900291 0.387015 -0.154442 -1.598472 -1.011209 -1.688246 -0.143605 0.127803 1.038249 1.035625 -0.794527 0.172082 0.194899 -0.047998 0.020853 -1.571724 -1.171716 0.651920 -0.413130
business -0.397553 0.873238 0.547087 -0.279549 0.712657 -1.247947 1.376429 -0.378479 1.024742 0.873897 0.471232 1.361897 0.837090 -0.460058 -1.267210 -1.165956 0.808448 1.306793 1.076353 0.196851 -0.693582 0.064508 0.021704 -1.794789 -0.224914 0.060600 0.412246 1.169379 0.289831 0.248472 -0.146950 0.770519 0.512932 0.394123 -0.136067 -0.615873 -0.438519 1.505455 -1.065507 0.780664 2.338226 1.361057 0.398485 -0.280799 -0.388412 -0.887654 -1.140622 -0.272758 -0.874908 -0.396437
science -0.709411 -0.219497 0.668696 -0.879862 0.707053 -1.031921 0.889398 0.640504 0.575408 1.036641 0.178197 1.648281 0.152929 -0.398718 -0.055786 -0.601167 -0.232935 0.501788 -0.967148 0.224541 -0.259338 -0.305252 -0.842515 -1.667371 -0.929814 0.140290 0.480920 0.315344 0.122500 -0.554101 -1.188641 0.299906 -0.223818 -1.512687 -1.249474 -1.396620 -1.117037 0.169590 -0.381154 0.545394 1.729911 -0.463209 -0.276468 0.549816 -1.356948 -0.277887 -0.248430 -1.717816 0.545846 -0.027270
team -1.353644 1.297070 -0.514930 -1.160682 0.676277 -2.288821 -0.528894 -0.060459 0.820128 0.635875 -0.027141 0.596065 1.156890 -0.025963 0.250145 -1.065752 0.914677 0.626893 0.263055 -0.304975 -0.261686 0.631917 -1.285645 -1.482007 -1.379498 -0.131781 -0.635084 0.470110 -0.510693 0.201042 -0.875422 -0.020666 0.471962 -0.365224 -1.175921 -0.199774 -0.019803 -0.418197 -0.257568 0.448583 1.529879 -1.093795 -0.340298 -0.329248 0.143519 -1.204508 -0.865462 -0.756805 0.100905 0.771015
analytics -0.199363 0.835174 0.473506 -0.565577 1.174468 -0.776067 0.776831 0.313838 0.977913 1.716066 0.239840 0.781200 -0.092234 -1.085750 -0.730671 -0.456508 0.302352 0.611551 0.472702 0.385056 -0.289496 0.218011 -0.776857 -1.313193 -1.126295 0.643746 0.143786 0.424162 0.025808 0.122391 -0.606317 0.208521 0.036114 -0.338425 -2.126538 -0.950286 -0.623840 0.153492 -0.920015 -0.402993 1.952211 0.058917 0.144649 0.303630 -0.579675 -0.372278 -0.093975 -1.294056 0.046156 0.561260
skills 0.592620 -0.390960 1.373907 -0.430586 1.608557 -1.079609 1.078100 0.591114 0.634286 0.083128 -0.141680 0.968408 -0.143511 0.069271 0.276792 -0.152910 -0.285205 0.657976 1.114484 0.608178 -0.612359 0.041236 0.303840 -0.190876 -0.519845 0.112189 0.236296 0.212261 -1.694342 0.279053 -0.085217 1.567773 0.269957 -0.262924 -0.608330 -0.344328 -0.800868 -0.555974 -0.866935 1.184391 1.580360 -0.820958 -0.361212 -0.895190 -0.307211 -1.865227 -1.733446 -1.321955 0.749470 0.167907
work -0.279954 0.930948 -0.160106 -0.608548 0.251029 -1.415544 -0.354753 0.469621 0.825709 0.850568 0.101537 0.386876 0.550018 0.366257 -0.447668 -0.374589 0.930155 -0.056621 0.058948 -0.957764 -0.465663 0.431733 0.484082 -0.791111 -0.939154 -1.016245 0.976640 1.416539 -1.587225 -0.346315 -0.662303 1.783336 0.402506 -0.607999 -0.599368 0.458327 0.058620 0.163123 -0.310517 0.760567 2.148949 0.209895 -0.165024 0.214794 -0.036429 -0.384932 -0.732848 0.083631 0.950582 0.400899
machine -1.195433 1.184578 0.412144 -0.029399 0.586292 -0.664318 0.493859 0.348479 0.168531 0.667827 -0.105920 -0.034047 -1.227156 -1.282223 -1.252216 -0.096121 -0.643094 0.516041 0.645032 1.013718 -1.282668 -0.304534 -1.549268 -0.713384 -1.094811 0.141288 0.243610 0.660339 0.049585 -0.730853 -0.851729 1.001487 0.375811 -0.931100 -0.971803 -1.158786 -0.813642 -0.552552 -0.179144 0.847689 1.220084 -0.723170 -0.149564 -0.352241 -0.784414 0.490968 -1.625683 -0.312847 0.506453 -0.401489
solutions -0.236118 0.947267 -0.512508 -0.208653 0.272208 -1.433061 1.228103 0.260825 0.161809 1.128838 0.338035 0.955810 -0.597178 -0.564527 -0.663995 -0.987357 0.805517 1.263222 0.700759 -0.371080 -0.882444 0.272687 -0.656239 -1.834702 -0.111117 0.133566 0.960744 -0.095643 0.285749 0.054881 -0.671774 0.665472 0.207827 0.495799 -0.486505 -0.071599 0.163110 -0.520385 0.469747 0.374740 1.402923 0.075193 0.347385 -0.256687 -0.698793 -0.818033 -0.818707 -0.346888 0.231691 0.027822
ability 0.108069 0.360599 0.929932 -0.575113 0.966755 -1.959209 1.493082 -0.238682 -0.171710 0.023557 -0.151321 0.853735 -0.379159 0.073084 -0.076993 -0.336933 -0.253984 0.314506 1.147328 -0.542794 0.106882 0.214212 0.153730 -0.635512 -0.737635 -0.181990 0.048547 0.404436 -1.693540 -0.580839 -0.613561 1.444879 0.453594 0.383244 -0.167129 0.046043 0.294612 -0.177870 -0.132735 0.825451 1.466198 -0.062612 0.168743 -1.403025 -0.621813 -0.896095 -1.044058 -1.448625 -0.180212 -0.277028
analysis -0.750088 0.699520 0.096103 -0.418801 0.684961 0.056680 1.111617 -0.704930 1.612373 0.074157 -0.653317 0.969558 -0.907985 -0.181980 -1.211451 -0.026674 -0.289337 0.007661 0.922666 0.782084 0.661864 -0.854741 -0.544353 -0.612151 -0.174386 0.234473 -0.447898 0.102479 -1.447578 -0.312703 -1.767696 1.041377 0.024014 -0.280527 -1.274779 -1.404762 -0.813528 -0.206619 -0.676235 -0.078367 1.095477 0.191208 0.636683 0.278883 -0.808046 -0.573122 -1.403841 -0.079991 0.395428 1.298789
years -0.072980 -0.003399 0.025898 -0.246528 1.328913 -0.683757 0.141914 0.606090 0.599245 1.250171 -0.056522 0.756584 -0.493460 -0.578472 -0.528063 -0.864220 0.282746 -0.624757 -0.515125 0.206097 -0.369210 0.554180 -0.192247 -1.170231 -0.229834 0.786550 1.960232 0.125969 -0.966752 1.056383 -0.341029 1.714434 -0.016124 -0.741430 -0.465387 -1.603166 -1.238271 0.197332 -0.190692 0.908053 0.984115 -0.526973 -0.188046 -0.292530 -0.478432 0.494377 -0.017856 -0.323441 0.991664 -0.469644
development -1.020581 0.413553 -0.215575 -0.893875 0.154889 -0.539721 1.015628 0.954474 0.279985 1.682091 1.110935 0.201347 -0.712858 -0.164336 -0.100155 -1.119758 0.652796 0.381015 0.005118 1.105850 0.053192 0.548584 -0.073156 -0.658483 -0.867076 0.555740 1.176777 -0.796220 -0.857109 -0.228146 -0.568450 1.530639 -0.477695 -0.166726 -0.295751 -0.167153 -0.792324 0.579572 0.494858 0.560224 1.662258 -1.188893 0.918967 0.323239 -0.131724 -1.157401 -1.234706 -0.007040 -0.409225 0.831131
information 0.430991 0.427086 -0.334828 -0.203164 2.186434 -1.065179 0.263529 -0.127914 -0.740375 -0.244393 -0.186150 1.192432 0.760944 0.223543 -1.027181 -0.243471 0.455065 0.304815 -0.949414 0.756137 -0.036131 -0.066330 0.051911 -0.969516 -0.626759 -0.213810 1.505318 -0.388753 -1.178632 -0.302968 -0.387111 -0.272586 -0.113378 -1.474246 -0.271749 -1.779941 0.186544 0.452507 0.533421 -0.083414 0.861734 1.656011 -0.990925 -0.319719 0.049717 -0.983563 -1.861659 -0.115368 -0.019957 0.532112
’ 0.399786 0.592720 -1.451988 -0.214720 0.508261 -1.703277 0.712164 -0.097275 -0.575324 0.379439 0.029731 0.606179 1.387658 0.164546 0.036440 -0.293488 0.119296 -0.198159 0.812841 0.555138 -0.753225 -0.222589 -0.250678 -1.598650 0.333261 -0.996698 0.829062 0.037640 0.540814 0.028680 -0.870745 0.832027 -0.108533 -0.880533 -0.679871 -2.081688 -1.681261 0.298291 -0.453799 0.904546 0.463224 -0.031481 -1.018866 -0.185699 -1.431993 -0.812321 1.077181 0.395184 0.899409 0.559878
engineering -0.822171 0.290357 -0.426476 -0.706679 0.366439 -1.446899 -0.062863 0.772872 0.720274 1.174492 0.492581 1.138650 0.253871 -0.296327 -0.672481 -1.105915 -0.107304 -0.048260 -0.913033 -0.010049 0.240799 -0.327166 -0.292298 -1.323389 -0.765118 -0.044729 0.974154 0.326761 -0.138002 -0.148910 -0.256283 0.783310 -0.048655 -1.787994 -0.893794 -0.673282 -0.251028 0.774161 -0.545832 0.270120 0.443136 -0.923513 0.056843 -0.043708 -0.917985 -0.485909 -1.416698 -1.164389 0.406127 -0.075871
models -1.198437 1.031051 0.449357 -0.074499 0.252045 -0.653595 0.383202 0.560215 0.111405 0.503856 0.591763 1.126002 -0.425375 -0.881704 -0.984846 -0.418621 0.367174 0.233572 0.262574 1.444425 -0.797316 -1.267095 -1.201551 -1.013756 -0.663131 -0.786258 -0.659121 0.074406 -0.668351 -0.304656 -0.984354 0.815176 0.826150 0.689144 -1.088280 -0.948520 -0.551231 -0.224476 -0.946188 0.557640 0.808725 0.084170 0.679224 -0.229716 -0.136165 0.660845 -1.348064 0.488098 -0.616262 -0.699602
research -1.786086 -1.007563 0.036961 -1.345579 -0.311487 -0.833243 1.043977 0.226371 -0.023096 1.211240 -1.033883 1.371971 -0.349799 0.013565 -0.780070 0.625816 0.165732 0.221071 0.346213 0.232651 0.124633 0.537349 -0.743606 -1.551840 -0.312150 -0.758068 0.447902 -0.113244 -0.430540 -0.906389 -0.139446 1.167065 0.243862 -1.072329 -0.654540 -0.646781 -0.850878 -0.518039 0.753878 -0.447906 1.938635 -0.227098 -0.278367 0.381586 -0.765435 -0.704400 -0.637782 0.888678 -0.021847 -0.008216
knowledge -0.079158 0.432974 0.971658 -0.167152 0.495927 -0.638440 0.957695 0.110226 0.227246 -0.143237 -0.024361 0.183395 -0.311928 0.574609 0.168881 -0.762770 -0.473240 0.620791 0.971395 0.664249 -1.115112 -0.161583 -0.612785 0.079886 -1.422329 1.526001 0.584100 -0.223421 -1.120670 0.582680 -0.400080 1.344500 0.435019 -0.392954 -0.772462 -0.968765 -1.378045 0.719563 -0.542832 0.105734 0.835721 0.312675 0.466546 -0.621403 -0.464456 -0.630876 -1.435079 -1.094346 0.676824 -0.265282
tools 0.187454 1.525204 0.877462 -0.548512 0.650356 -0.562673 1.090077 0.301789 0.599352 0.357606 -0.040316 1.015652 -0.060171 -0.045109 -0.849065 -0.363959 0.642478 0.858874 1.352297 0.854793 -0.789268 -0.272129 -0.189212 -0.005558 -0.696447 0.426182 0.898511 -1.004302 -0.175278 1.089111 -1.238830 0.962701 -0.365580 0.319987 -1.636275 0.285320 -0.575360 -0.418594 -0.754376 0.200351 1.087200 -0.642497 0.709028 0.512858 -0.003802 -0.214857 -1.382728 -1.076267 -0.322448 0.011134
systems -0.076662 0.425419 0.057216 -0.848351 0.827217 -0.257293 0.638756 0.371421 0.203173 0.759755 0.088145 0.401698 -0.761239 0.355366 -1.221179 -1.000156 0.219811 0.298934 0.091991 1.318841 -1.182620 -0.703866 -0.048977 -1.728733 -1.412436 -0.721783 1.109082 0.114638 -0.305067 0.224067 -0.800072 0.688522 0.205467 -1.002805 -1.208803 0.557294 -0.846214 0.115876 0.388571 0.391707 0.332530 0.843987 -0.118392 -1.575039 -0.955480 -0.736129 -0.872433 0.119279 0.262669 0.117393
management 0.175878 -0.312564 0.019529 -1.229365 0.580051 -0.669106 0.817167 0.103637 0.675541 0.697726 0.998461 0.382822 -0.453561 1.089266 -0.441991 -0.738307 0.340153 0.331832 0.201395 1.188554 0.626823 -0.338189 0.086324 -0.263268 -0.733687 -0.763040 0.453686 0.608098 -0.512838 0.241861 -0.695259 0.826858 0.660723 0.758553 -1.961043 -0.828897 -0.868098 1.106869 0.638739 -0.216882 1.059897 0.382777 0.054510 -0.845311 -0.495411 -1.617267 -0.747638 -1.383385 0.435796 0.245024
opportunity 0.352988 0.602832 -1.121412 0.376825 0.924814 -0.393094 0.442353 0.425750 0.507071 0.152062 -0.920417 1.274502 0.671600 -0.007850 1.222752 0.015704 0.717996 1.535726 0.159659 0.581028 -0.346288 1.012897 0.400250 -0.202960 -1.165083 -0.295175 -0.524993 0.887904 0.198272 -0.134282 0.822584 1.389661 -1.114048 -0.321142 -0.143632 -0.996836 0.436887 0.254355 1.136573 0.628828 1.071602 0.119056 -1.645383 0.604482 0.322942 -0.643879 -0.265355 0.540295 0.359073 -0.066450
product -0.954399 1.133858 -0.787453 -0.484452 0.593196 -0.864607 0.132719 0.059717 0.978436 1.232175 0.945196 0.923917 0.306787 -0.310442 -0.348132 0.106523 0.636122 -0.243512 -0.031486 0.370840 0.060090 0.157814 -0.975138 -1.676199 0.873760 -0.069376 -0.410012 1.124797 -0.083108 -0.325322 -0.039020 1.322980 0.270938 0.893710 -0.704282 -0.388106 -1.014020 0.589879 0.306546 0.069511 0.228347 -0.479429 0.747474 0.735986 -0.766537 -0.416882 -1.894082 -0.467484 -0.007646 0.977725
job -0.407007 0.001003 0.009742 -0.102991 0.494854 -1.637351 -0.281218 -0.439718 0.351037 0.641934 1.350918 1.022768 0.513215 0.291491 -0.889495 1.802529 0.215207 0.881546 -0.252668 0.390586 1.047254 0.088981 0.169262 -0.062433 -1.182139 0.772012 1.340457 1.106890 -0.837102 1.463738 0.543525 -0.074626 0.438886 -1.318318 -0.095098 -0.625184 -0.707936 -0.391286 0.426104 1.323467 1.709997 0.209063 -0.578538 0.668898 0.552186 -1.030494 -0.199160 0.917780 -0.383658 -0.211169
technology 0.074271 0.189866 -0.652176 0.429904 0.681141 -1.973830 0.177225 0.255296 0.540868 0.971542 0.428673 1.033497 -0.038219 -0.050709 -0.418712 -0.135828 0.007299 1.053711 0.114690 0.864388 -0.615683 0.240747 -0.150651 -1.650920 -0.355281 -0.099852 1.291684 0.510667 0.491781 0.225274 0.425048 -0.002432 0.542266 -0.942152 -0.544660 -0.502834 -0.742116 -0.842138 0.858864 0.841686 0.524854 0.110530 0.246741 0.052305 -0.780692 -1.314315 -0.071050 -1.372979 -0.104916 0.304994
status 1.193004 0.022591 -1.418415 0.585386 0.393201 -1.373215 1.796280 -0.626154 -1.200043 -0.224746 -0.650484 -0.456203 0.375657 0.852266 -0.421218 0.195795 1.162715 0.174318 -1.487556 0.035153 0.297878 0.121448 0.145275 0.503848 -0.050659 -1.191444 0.888311 0.488355 -1.694961 1.611175 0.959731 -0.097146 -0.597056 -0.894079 1.154753 -1.235102 0.961067 0.070064 -0.545175 -0.996532 0.146410 0.433209 -1.026255 0.621559 1.121381 -1.275870 -1.134070 0.744977 -0.025209 0.275236
learning -0.939773 1.130369 0.388005 0.432962 0.059855 -0.860360 0.481318 0.040206 0.231290 0.346491 -0.324764 -0.086147 -1.434562 -0.715956 -0.509875 -0.268887 -0.406436 0.498451 0.613302 1.152882 -1.623870 -0.195086 -1.223133 -0.341421 -1.349471 -0.246614 0.473988 0.871493 0.242221 -0.812822 -0.802805 0.906221 0.252697 -1.169289 -1.022145 -1.100971 -0.572136 -0.451998 -0.220240 1.190006 0.909953 -0.514301 0.087988 -0.497554 -0.274977 0.386011 -1.281927 -0.138655 0.020620 -0.589676
position 0.321108 0.271395 0.123448 -0.324974 1.661799 -0.174767 -0.061236 -0.183007 0.149788 1.023196 0.844333 -0.219899 1.326729 -0.533489 -0.316582 1.732145 0.910185 0.320231 0.261437 -0.040399 0.638815 0.550094 -1.191007 0.364470 -1.096166 0.312229 -0.098927 0.460825 -1.111554 0.345745 -0.370301 1.178048 -0.914088 -0.916147 -0.086232 -1.153650 0.062934 0.704933 -0.009772 1.899403 1.229561 0.563240 -0.007012 -0.085452 -0.114136 -1.462668 0.338691 0.065866 0.192183 -0.544273
design -0.689841 0.053905 -1.053536 -0.688924 0.417535 -0.478922 0.012118 0.240277 0.610899 0.427562 0.810907 0.764696 -1.517091 -0.164035 -0.681022 -0.648384 0.613552 1.376788 -0.033474 0.677059 0.266212 -0.588502 -1.096193 -1.408472 -0.832166 0.513761 -0.144560 -0.034362 -0.714174 0.667303 -0.768688 1.527991 -0.212983 0.619585 -0.594445 0.180880 -0.736028 -0.199644 -0.190781 0.367744 1.245405 -0.548973 0.738166 -0.577868 -0.823556 -0.455192 -1.502986 0.050990 -0.510097 0.157175
teams -0.119278 0.356605 0.025286 -0.818013 0.999768 -1.420005 0.649388 0.232779 0.502448 1.291025 0.624815 0.911883 0.510160 0.508070 -0.533876 -0.148019 0.557277 0.087189 -0.147387 0.132708 0.257264 0.906367 -0.851006 -1.082211 -0.247244 -0.865977 0.434330 0.726385 0.002299 -0.045919 -0.104428 0.393442 0.151074 0.800339 -0.803537 -0.308940 -0.379751 -0.027179 -0.911874 0.010130 0.480330 0.063340 0.797435 -0.306598 -0.776556 -0.670799 -1.818125 -1.085206 -0.074807 0.713618
requirements -0.120529 0.180433 -0.555512 -0.416963 0.611077 -0.013331 0.564136 -0.372332 1.011917 0.239042 1.450189 0.826088 0.312657 0.512787 -0.269824 0.088150 0.468093 0.706249 -0.153326 -1.248403 0.843154 -0.709917 -0.522924 -0.836018 -0.040435 0.216406 1.490557 -0.054302 -0.821511 0.082919 -0.980473 1.579778 0.271092 -0.066279 -0.465850 -1.132410 0.037460 0.158447 -0.887278 1.068444 1.009489 1.013965 -0.285510 -0.731595 -0.838141 -1.108096 -1.335695 -0.168280 0.016980 -0.399284
qualifications 0.472483 -0.037499 0.777143 -0.232242 0.855555 -1.688860 0.418996 0.260448 0.243629 0.486031 0.297745 1.095647 0.341921 -0.001331 -0.522382 -0.200798 0.375619 -1.115516 -0.060370 -0.583377 -0.126641 -0.055920 -1.096240 -0.089067 -0.093134 0.357954 0.767079 0.066668 -1.000591 1.051112 -0.831475 1.381539 -0.323385 -0.973824 -0.420218 -1.463110 -1.009904 0.570724 -0.778671 1.428761 0.476584 -0.568205 -0.719305 -0.833410 -0.865628 -0.340709 -0.788547 0.133609 0.249955 -0.594591
computer -0.400332 -0.239890 0.595418 -0.405515 0.903981 -1.170041 0.913263 1.102195 0.044620 0.616347 -0.299529 0.305268 -0.047755 -0.095884 -0.441922 -0.274090 -0.751533 -0.576932 -0.675946 -0.221170 -0.074208 -1.347046 -0.229103 -1.017578 -0.418056 0.207629 1.006296 0.609673 -0.418350 -0.120611 -1.109354 1.250515 -0.213405 -2.572264 -0.185764 -1.057459 -1.154609 0.701756 -0.045548 0.759473 0.908998 -0.771466 -0.318228 -1.026999 -1.089291 -0.188416 -1.140057 -0.903403 0.392766 -0.419262
software -0.807238 1.137947 -0.664030 -0.794936 0.411023 -0.309835 1.029261 0.916949 0.181793 0.708552 0.865440 0.789185 0.170580 0.479109 -0.634758 0.065132 -0.590582 0.139745 0.323806 0.736390 0.324802 0.291865 0.275799 -0.623344 -1.260487 0.807330 0.916465 0.109781 -0.139737 0.249230 -0.778499 1.555464 -0.200591 -0.521915 -0.630962 0.139573 -0.534035 0.456853 0.464755 0.609479 0.874681 -0.617025 1.074153 -0.893926 -1.001415 -0.264308 -1.583090 -0.389553 0.598723 0.434831
company -0.654546 1.167664 0.079674 0.326403 0.078133 -1.048365 -0.864536 0.749685 -0.736251 0.544691 0.294858 1.119492 0.978660 -0.338809 -0.455399 -0.330678 0.413000 0.736731 0.687515 0.300237 0.348222 0.048044 -0.070484 -0.404084 -0.503363 -0.717853 1.013918 0.530319 0.841626 0.646817 -0.016774 1.168333 1.007513 0.446847 0.343344 -1.556334 -0.469694 0.559092 1.225192 0.554647 0.734634 0.182666 -0.721597 0.849682 -0.013580 -0.703952 0.115748 -0.086962 0.511496 0.359547
environment 0.166056 1.058892 -0.161419 -0.882711 0.787097 -1.970486 0.663595 -0.202672 0.048038 0.695755 0.044191 -0.346911 0.597770 0.268701 0.010067 -0.904112 0.655875 0.088276 0.659472 -0.355728 -1.036602 1.167327 -0.032127 -0.304270 -0.791213 -0.250177 0.677197 0.217585 -1.590583 -0.601338 -0.818276 1.344648 0.793199 -0.257814 -0.398579 0.299906 -0.065728 -0.212965 0.376740 1.139486 0.694921 -0.845352 -0.195928 -0.181008 0.382417 -1.042617 -0.294496 -0.113847 0.508117 0.052249
role -0.424703 0.688817 0.058476 -0.683959 1.466901 -1.273439 -0.348922 0.380681 1.097898 1.097676 0.398840 0.275837 0.457030 -0.679179 0.466127 -0.631226 -0.468021 0.890374 0.103444 0.413438 0.057343 0.763187 -0.934108 -1.296663 -1.021740 0.164083 -0.861613 0.399188 0.045057 1.369785 -0.433763 0.764020 -0.792376 0.006676 0.498829 -1.036436 -0.936608 0.082906 -0.842721 1.504399 0.676818 0.499779 -0.568083 -0.245589 -0.110787 -0.486185 -0.486270 0.569070 0.723556 0.599409
health 0.317656 0.189759 0.056077 -1.084883 -0.592541 -0.985857 0.445094 -0.485165 -0.013569 -1.155438 -0.452067 0.916530 0.091575 -0.987798 0.286131 -0.263861 1.230787 -0.424649 0.516675 -0.237976 -0.543700 -0.684898 -1.004206 -0.630014 -1.051677 0.243271 1.386485 0.095270 0.985464 -1.106308 -0.083369 0.728497 0.402348 -1.324724 0.197990 -1.239779 -0.157674 0.939783 0.514794 0.208400 1.354314 0.665163 0.495195 0.769699 -0.281976 -1.772383 1.335128 0.613388 1.120111 0.525919
insights -0.284185 1.144016 0.584924 0.051359 0.682311 -1.288534 0.897593 -0.220095 0.290617 0.825164 -0.201483 1.679298 0.914362 -0.627426 -1.077408 -0.317591 0.073264 0.355272 0.335366 0.900500 -0.308825 0.345572 -0.888340 -1.014987 0.563582 0.449217 -0.483976 0.574711 -0.312219 -0.249650 -0.440794 0.576056 0.499055 0.762307 -0.672778 -0.624978 -0.107849 0.020643 -0.844964 0.510124 0.711966 0.799454 0.810789 0.451825 -0.321666 -0.405427 -0.785156 0.149417 -0.617562 1.741397
techniques -0.128541 0.751552 0.311932 0.394093 0.142777 -0.694508 0.265707 0.204983 0.342367 0.308461 -0.725926 0.330411 -0.839481 0.035522 -0.989023 -0.001810 -0.524701 0.921981 1.089857 0.619429 -0.928472 -0.422113 -0.780502 -0.214700 -0.502577 0.408149 -0.261314 -0.188215 -0.592105 -0.796784 -0.641334 0.996491 0.678387 -0.873108 -1.641236 -1.124948 -0.212937 -0.435058 -0.721707 0.458472 1.008297 -0.019375 0.297311 0.383888 -0.627910 -0.161295 -2.020783 0.431516 0.120392 0.289662
python 0.001535 1.259898 1.016535 -0.599099 1.007424 -0.387903 1.083461 0.311968 0.017201 0.374921 -0.039850 1.006988 -0.240734 0.272117 -0.362034 -0.775560 -0.130127 -0.315173 0.493996 1.005251 -0.512555 -1.029481 0.815250 -0.069849 -1.073327 0.929332 0.174163 -0.636335 -1.609093 0.402115 -0.858000 2.058596 -0.374399 -0.025686 -0.593493 -0.721467 -0.755266 -0.596078 0.170870 0.795872 0.890592 -1.358232 0.705434 -0.577585 -0.612532 1.653302 -0.649343 -0.867150 1.023831 -0.354414
problems -0.370706 0.717954 0.243980 0.270570 0.076235 -1.494482 1.052927 0.132910 0.592923 0.433702 -0.315093 0.866140 -0.791167 0.042906 -1.260130 -0.191936 -0.245521 0.994586 0.704759 -0.346863 -0.396909 0.863231 -0.639166 -1.266818 -0.910147 -0.095465 0.184784 0.200198 -0.549555 -0.913548 0.522688 1.069602 0.443024 0.127444 -0.021443 -0.516625 -0.002908 -0.234594 -1.166774 0.775699 1.038340 0.377584 0.565560 -0.313856 -0.925583 -0.119419 -0.922787 0.366582 0.733148 0.383531
services 0.408229 0.878351 0.208649 -1.436329 0.749372 -0.977036 0.786693 0.731370 0.706256 0.822756 0.596099 1.170415 0.113391 -1.130076 0.714988 -0.194537 0.629426 0.128584 0.219243 0.276589 -0.609532 0.077020 -0.734374 -1.299318 -1.273282 -0.249963 1.505147 0.345491 0.481934 0.678149 0.089974 0.414045 -0.153003 -0.477614 -0.462668 -0.933183 -0.248603 -0.586881 1.150039 -0.708146 -0.508109 1.059277 1.264888 -0.043919 0.239128 -1.344001 -0.346835 0.585723 0.787564 0.262065
employment 0.986479 -0.195595 -1.514241 1.284874 -0.401961 0.351264 0.683904 0.665626 -0.586122 0.196208 0.322314 0.685146 0.562211 0.861225 0.885234 0.403982 0.701163 -0.154465 -0.288009 -0.143644 0.105678 0.611508 -1.053100 0.468117 -0.359089 -0.510797 0.980154 1.004539 -0.526570 -0.173184 1.280615 1.278469 -1.274119 -0.447655 -0.523382 -1.118325 0.467969 0.966779 0.686038 1.210415 1.299585 1.129393 -1.251047 0.488724 1.046918 -0.196590 -0.314466 0.868620 -0.427077 0.060008
projects -0.706037 0.497296 0.319142 -0.773320 0.162381 -0.717014 0.850462 0.395799 0.384565 1.326258 0.492978 0.315773 -0.363868 0.765791 -0.627378 -0.265340 -0.325417 0.160983 0.242028 -0.286501 0.100941 1.666182 -0.220741 -0.790459 -0.922914 -0.252545 -0.571892 -0.201439 -0.988147 -0.866151 -0.589406 0.921543 0.279250 0.839209 -1.082650 -1.192599 0.037939 -0.118503 -0.735638 0.217581 1.392398 0.027159 0.127679 0.106757 -0.914141 -1.232201 -0.322046 0.378116 0.331655 -0.310469
degree -0.106259 -0.236642 0.639929 -0.070284 1.142493 -1.116065 0.374723 0.894220 0.206840 0.615570 0.129851 0.801143 -0.202104 0.009467 -0.098899 -0.420534 -0.366462 -1.060171 -0.266754 -0.858116 -0.138522 -0.308238 0.358535 -1.133640 0.442511 -0.099893 1.274504 0.195683 -0.184496 -0.050561 -1.253167 1.236722 -0.226947 -1.805078 -0.496141 -1.752472 -1.024560 0.593808 -1.016958 0.986734 0.884224 -0.177288 -0.983741 -0.711159 -1.180224 -0.413574 0.023229 -0.304788 0.435178 -0.964112
statistics -0.310878 -0.393291 0.998107 -0.396718 0.864934 -1.356151 0.277199 0.643787 0.225972 0.780371 -1.069206 0.706520 -0.800935 -0.256903 -1.037919 -0.326779 -0.517966 0.086966 0.314577 0.001984 0.337267 -1.395234 -0.817613 -0.715801 -0.141368 -0.007976 0.887062 0.157751 -0.060681 -0.859688 -0.454292 0.946589 -0.163434 -2.216925 -0.269556 -1.645068 -0.653153 0.558541 -0.866616 0.330203 0.848717 -0.273843 -0.448930 -0.160994 -1.162934 0.726606 -0.778652 -0.720637 0.466902 -0.479366
s 0.233547 1.014025 -1.325305 -0.057363 0.411298 -1.637091 1.025741 -0.330076 -0.432302 1.456284 0.231563 -0.170604 1.178788 0.296754 0.417583 -0.506505 0.153326 -0.486963 1.109423 0.414925 -0.391033 -0.254093 0.042260 -1.238931 0.278133 -0.658919 0.609249 0.283343 0.399162 0.260022 -0.936737 0.046659 -0.004680 -0.671167 -0.669706 -1.813665 -1.606403 0.211582 -0.475589 0.700239 0.176660 -0.141214 -0.825337 0.201980 -1.198042 -0.864994 0.622017 0.357894 0.308574 0.260872
people -0.263728 0.847457 -0.690246 0.360699 0.098324 -1.500824 0.212375 -0.085647 0.235931 -0.197190 0.012924 2.095298 0.348074 0.469238 0.174432 -0.032829 0.861198 0.420582 -0.007153 0.398221 -0.568299 1.291479 0.831249 -0.091291 -1.549619 -0.586757 0.895320 1.207636 0.758477 -0.707466 0.706329 -0.626488 0.564498 -0.241678 -0.382405 -0.457025 -0.505974 -0.791373 -0.539325 1.119631 -0.039354 0.304026 0.161577 0.212031 0.220612 -0.343115 0.241280 0.472677 1.997983 0.646673
field -0.325100 -0.076229 0.902843 -0.641421 1.318902 -1.001216 -0.300952 0.940128 1.044742 0.516147 -0.897200 1.104128 -0.052550 -0.661231 -0.545512 -0.508462 -0.321332 -0.549099 -0.633026 0.383940 -0.365313 -0.310965 -0.154650 -0.811202 -0.232831 -0.499307 1.510513 0.433153 0.463470 0.060084 -0.655393 1.222689 -0.269450 -1.586194 -0.201801 -1.415454 -1.086948 0.288291 -0.269872 0.555496 0.739998 -0.461366 -0.640879 -0.542077 -0.967574 0.396250 -0.356670 -0.893730 0.592801 -0.500576
responsibilities 0.026143 0.708317 0.141882 -0.577746 0.288967 -1.159199 0.503741 0.147981 -0.360663 0.703678 1.162815 0.021741 -0.177438 -0.175746 -1.024663 0.793903 0.509932 0.482626 -0.251212 0.109498 -0.302592 -0.458173 -1.699364 -0.278690 -0.335382 0.152773 -0.610157 0.511335 -0.486274 1.569654 -1.068004 0.532698 0.610806 -0.069786 -0.256494 -0.039327 -0.467498 -0.510432 -0.745973 0.729330 1.180874 -0.326514 -0.540045 0.199459 -0.445179 -1.719217 -1.219133 0.812134 0.144813 0.240886
scientist -1.494113 0.062142 0.381027 -0.986453 0.926942 -0.293758 0.240503 -0.495322 0.081541 1.335920 0.534550 0.241977 0.657702 -0.724894 -0.199121 0.397906 0.053000 0.312645 -0.176065 0.378992 -0.155851 0.038843 -0.866992 -1.630838 -0.766478 0.442634 -0.660175 0.733121 0.045520 0.325547 -0.285608 0.361179 0.144532 -0.813313 -0.243245 -0.797014 -0.188388 -0.458374 -0.125952 0.801234 1.156587 0.465256 -0.334379 0.963024 -0.750148 -0.054208 -0.174730 -0.092183 0.874435 0.479848
customers 0.141782 1.163812 -0.192847 -0.152515 0.288001 -0.565345 0.648858 -0.181923 0.534596 0.613675 0.861556 1.342450 0.530876 -0.335877 -0.694737 -0.508554 0.599599 -0.309734 1.033454 -0.671892 -0.429101 -0.345614 -0.591807 -0.484923 -0.203471 -1.229344 0.421142 0.630688 1.034377 -0.556248 -0.182340 -0.775235 0.585928 0.375576 0.877056 -0.293919 -0.826952 -0.730067 0.756371 0.826486 0.422806 0.153353 -0.203999 -0.201133 -0.756391 -0.599920 -1.194514 0.290185 0.802562 0.756266
products -0.562113 0.646881 -0.112559 -0.292334 0.628981 -1.100732 0.290032 0.416371 -0.173794 0.330263 0.493803 0.630851 0.676090 -0.688341 0.474474 0.337033 0.641907 0.794308 0.901978 0.311258 -0.853318 0.118249 -0.854430 -1.355740 -0.350555 -0.139436 1.307997 1.113982 0.082449 -0.115975 -0.480706 0.333905 -0.155231 -0.357174 0.070984 -0.463759 -0.510356 -0.652302 -0.186594 -0.030281 -0.406863 0.238143 1.206587 -0.034707 -0.188325 -0.358844 -1.079992 0.334969 0.082022 1.098685
technologies -0.068230 1.485136 0.062489 -0.253537 -0.281872 -0.754655 1.280330 0.162515 0.559306 0.342229 -0.342759 0.542172 -0.394128 0.509613 -0.100797 -0.692381 -0.608775 0.828075 0.490785 0.211834 -1.294424 0.069917 -0.470212 -1.381443 -0.618101 0.223660 1.188891 -0.599335 -0.611537 0.155347 0.124819 1.297519 0.371620 -0.385099 -1.060572 0.658512 -0.180402 -1.068799 -0.068108 0.626257 -0.159691 -0.483728 0.340347 0.186653 -0.150216 -0.334925 -0.571144 -0.418512 0.496314 -0.163602
customer -0.045791 1.092621 -0.066599 -0.198454 0.407995 -0.750797 0.364503 0.630584 0.910658 0.702868 0.843830 1.198690 0.102862 -1.685435 -0.150826 0.534899 -0.073815 -0.314871 1.169445 0.650787 0.340728 0.317178 -0.956252 -0.650928 -0.618717 -0.830741 0.033874 0.829659 -0.922061 -0.070005 0.554072 -0.456386 1.356342 1.126780 -0.450905 -0.586192 -0.074615 0.543851 0.001612 -0.318138 0.352142 -0.224127 -0.082951 0.269904 -1.060201 -0.316588 -0.918082 0.420457 -0.175091 1.089377
world 0.031259 1.815434 -1.239432 0.202417 -0.390426 -1.360555 1.002078 -0.163881 0.009692 0.109991 -0.227732 1.010204 0.753176 0.422888 -0.473865 0.119575 -0.332390 0.934169 0.747623 0.440089 -0.666111 0.847554 0.112474 -1.139940 -0.829707 -1.504232 0.997028 0.550037 1.490085 0.063513 -0.068144 -0.495450 -0.815783 -0.009306 0.185420 -0.226354 -0.320924 -0.638678 0.478511 0.690724 0.984957 -0.046522 -0.140333 -0.081273 -0.384200 0.123233 0.362945 -0.233323 1.005883 1.677095
communication 0.700408 -0.563629 1.062321 -0.306686 1.568539 -1.081572 1.036781 0.332970 0.459339 -0.429328 -0.087648 0.887264 -0.254585 -0.078167 -0.172138 -0.039085 -0.045637 0.273117 0.742917 -0.189592 -0.123880 0.642282 0.248561 -0.249087 -0.503213 -0.279895 -0.272969 0.486617 -1.070675 -0.017338 -0.341750 1.163190 0.209528 -0.244993 -0.752380 -0.394411 -0.255431 0.038382 -0.325321 0.780175 0.680066 -0.903166 0.217447 -1.111198 -0.064520 -1.738488 -1.629966 -1.326766 0.467181 0.054382
quality -0.392712 0.809029 -0.044385 -0.798610 0.211007 -1.250098 -0.508749 -0.216341 -0.449101 0.326482 0.431385 1.221456 -0.554949 -0.131508 -0.550944 -0.605142 1.139821 0.459552 0.459679 0.141589 0.305421 0.161378 0.476583 -0.386664 -1.194662 0.037585 0.029289 0.203718 -1.048358 -0.082304 -1.411100 0.320763 0.132499 -0.219591 -0.513203 0.691774 0.100244 0.687593 -0.852045 0.469049 0.228489 0.866050 1.051729 0.379523 -1.201884 -0.980336 -0.466893 0.139894 0.968930 0.861663
support -0.625005 0.909431 0.209121 -1.178377 0.455592 -0.694231 0.220161 0.700335 1.004211 1.401393 0.428348 0.166466 -0.657065 -0.007124 -0.855078 -0.332166 1.126323 0.684515 0.428475 0.076254 -0.177864 0.274522 -0.740089 -0.495971 -0.648894 -0.944778 0.083106 -0.120723 0.126331 0.188275 -0.498296 0.267073 -0.500314 0.576386 -0.066235 -0.182370 -0.900539 -0.171058 0.269227 -0.409995 0.515949 0.007001 0.168463 0.308929 -0.361965 -1.978980 -0.873107 0.436368 -0.316869 -0.019330
opportunities -0.466242 1.454117 0.275102 0.729438 -0.402008 -1.100653 0.363745 -0.557547 0.171102 0.839106 -0.112095 0.832762 -0.575922 0.303625 0.198189 -0.102950 0.792370 -0.173875 -0.254729 1.251896 -0.331649 0.793073 -0.585231 -0.239059 0.625394 -0.344233 0.868874 0.015011 -0.365973 -0.752961 0.598009 0.494100 -0.366909 -0.044607 -0.471063 -0.217349 -0.569298 0.065608 -0.474752 1.059050 1.077411 0.044688 -0.327153 0.947997 0.358706 -1.045167 -0.435730 0.359490 -0.387931 0.787147
disability 0.961213 0.328726 -0.620719 0.766279 0.769732 -0.324229 1.043584 -0.134588 -1.556857 -0.802675 -0.713579 -0.117050 -0.228200 0.307154 0.386471 0.600004 1.907898 0.155078 -0.988357 0.284226 0.560781 0.637063 -0.192966 -0.514509 -0.529588 -0.347232 1.009587 0.235726 -1.023309 0.765149 0.599640 -0.752417 -1.106468 -0.691932 0.601703 -0.834792 0.356520 1.473618 0.456943 -1.037029 0.273942 -0.263897 -1.390434 0.835252 0.842888 -0.974959 0.017228 0.118996 -0.494078 0.415953
results -0.298816 -0.705244 0.137944 -0.461919 0.383756 -1.035406 0.997140 -0.574976 -0.097018 -0.125969 -0.466684 1.714244 -0.343611 -0.725696 -0.947176 -0.847691 0.556797 -0.160290 0.466885 0.344797 0.296103 0.841309 -0.450219 -0.019607 0.362906 -0.391227 -0.463402 0.297259 -0.321888 -0.564536 -1.545793 0.820368 1.349426 0.298814 -0.343410 -0.582178 0.569013 0.187969 -0.323932 1.106124 0.764650 -0.212795 0.097054 -0.491433 0.288602 -0.565173 -1.234149 0.233250 -0.264018 1.034508
applications 0.143494 0.267427 -0.013033 -0.257711 0.569873 0.030291 1.409167 0.377323 0.107010 1.389551 0.373344 0.472550 -0.871636 0.610463 0.053763 -0.119081 0.815858 -0.122682 0.041734 1.113706 -0.730440 0.442291 -0.802382 -0.466036 -1.503547 0.090144 0.672388 1.042780 0.283217 0.587788 -0.235293 -0.110939 -0.422628 0.146484 -1.882603 -0.062451 -0.346730 -0.280417 0.499184 0.586564 0.599291 0.214338 -0.003507 -0.334147 -0.166388 -0.310424 -0.899107 -0.191178 0.071445 -0.684532
time 0.238437 1.071046 0.964800 0.878592 0.374767 -0.610320 0.459961 0.110072 0.558546 0.408024 0.688522 -0.106600 -0.423318 0.007527 -0.180980 0.761353 -0.137555 0.904483 -0.131613 0.257936 0.343539 -0.670728 0.355995 -0.084549 -0.492928 -1.513350 0.767376 1.205597 -1.431964 -0.129062 -0.456116 1.005041 0.452700 -0.527484 -0.198054 -1.330072 0.679356 -0.012847 -0.212608 1.017369 1.251266 0.061383 0.617830 0.143036 0.559215 -0.938691 0.270915 0.169869 -0.170493 -0.350340
r -0.419102 0.941740 1.047876 -0.453487 0.737754 -0.845687 1.229373 0.042059 -0.077950 0.841784 0.297378 0.928653 0.042250 0.637106 -0.453612 -0.366368 -0.154863 -0.390716 0.798109 0.872961 -0.268027 -1.032398 0.566425 0.015051 -0.520871 1.169918 -0.549253 -0.442681 -1.123985 0.078608 -0.579475 1.225531 -0.018097 0.093723 -0.371303 -1.359025 -0.930541 -0.847158 0.336148 -0.115064 1.117400 -1.312914 0.661859 -0.265175 -0.456414 1.158119 -0.402063 -0.928933 1.062889 -0.345337
sql 0.851465 0.388924 0.268847 -0.977522 1.349421 -0.721574 0.757610 -0.215940 -0.244302 0.584287 -0.350464 0.454573 -0.445512 -0.327315 -0.288671 -0.958325 -0.469906 0.160085 0.817975 0.117454 -0.580850 -0.879816 0.683093 -0.433757 -0.551491 1.756610 0.787970 -0.470652 -2.034491 1.197843 -0.877011 0.889190 0.297877 0.004968 -0.287306 -0.091651 -0.855441 -0.098311 -0.465165 -0.103588 0.911024 0.192025 0.766069 -0.244646 -0.484317 0.919448 -0.797911 0.095330 0.747465 -0.621936
understanding 0.238583 -0.023957 0.104056 -0.804029 0.121923 -0.860426 0.601845 -0.200492 0.707894 0.238071 -0.204004 0.344186 -0.228024 -0.001169 0.188074 -0.482064 -0.623033 0.082985 1.757180 0.193328 -0.654181 -0.283951 -0.678080 -0.465862 -0.851172 0.420979 0.388341 -0.050548 -0.693926 0.180973 0.026458 0.873129 0.729232 -0.170918 -0.506281 -0.322591 -0.823048 0.731494 -0.196992 0.524868 0.698993 -0.338458 0.085521 -0.002528 -1.124683 0.097182 -1.598258 -0.286736 0.019179 -0.016206
application 0.229950 0.666378 -1.016082 0.659104 1.140079 -0.912055 0.396059 0.779791 -0.519580 -0.749130 1.036510 0.140458 -0.223175 0.335087 -0.373685 1.001890 0.306094 0.582917 0.095440 0.230288 -0.279113 1.161025 -0.438841 -1.075902 -1.147090 1.124998 0.668063 -0.312299 -0.648487 -0.539757 -0.615533 0.072960 -0.662472 -0.030426 -1.012067 -0.907266 -1.130049 0.538716 0.456876 0.058344 1.515518 0.219805 0.226319 -0.941726 -0.313303 0.212640 -0.704022 0.366647 -0.921805 -0.028778
gender 1.120515 -0.072029 -0.961126 0.797061 0.331563 -0.384031 1.405300 -0.783259 -1.479098 -0.498601 -0.595803 0.835141 -0.053758 0.092414 0.623759 -0.225481 1.979113 -0.011850 -0.389325 0.304347 -0.391449 -0.175268 -0.028828 0.181853 0.457077 -0.397586 0.937540 0.127182 -0.747621 0.994439 1.836816 -0.349471 -0.625442 -0.660562 0.191678 -0.362310 1.206557 0.694162 0.172753 -0.773266 -0.974779 0.308071 -1.925197 1.434078 0.748731 -0.467465 -1.119286 -0.178053 -0.158246 -0.379786
employer 0.916031 0.046058 -0.532798 0.447460 0.657765 0.174293 0.401729 -0.023236 -0.216781 0.420765 -0.958766 1.613240 0.459356 0.147764 1.209099 0.165763 1.399843 0.272330 0.111571 0.400723 -0.332524 0.427845 0.063989 0.026064 -0.168061 0.176071 -0.612297 0.806365 0.358596 -0.153122 0.562329 1.018033 -0.651348 -0.258378 0.170361 -0.355630 1.142727 0.768870 1.342022 0.152534 0.738495 -0.180827 -1.999897 0.337048 -0.105242 -0.984481 0.085078 0.726483 -0.289652 -0.341148
industry -0.647847 0.622157 -0.094481 0.002877 -0.097057 -1.186186 -0.505815 -0.212054 0.675404 -0.095885 -0.404357 1.221867 0.439941 0.037455 0.171216 -0.424214 0.139949 -0.271070 0.608889 0.772862 -0.480082 0.623384 -0.891476 -0.266603 0.004278 0.504712 1.920795 -0.123805 0.595098 0.228640 -0.240957 1.126927 0.981772 -0.325337 -0.509841 -1.193073 -0.508265 0.290078 0.488010 0.076531 0.133511 0.378635 0.571180 -0.151810 -0.645407 -0.398571 0.281547 -0.988435 0.475137 -0.374856
employees 0.153952 0.822101 -0.390206 -0.441983 -0.077567 -1.118842 0.008090 0.172446 0.137046 -0.068431 0.864034 1.580751 0.144844 -0.356811 0.686044 -0.405522 1.562380 -0.762990 0.111857 -0.303360 -0.009176 -0.696763 0.264039 0.989644 0.058097 -0.847610 1.018598 0.438992 0.005264 -0.095518 0.199006 -0.759222 -0.478514 0.234220 0.714919 -0.256418 -0.489637 -0.012613 1.116097 0.582753 1.732785 -0.107781 -1.119343 0.517366 1.145327 -1.024289 -0.375207 0.661586 0.067562 0.103892
organization -0.149761 -0.038907 0.359992 0.240244 0.194358 -1.454329 0.224237 0.355184 -0.035607 0.505549 0.556725 1.090482 0.922111 0.027096 -0.526157 -0.171682 0.102095 -0.247950 0.507998 0.108619 -0.019478 0.449296 0.908969 -0.273376 -1.136487 -0.162131 -0.650207 0.369639 0.005510 0.066159 0.091807 0.584346 0.478433 -0.211511 -0.192278 -0.790703 -0.939417 -0.106237 0.350654 0.627423 1.048607 -0.297769 0.286093 0.447321 -0.743658 -1.466245 -0.470048 -0.305342 -0.072617 0.922241
etc 0.413852 0.670608 0.403248 -0.317919 0.722911 -0.592048 0.941915 0.020970 0.915066 0.489300 -0.239683 -0.786809 0.055637 0.054335 -0.353073 -0.548480 -0.056660 0.403826 0.553373 0.938820 -0.417350 -1.580406 0.096139 -0.762676 -0.215025 0.224738 0.343981 -0.806518 -1.685186 -0.198663 -0.465560 0.208613 -0.795034 -1.036634 -0.146999 -0.719565 -0.201231 -0.279849 -0.074290 -1.001044 -0.585802 -1.092179 1.435589 0.277915 1.103241 0.808609 -0.730950 -0.816681 0.450580 -1.035109
process -0.052558 0.931086 -0.870063 0.680601 0.792051 -0.554216 -0.590624 -0.307295 -0.169044 -0.178248 0.626546 0.716252 -0.785431 0.594538 -0.277658 -0.053225 1.172024 0.380219 0.596232 0.787672 0.675840 0.933804 -0.691373 -1.383998 -0.403011 0.565971 0.602445 -0.758205 -0.992395 -0.521858 -0.851528 -0.420572 -0.377304 0.037094 -1.369943 -0.269730 -0.986104 0.560829 -0.170096 0.305370 0.900069 -0.009302 0.247523 -0.369779 0.053981 -0.336543 -0.430000 0.484611 -0.993450 0.588142
education 0.030158 -0.031349 0.648103 0.256120 -0.460793 -0.470122 0.191261 0.474716 1.018498 -0.554657 -0.149784 0.880443 1.007671 -0.456003 -0.267576 0.459124 0.459303 -1.128141 -0.727246 -1.279864 0.132011 -0.104105 0.490442 0.044257 -0.289424 -0.387513 1.759684 -0.527738 -1.361848 0.032528 -0.290573 1.076268 -0.746794 -1.193241 -0.547390 -0.769335 -1.838732 0.107264 -0.335109 0.474711 1.401117 0.087530 -0.530751 -0.063348 -1.085878 -0.800423 0.264827 -0.951980 -0.445022 0.256501
intelligence -1.011848 1.203054 0.619268 0.018613 0.424169 -0.657698 1.072285 -0.299712 0.318980 1.552019 -0.264285 0.015941 -0.420763 -0.300920 -1.169463 -0.262634 -0.283755 0.699073 1.309246 0.110073 -0.226992 -0.066895 -0.057409 -0.435465 -0.755161 0.378276 0.832176 0.274062 0.865783 0.138399 -0.567562 -0.425195 -0.492939 -0.429603 -0.217682 -0.850388 -0.473926 0.103164 0.678421 0.418433 1.423170 0.186858 0.072186 0.374642 -0.628591 0.127705 -0.322983 -0.746111 -0.759010 -0.573820
performance 0.155049 0.932185 -0.088201 -0.077452 -0.100882 -1.311497 -0.177431 -0.612574 0.349946 0.299750 0.615382 0.788931 -0.197726 -0.583899 -1.382531 -0.729829 0.689797 -0.340779 0.454894 0.692891 0.087791 -0.341315 -0.398349 -0.293763 -0.005410 -0.360201 0.248740 0.152227 -1.274860 -0.255897 -0.956636 0.163022 0.038727 0.143280 -0.295274 0.185974 -0.744064 1.048451 -0.737307 0.695975 0.450376 0.504444 0.740141 -0.525633 -0.939388 -0.256321 -0.330415 0.098824 -0.214809 0.997465
applicants 0.972689 0.190516 -1.037329 0.460989 0.610595 -0.573615 -0.034878 -0.280153 -0.253891 0.096755 0.611338 1.259799 -0.034037 0.381971 1.180397 0.030092 1.025050 -0.623928 -0.220187 -0.440712 0.420943 0.025994 -0.885402 0.480219 -0.112139 0.022373 0.959444 0.160689 -0.910869 -0.303693 0.594952 -0.374127 -1.069681 -0.273313 -0.350680 -0.748117 0.296976 0.520232 0.481020 1.195185 0.849880 0.230899 -1.901978 -0.016417 0.643614 0.098144 -0.707269 0.313098 -0.213561 -0.562091
operations -0.570949 0.198559 0.388942 -1.147381 0.339211 -1.849547 0.146392 0.312126 0.637772 1.582545 -0.156358 0.345153 0.069441 0.221392 -0.821408 -0.265888 0.342202 -0.170785 0.188968 0.494896 0.251481 -0.369656 -0.653496 -1.190674 -0.600494 -0.859538 0.433335 0.352707 0.163756 -0.600169 0.038914 0.068985 0.069048 -0.745478 -1.078178 -0.896906 -1.284322 0.650108 -0.001844 -0.759511 0.043927 -0.163544 0.506118 0.417858 -0.550932 -0.534899 -0.663441 -0.164213 -0.422939 -0.371469
project -0.457456 -0.225882 -0.349125 -1.174017 0.608732 -0.161221 1.292277 -0.496134 0.530974 0.034876 0.165335 -0.539917 -0.153003 0.976595 -0.144346 -0.430354 0.588356 0.131029 -0.490079 0.225995 0.186960 1.285867 -0.609779 -0.636543 -0.390667 -0.661308 0.165622 -0.062703 -0.559927 0.089259 -1.319228 0.845313 0.852177 0.958412 -0.502131 -0.857628 0.011067 0.440211 -0.663564 0.104016 1.009895 -0.097614 -0.190238 -0.709029 -0.183178 -1.083198 -0.753061 -0.612586 0.700697 0.302827
engineer -1.010328 0.643450 -1.048060 -1.229015 1.051568 -0.342970 -0.036256 -0.187512 0.288704 0.998336 0.619847 0.055192 0.312333 -1.056476 -0.698238 -0.167479 -0.746916 0.872178 -0.001975 0.245331 0.299153 0.618891 -0.570509 -1.212847 -1.468289 0.640363 0.387226 0.282578 -0.137449 1.215397 -0.505825 -0.063906 -0.111570 -0.360509 -0.698769 -0.199371 -0.044185 -0.120249 0.046055 1.052940 0.513068 -0.579132 -0.668429 0.060590 -0.650215 -0.266358 -0.388626 -0.096324 0.549787 -0.108153
methods -0.888535 0.044223 0.127689 0.046367 0.120578 -0.622033 0.325016 0.261715 -0.138070 -0.072113 -0.648582 0.125633 -1.172575 0.254620 -0.603187 0.116633 -0.212007 0.304016 1.313967 1.353819 -0.458393 -0.288766 -0.513913 -0.381175 -0.434238 0.029855 0.327593 -0.363053 -0.276732 -0.163970 -1.192226 0.870959 -0.142078 -0.712661 -0.300000 -0.789595 -0.103695 -0.419812 -0.969776 -0.240998 0.989664 -0.086876 -0.346458 0.760767 -0.300471 0.127122 -1.881606 0.529399 0.074782 0.639074
modeling -0.254365 0.054311 0.580022 0.150815 0.307189 -0.598982 0.260678 0.278525 0.865956 0.572823 -0.395708 0.101098 -1.461768 -0.289412 -0.665698 -0.327283 -0.458763 0.566287 0.782125 0.930824 0.033137 -0.759490 -1.002554 -0.375091 -0.063613 1.169972 0.043553 -0.175939 -0.591657 -0.109648 -0.615565 0.809872 0.859021 -0.192874 -0.793678 -1.279022 -0.479765 0.004676 -0.763025 -0.233082 1.013176 -0.120888 1.116155 0.244344 -0.488393 0.070606 -0.952082 -0.146884 0.023847 0.125451
race 0.785652 0.161009 -0.923845 0.695138 0.083990 -0.381918 1.487408 -0.689134 -1.350998 0.629953 -0.550137 1.366162 0.272782 1.138928 0.803703 -0.264979 1.571723 -0.760160 -0.154182 0.840925 -0.317575 0.528010 -0.303800 0.688140 0.291350 -0.337382 0.376240 0.899926 -0.192313 0.372508 1.564555 -0.075664 -0.735409 0.215569 0.339684 -0.629646 0.415593 1.114290 -0.101561 0.501909 -0.111427 0.262377 -2.149658 0.834998 0.935817 0.594412 -1.305857 0.778292 -0.601291 -0.679836
orientation 0.836516 -0.460443 -0.866342 0.465302 0.258321 -0.506351 1.563902 -0.547639 -1.400567 -0.414616 -0.754938 0.297449 -0.767084 0.153514 0.434624 -0.509905 1.372190 0.214036 -0.293915 0.781021 -0.025336 -0.276277 -0.409914 0.047176 0.541683 -0.754446 0.777336 -0.263262 -1.092077 0.919992 1.561870 0.212769 -0.779150 -0.738390 0.375524 -0.478519 1.422865 0.792579 0.357466 -0.908714 -0.782632 0.385392 -2.114467 0.782460 0.648568 -0.507155 -1.689486 0.299256 -0.596878 -0.134409
part -0.602510 1.028385 -0.708686 -0.400841 0.858534 -1.424667 -0.174624 -0.403975 -0.238412 -0.193247 0.586844 0.643029 0.327828 0.033307 1.057357 0.713378 0.349673 0.211219 0.378843 0.260768 -0.314660 0.752833 -0.594367 -1.045028 -0.650863 0.188950 -0.296550 0.266243 -0.485541 -0.293630 -0.446108 -0.321646 -0.448604 -0.068914 -0.405193 -0.303500 -0.006824 -0.385513 0.556375 0.499107 1.564749 -0.636604 -0.689787 0.135258 0.207174 -1.020348 0.380246 -0.290620 0.230866 0.025597
mathematics -0.330128 -0.548222 0.834583 -0.321892 1.093079 -1.495349 0.438381 1.166807 -0.038260 0.599030 -0.425719 0.675244 -0.300916 -0.356224 -0.816037 -0.001494 -0.534911 -0.242176 -0.530669 -0.054257 0.357729 -0.947736 -0.300042 -0.905635 -0.183427 0.250851 1.297184 0.382021 -0.052660 -0.187966 -0.349643 0.698090 -0.088062 -2.579121 -0.281412 -1.490664 -0.677116 0.823071 -0.568859 -0.018528 0.868968 -0.553027 -0.593670 -0.510650 -0.965257 0.456213 -0.400174 -1.152664 0.216085 -0.458442
scientists -1.304654 0.741365 -0.594346 -0.618704 0.237457 -0.764399 0.287208 0.179256 0.096093 -0.088689 0.122250 0.240168 1.154065 0.572088 -0.699323 0.582525 -0.753534 0.017759 -0.059359 -0.346487 -0.504469 0.575564 -1.054473 -1.247294 -0.163701 -0.042147 -0.432147 0.003733 0.768783 -0.444527 -0.366065 0.631418 -0.066993 -0.382258 0.137477 0.475619 -0.683119 -0.011945 0.267636 0.716773 1.412537 -0.210140 -0.080192 0.096389 -0.428242 -0.074370 -2.223352 -0.198800 -0.014677 0.214333
sources 0.439336 0.392021 0.402756 -0.903098 0.619205 -0.324992 0.344235 0.060748 -0.772696 0.935938 -0.437354 1.107771 -0.205994 -0.050182 -0.630462 -0.862517 -0.138234 0.068729 0.189439 0.281314 -0.827223 -0.457160 -0.138704 -1.276425 -0.046797 0.063208 -0.065130 -0.801702 -0.900224 0.252469 -1.220789 0.292222 0.556186 0.195763 -1.031442 0.190751 0.252283 -0.274545 -0.714090 -0.043917 0.352199 1.122963 0.026423 0.719623 -0.879533 -0.612885 -1.661293 0.612150 -0.142953 1.171043
candidate -0.516272 0.066491 0.316380 -0.341393 0.993988 -0.930870 0.299772 0.494348 0.188189 0.704505 -0.117470 0.446207 0.571553 -0.457172 -1.019839 -0.395433 -0.408667 0.621348 0.730912 -0.584984 0.042805 0.904293 -0.410811 0.169219 -0.307045 0.249801 -0.261424 -0.669296 -0.385731 -0.158015 -0.148485 0.791338 -0.698332 -0.266342 0.012280 -0.776514 -0.275933 -0.220652 -0.167220 1.051457 -0.139351 -0.325530 -1.033905 -0.151395 -0.412061 -0.549157 -0.859750 -0.259024 0.394130 -0.109628
needs -0.051006 0.602869 -0.254105 -0.394451 0.369980 -1.063344 1.017976 -0.389618 0.261637 0.239515 0.612744 0.722533 -0.027440 0.516335 -0.866303 0.169314 -0.042981 0.563128 0.106519 -0.844141 -0.065714 0.558975 -0.470356 -1.096913 -0.051697 -0.593639 0.501136 0.175511 -0.056413 -0.152912 -1.069622 -0.621043 1.211585 0.794041 0.263892 -0.655439 -0.173805 0.257999 -0.216987 0.389987 0.879721 0.646355 -0.061597 0.327006 -0.489916 -0.899457 -0.895303 0.594540 -0.707288 -0.205485
origin 1.164088 -0.081294 -0.959489 0.864202 0.718777 -0.501293 1.557310 -0.411100 -1.422954 -0.562438 -1.137650 0.457223 -0.081882 0.691704 0.862343 -0.334348 1.619587 -0.363624 -0.730828 0.231538 -0.031597 0.175874 -0.325857 0.079623 0.161115 -0.688645 0.535484 0.750697 -0.812162 0.484899 1.087075 -0.617273 -0.979382 -0.466605 0.435107 -1.157411 0.659087 1.210296 0.117836 -0.593236 -0.544272 0.471010 -1.944805 0.948138 0.670427 0.004975 -1.020150 -0.038708 0.149341 0.370086
processes 0.103764 0.666836 0.753872 0.005573 0.091169 -1.088204 -0.632391 0.407484 -0.063642 0.505450 0.256934 0.719832 -1.005795 0.807879 -1.179785 -0.776515 0.896134 0.938186 0.429426 0.830874 0.155715 -0.113211 0.102438 -0.967334 -0.532633 -0.136841 0.501491 -0.094615 0.084687 0.540552 -1.116846 0.335565 0.591077 0.003782 -0.545937 0.288511 -0.224017 0.454134 -0.771938 0.072574 0.314044 0.009949 0.568450 0.064179 -0.298551 -0.992427 -0.977642 0.269596 -0.919064 0.457007
color 1.145050 -0.064062 -1.034254 1.066552 0.093605 -0.655983 1.471961 -0.918972 -1.144103 -0.157178 -0.873226 1.278362 0.017634 1.241223 1.433661 -0.285847 1.335658 -0.396333 -0.317683 0.576145 -0.254303 0.359230 -0.359092 0.336388 -0.242566 0.083615 0.753605 0.879334 -0.301379 0.225144 1.791866 -0.746420 -0.244155 -0.062961 0.134731 -1.486864 0.461475 0.947103 -0.246956 0.276961 -0.111428 0.121155 -1.669576 1.005915 0.878447 0.170292 -0.787390 0.554259 0.168653 -0.313894
value -0.115153 1.099421 -0.174226 -0.087646 0.578042 -0.490302 0.497824 0.033110 -0.220519 0.929740 -0.117375 1.419909 0.534740 -0.570193 0.497228 -1.182314 1.327172 -0.186382 1.029527 0.687566 -0.619169 -0.333102 0.774293 -0.617244 0.597861 -0.075439 -0.633403 0.647802 -0.059739 -1.098834 0.010102 0.498740 0.968813 0.075277 0.045401 0.077938 0.240223 -0.093837 0.682848 0.138328 1.432801 0.170684 0.015488 0.337039 -0.470107 -0.407827 -0.823407 0.391658 0.115759 0.670584
visualization 0.372884 1.007362 0.209734 -0.509452 0.954445 -0.282096 1.394867 0.016030 0.551761 0.420306 -0.265821 0.621591 -0.683068 -0.559290 -1.323728 -0.393769 -0.403643 0.372859 1.199839 0.329500 -0.081746 -0.403040 0.013256 0.653259 -0.062831 1.099335 0.818336 -0.296005 -0.041729 0.059783 -1.401161 0.036140 -0.857308 0.106816 -1.108785 -0.720006 -0.258558 -0.452907 -0.470485 0.343580 1.277631 -0.476001 0.397907 0.298318 -0.311314 0.280731 -1.794535 -0.832742 0.254946 0.811749
system -0.124684 0.394427 -0.331131 -0.579798 0.034242 -0.403901 0.097282 -0.972856 0.779152 -0.354829 1.099405 0.461630 -0.992871 0.521840 -0.633690 0.364682 0.920836 0.247156 -0.169256 -0.200720 -0.403039 -0.854569 -0.320928 -1.048458 -0.845732 1.096689 0.432009 0.192747 0.156760 -0.202090 -0.748575 0.291281 -0.812767 -0.127419 -0.911427 0.414513 -1.202352 0.985454 0.442400 0.676498 0.070099 0.811904 0.924084 0.126841 -1.030482 -1.308721 -0.317573 0.091598 0.073298 -0.627781
religion 0.896426 -0.000503 -0.895579 0.773186 0.239221 -0.591600 1.554931 -0.747210 -1.187319 0.157140 -0.874432 0.961929 0.157798 0.890391 0.922742 -0.421273 1.496557 -0.491278 -0.492889 0.565141 -0.145042 0.428081 -0.097551 0.467837 0.408136 -0.438858 0.621021 0.559379 -0.375209 0.514020 1.603357 -0.533207 -0.722006 -0.200405 0.442952 -0.841837 0.646927 1.133543 -0.020326 -0.301135 -0.419745 0.422181 -2.336364 0.836193 0.882238 0.175847 -1.464569 0.220126 -0.374858 -0.217647
platform 0.329816 1.524217 -1.237599 -0.239041 0.088138 -0.197254 0.305643 0.021754 0.543041 0.746924 0.848908 0.611032 0.374734 -0.605175 0.095923 -0.586759 -0.377472 -0.184124 0.550425 -0.248112 -0.609727 -0.160749 -0.370101 -0.308763 -0.481141 0.263313 0.939452 -0.098822 0.568701 0.543019 -1.014794 0.055701 0.044393 0.239454 -1.509577 -0.394561 -0.475730 -0.112290 0.418890 -0.242509 -0.091020 -0.742734 -0.120282 0.074737 -0.722794 -0.470577 -0.454289 -0.454972 -0.133462 0.274802
identity 1.046880 -0.029604 -0.895734 0.269488 0.460664 -0.461655 1.271812 -0.520886 -0.957887 -0.493569 -0.377353 0.452752 -0.023207 0.070799 0.273345 -0.183561 1.515736 0.513725 -0.194299 0.484810 -0.298694 -0.379193 -0.790550 0.012329 -0.147877 -0.418950 0.697309 0.304176 -0.585679 0.855114 1.103584 -0.266988 -1.083389 -0.799564 -0.274472 -0.458526 1.241646 0.693360 0.032196 -0.700084 -0.901702 0.089181 -1.437272 1.036248 0.529475 -0.591127 -1.274189 -0.344543 0.258883 0.112814
benefits 0.036003 1.120239 0.510855 0.090974 0.311511 -0.161054 -0.281223 0.810105 -0.377324 0.051144 0.127041 -0.212509 0.288217 -0.721159 1.147119 -0.101150 0.464843 -0.116006 -0.673644 -0.480170 -0.497686 -0.147431 0.473291 -0.193102 -0.017288 0.058403 1.189686 0.333545 -0.697076 -0.728044 -0.337468 0.799647 0.296035 -0.490664 1.508036 -0.987726 0.150398 0.138213 1.485717 0.295933 2.335145 -0.310164 0.022108 0.040865 1.180809 -1.450192 0.432245 0.547111 -0.253218 0.530295
clients -0.715089 0.970484 0.058625 -0.486466 0.466904 -0.512635 1.130722 -0.684686 0.576816 0.723982 -0.273827 0.978889 0.369403 -0.018957 -0.204167 -0.824770 0.161431 0.600507 0.417721 0.221758 -0.440330 1.138171 0.137156 -0.622069 0.065037 -0.798907 0.282742 0.209809 0.791514 -0.446729 0.424234 0.080944 1.286102 0.852498 -0.094531 -0.480552 -0.063276 -0.704680 0.345941 -0.012257 0.687908 1.246142 0.203619 -0.073268 0.071850 -0.882675 -0.303091 0.183867 0.374225 0.308290
expertise -0.476322 0.376288 0.129299 -0.358087 0.217099 -1.163784 0.786355 0.156105 0.854063 0.198220 -0.093901 0.625479 -0.345658 0.163815 -0.023519 -0.554740 0.280126 0.019988 0.628593 0.735199 -0.837604 0.568177 -0.330017 0.071808 -0.598553 1.274048 -0.167044 0.009090 -0.332097 0.383272 0.525326 0.747142 -0.478723 -0.285081 0.047793 0.172366 -1.500143 0.088159 -0.503202 -0.005440 1.462048 0.467572 -0.246827 -0.453485 -0.370458 0.155469 -0.741208 -0.058266 0.939512 0.298889
sets -0.062404 0.912844 0.656514 -0.230321 0.594557 -0.479046 0.893779 -0.634417 -0.651207 0.751340 -0.033580 1.180747 -0.335060 -0.372715 -0.863920 -0.537801 -0.252592 0.196861 -0.115288 0.707478 -0.431436 -0.480508 -0.441338 -1.188687 0.076159 0.463069 -0.226120 -0.266399 -0.955749 -0.025045 -0.442161 0.747941 0.457903 -0.202325 -0.943961 -0.200204 -0.127647 -0.193903 -0.673280 0.744218 0.402101 0.620863 0.263547 -0.044006 -0.900283 0.459755 -1.179096 0.052672 -0.146095 0.949707
age 0.973252 -0.345964 -0.945753 0.721727 0.658345 -0.775695 1.116975 -0.396015 -1.379950 -0.082624 -0.645589 0.608089 -0.270391 0.815604 0.395992 -0.364909 0.854543 -0.365849 -1.440385 0.559432 0.315397 -0.041233 0.157664 -0.168160 0.403026 -0.079761 0.912666 0.545740 -0.750339 1.232851 1.499945 -0.040052 -0.851646 -1.069899 0.297962 -1.387383 0.438945 1.132660 -0.128475 -0.460778 -0.532058 0.070926 -1.836158 0.911306 0.747651 0.059098 -0.501024 0.109441 0.204674 -0.059161
stakeholders -0.239967 -0.047490 0.403640 -0.505364 0.721985 -1.070846 0.923346 -0.220962 0.026666 0.225213 0.005824 1.035788 0.426992 0.373616 -0.697067 -0.483273 0.155004 0.254067 -0.012906 -0.212166 -0.202542 0.561499 -0.479309 -0.757517 0.628812 -0.039961 -0.305904 0.984216 0.500473 0.141315 -1.085138 0.250187 0.973583 0.881156 0.050681 -0.386849 -0.110766 0.644230 -0.841806 0.040766 1.303233 0.547519 0.186225 -0.279397 -0.312710 -0.597414 -1.434733 -0.945439 -0.609506 0.618501
service 0.524115 1.014443 -0.443480 0.117322 0.106232 -0.817048 0.204481 0.036661 0.482622 0.117979 0.337827 0.260945 0.270130 -0.515220 0.056392 0.762743 0.503059 -0.179692 0.265786 0.294615 -0.131509 0.115178 -0.066078 -0.787572 -0.086407 -1.267245 1.028349 0.159597 -0.980129 0.519171 0.591946 0.528865 0.297011 0.179970 -0.361625 -0.298982 -0.434290 0.062704 1.237492 -0.108976 0.005892 -0.150359 0.319549 -0.399757 -0.505005 -2.021755 -0.215851 -0.230477 0.153466 0.483566
security -0.331918 0.649792 0.383335 -0.052198 1.239297 -0.584573 -0.072312 -0.129678 0.074021 0.862570 1.177468 0.676587 -0.799852 0.167975 0.418003 -0.732393 0.735518 0.913637 1.030078 -0.159190 1.039862 -0.241423 -0.805286 -0.022120 -0.938290 -0.348172 1.038052 -1.252909 -0.292439 -1.257312 0.090263 0.009489 -0.567264 -0.927699 0.633845 -0.896563 0.568747 0.253964 0.627887 0.803234 -0.437153 1.343461 -0.071798 -1.166226 -1.091498 -0.556629 -0.549830 -0.556703 0.441990 -0.452553
partners 0.210085 0.185916 0.057332 -0.399086 -0.338661 -1.058629 0.732561 -0.221729 0.530956 0.282092 -0.096914 1.401771 1.283456 0.223498 -0.221579 -0.313773 0.288229 -0.260779 0.618702 -0.907455 -0.386321 0.115500 -0.748726 -0.256986 0.382563 -0.410993 0.010467 0.421963 1.552408 -0.030850 -0.363718 0.332496 0.235693 0.346258 -0.476228 -0.183346 -0.094041 0.256620 -0.088260 0.223563 1.136955 0.976660 0.727272 -0.025360 0.104183 -1.292791 -1.056541 -0.459492 -0.589657 0.325537
veteran 1.328473 -0.011927 -1.093596 0.623680 0.530879 -0.556351 1.450806 -0.546556 -1.352099 -0.250394 -1.024221 -0.346243 -0.372112 0.394330 -0.093796 -0.008707 1.198415 -0.161912 -0.691592 0.755361 -0.014926 0.063537 -0.373948 -0.107609 0.073047 -0.659027 0.697708 -0.185908 -1.174197 1.396236 0.627121 -0.516124 -0.833110 -0.826308 0.507084 -0.984555 0.787189 0.777025 0.037268 -0.944757 -0.620688 -0.001898 -1.815150 0.342618 0.526002 -0.537117 -0.370134 0.584957 -0.216079 0.001647
building 0.089626 0.850921 -0.032904 -0.376803 0.837431 -0.246010 -0.281751 0.900595 0.293260 0.154134 0.479212 0.429425 -0.453942 -1.085461 -1.106280 -0.692607 -0.001214 -0.850172 -0.051688 0.891611 -1.205575 0.329847 -0.222568 -0.200172 -0.339844 -0.199605 -0.046952 0.280433 -0.425919 0.243203 -1.315167 0.112463 0.589523 -0.083933 -1.161737 0.210853 -0.336253 -0.443440 -0.026565 1.383713 0.510246 -0.257150 0.412271 -0.996786 0.057742 -0.009778 -0.691352 0.615877 0.257383 0.358183
engineers -1.448674 1.844715 -0.884106 -0.541258 -0.090665 -0.380418 0.630637 -0.056646 0.070386 0.289120 0.655627 0.131610 0.943613 0.716254 -0.692466 0.321048 -0.426632 -0.180734 0.003262 -0.034234 -0.758636 0.257705 -0.823848 -1.552171 -0.340341 -0.229827 0.121634 0.510018 0.367952 0.111500 -0.221488 0.735300 -0.052961 -0.198005 -0.558437 1.101092 -0.630191 0.053142 0.475413 0.631750 0.717674 -0.208764 -0.023189 -0.354551 -0.626657 0.165990 -2.076260 -0.421744 0.179894 -0.051274
practices -0.831003 0.276184 -0.313766 -0.323426 -0.745217 -0.819051 -0.381986 0.135987 -0.123309 -0.016805 0.568032 1.124007 -0.023727 1.090655 -0.744791 -0.711724 0.501503 0.215674 0.377580 0.881582 0.240323 0.441705 -0.617436 0.373418 -0.583229 0.565407 1.343852 -0.315383 -0.185186 0.712263 -0.149516 0.931120 1.238469 0.058710 -0.387760 0.204679 -0.104761 1.220460 -0.237967 0.118977 0.120880 -0.399007 -0.135532 0.146782 -0.874208 -0.405905 -1.411525 -0.044563 -0.223727 -0.132132
decisions 0.145492 0.549600 0.061602 0.384604 0.050856 -0.828376 0.998957 -0.415399 0.070390 0.807263 -0.078600 0.937661 0.477805 0.155068 -0.753912 -1.011069 0.626544 -0.075879 0.386472 0.707396 -0.254157 0.091510 -0.734588 -0.284321 -0.265526 -0.394766 -0.429674 0.910990 0.023672 -0.321549 1.208344 0.631398 -0.127924 0.163149 -0.374343 -0.880145 0.021996 1.484303 -0.427524 0.528403 -0.187515 0.410892 -0.186040 0.160349 -0.168167 -0.272213 -0.976571 0.119796 -0.670532 0.742594
program -0.213601 0.800692 0.234251 -0.598676 0.585632 0.334507 -0.516592 0.563987 -0.052590 0.113028 0.108854 -0.045166 0.039680 0.111586 0.679742 -0.191298 0.198549 -0.044413 -1.550846 0.262547 0.174455 -0.294422 -0.514251 -0.799291 0.542098 -0.774358 -0.174654 -0.404809 -0.620670 -0.528588 -1.028821 1.182193 0.016245 -0.051779 -0.127534 -1.422041 -0.539522 0.446503 0.665850 -0.102059 1.406080 0.259635 0.132654 0.395718 -0.099449 -1.920364 0.350593 0.085748 -0.121354 0.289793
algorithms -1.014761 0.505309 0.061573 -0.012880 0.130576 0.077836 0.613291 0.779760 -0.486578 -0.140393 0.125884 0.689216 -0.970386 -0.997869 -0.344052 -0.238137 -0.965992 0.646651 0.481987 0.757401 -0.697890 -0.977191 -0.731093 -0.813781 -0.546617 0.117324 -0.312048 0.448466 -0.303401 -0.492974 -0.579969 0.828861 0.837451 -0.621040 -0.246279 -0.210910 -0.078198 0.101210 -0.164952 0.258066 0.438698 -0.648550 -0.062571 -0.358248 -0.252737 0.495017 -1.536672 0.499255 -0.041064 -0.065818
description -0.827058 0.364755 -0.472028 -0.373196 0.422758 -0.265227 -0.053930 -0.020014 -0.153784 1.028563 0.982637 -0.120905 0.513014 -0.190103 -0.527442 1.502904 -0.097383 1.050088 0.318087 0.721064 1.019921 0.004579 -0.727091 -0.749100 -0.673685 0.267972 0.262915 0.801744 -0.202051 1.080665 0.267490 -0.031135 0.367532 -0.749471 -0.479909 -0.461922 -0.248395 -0.494669 0.341671 0.760999 0.986429 0.382958 -0.765467 0.358298 -0.015840 -1.141226 0.341846 0.714482 0.694163 -0.266972
impact -0.081613 0.452889 -0.518427 -0.105181 -0.441605 -0.999918 -0.050618 -0.034824 0.859925 0.292692 0.311237 0.989016 0.459008 -0.488209 -0.197062 -0.804482 0.580155 0.042349 0.393449 0.321787 -0.152777 0.129166 -0.568501 -0.560630 -0.975423 -0.967280 -0.439405 0.415555 0.494401 -0.549034 0.346332 0.545619 -0.159132 0.312766 -0.137611 -0.752740 -0.377258 0.090838 -0.237828 1.050529 0.901453 -0.175384 0.251449 -0.054036 -0.690833 0.114535 -0.150836 0.322705 -0.026405 0.966999
areas -1.283693 -0.129344 0.549151 0.002893 0.155358 -1.061768 0.605474 0.425561 0.639351 0.557168 -0.065312 0.333389 -1.241708 -0.432764 0.224653 -0.460072 0.019852 -0.173793 0.757816 0.716335 -0.095030 0.392529 -0.520925 -0.116042 -0.130676 0.733618 0.188108 -0.019534 0.026881 -0.290279 0.625140 0.283299 -0.525497 -0.482022 -0.179936 -0.194279 -1.441945 0.815799 0.027145 0.003645 1.407493 0.860094 -0.542824 0.226327 -0.300945 -0.517769 -1.058979 -0.008282 0.024875 0.564435
mission -0.547092 1.217494 -0.576942 0.419299 -0.084956 -0.005922 0.817472 -0.177718 0.694376 0.611377 0.256403 0.077199 0.626631 0.377503 0.103127 -0.058230 0.538440 0.494871 1.218008 -0.244481 -0.193353 0.203557 0.247818 -0.554775 -0.972767 -0.761801 0.594801 0.578730 0.517596 -0.019953 0.131440 -0.467606 0.515845 -0.148728 0.240291 -0.455549 -1.469429 -0.367936 0.251261 0.238779 -0.140189 0.293337 -0.886260 0.587549 -1.126163 -0.799140 0.187383 0.027509 0.959276 0.174810
model -0.308701 0.494610 -0.556693 -0.386528 -0.570510 0.260753 -0.191857 0.735298 0.440699 -0.061138 0.885125 0.216694 0.539619 -0.539715 -1.118575 -1.175613 0.542954 0.046009 -0.160297 0.150346 -0.761949 -0.359736 -0.307479 -0.016853 -0.546014 -0.714880 0.118241 -0.910414 -0.376324 -0.806494 -1.430325 0.939562 0.690317 0.104709 -1.349203 -0.516909 -0.052238 0.571442 -0.953087 0.433033 0.423835 0.086503 0.955029 -0.027074 -0.885116 -0.470304 -0.842937 0.213005 -0.418036 0.314953
success -0.774666 0.363306 -0.904950 -0.370303 0.378768 -0.515964 0.054132 0.066970 1.528820 0.821524 0.366016 0.703283 1.023390 -0.961565 -0.851894 -0.674033 0.629907 -0.500413 0.575861 0.528132 0.023834 0.436208 0.195068 0.899921 0.542812 -0.676118 0.226266 0.221806 -0.069240 -0.738168 -0.194675 -0.411001 0.898040 0.414412 -0.171152 -0.683746 -1.123600 0.100673 0.090298 0.723075 0.336398 -0.650130 -0.896923 -0.395508 -0.159402 -1.095397 0.159450 0.258770 0.657917 0.761183
database 0.783187 -0.398118 -0.307138 -1.429128 0.780549 -0.485850 0.527174 0.248106 0.257774 -0.107033 0.284992 0.418803 -0.867675 0.211216 -0.652091 -0.241560 -0.255262 0.411213 -0.222714 0.962540 0.458876 -0.550423 -0.485551 -0.419904 -1.182959 1.156538 0.758905 -1.127373 -0.929438 1.226808 0.199844 0.274708 0.544382 0.164072 -0.507103 -0.050935 -0.765867 -0.045241 0.446170 -0.449614 0.949767 0.516138 0.544540 -0.023218 -0.897045 0.280360 -1.049865 0.051316 0.201100 0.303751
members -0.150325 -0.142283 0.065520 -1.154666 -0.074968 -1.287337 -0.271540 -0.143694 1.190038 0.094293 0.427083 1.106589 0.834511 0.617257 0.271304 -1.169870 0.998266 -0.090262 0.030291 -0.583965 -0.011773 -0.429376 -0.802005 0.197367 -1.135483 -0.145604 -0.573900 0.173659 0.534729 0.386093 0.104969 -0.156271 0.264940 0.075117 0.705597 -0.485586 -0.218891 -0.467966 0.738153 0.316714 1.513522 -0.380805 0.137940 -0.505948 0.196621 -0.896606 -1.089327 -0.153355 0.517981 -0.070356
pipelines 0.078765 0.884794 0.044762 -0.626608 0.406959 0.064975 0.445215 0.104912 -0.326210 0.271359 0.845972 0.611773 -0.807214 -0.499560 -1.370585 -0.604468 -0.114749 -0.470627 -0.035467 0.062220 -0.650252 -0.466772 -0.231328 -1.330127 -0.916698 -0.015622 0.283585 0.312177 -0.793401 1.227955 -1.340737 0.210714 0.238851 -0.049459 -1.413745 1.378530 -0.009481 -0.740622 0.025033 0.494749 0.285584 -0.186961 -0.193583 -0.565910 -0.391010 0.137134 -0.991185 -0.033744 0.243083 0.034823
leadership -0.254954 -0.306063 0.093742 -0.809242 0.099502 -0.882349 0.651800 0.060190 0.970955 0.511282 -0.020532 0.645658 1.055313 0.354633 -0.093799 -0.170993 0.283283 -0.043770 0.257618 0.812549 0.021219 0.153458 -0.607056 -0.135439 0.166951 -0.285070 -0.389483 0.504009 -0.051641 0.573347 -0.067722 0.924846 0.400702 0.705102 -0.436487 -0.268046 -0.212996 0.625098 -0.434280 0.259003 1.309176 -0.099731 -0.136318 -0.494634 -0.406818 -1.176910 -0.555616 -0.560065 -0.023935 0.962785
marketing 0.398741 0.555307 0.245935 -0.632900 0.598831 -1.783479 -0.179082 -0.050426 0.897315 1.549498 -0.352874 0.290575 1.294883 -0.141543 -0.458420 0.219683 -0.243399 -0.763789 0.759678 0.800798 -0.007495 -0.549526 -1.026559 -1.160102 0.824744 -0.277647 -0.164022 0.625763 0.327889 0.443257 -0.267659 -0.444221 0.770052 0.310868 -0.466852 -0.505540 -0.619446 0.445815 0.251275 -0.802744 0.539379 -0.291246 0.871081 0.179012 -0.299610 0.227596 -0.695516 -0.307290 -1.074131 1.185083
enterprise -0.030350 0.960860 -0.548281 -0.037265 0.128793 -0.615290 0.409368 -0.103292 -0.264430 1.059971 0.895979 0.392654 0.357831 -0.136076 -0.135661 -1.069109 -0.216561 -0.102626 0.294279 0.122937 -0.397517 -0.380844 -0.000543 -0.221322 -0.457808 0.710454 -0.314664 0.125436 0.219230 0.903137 -0.364150 -0.358913 0.787457 0.283116 -1.087064 -0.510408 -0.572584 -0.074207 -0.005292 -0.105212 0.736352 0.536316 0.079028 -0.162055 -1.200688 -1.149566 -0.011487 -0.559238 -0.768054 -0.181622
life -0.373454 0.818166 -0.029249 0.243854 -0.159911 -0.502157 0.589708 1.498262 -0.355416 -0.020798 0.093577 0.499819 0.184592 -0.363727 0.251166 -0.247840 0.882578 -0.055377 -0.972241 -0.041113 -0.111589 -0.043832 0.646722 -0.351575 -0.995632 0.256688 1.667121 1.396207 0.545070 -0.207252 -0.263863 0.035184 0.583530 -1.150250 0.672866 0.028976 -0.418879 1.015876 -0.126459 -0.104140 0.954807 -0.970169 0.812820 0.539061 0.319728 -1.187044 -0.029450 -0.617567 1.316060 1.215760
innovation -1.344351 0.072470 0.197304 0.007683 0.336700 -1.247841 -0.497461 -0.165485 -0.353919 -0.599647 -0.058311 1.321357 -0.179013 -0.965357 -0.144342 -0.751897 0.509266 0.532881 1.013065 1.006445 -0.458797 1.210160 0.342583 -0.986351 0.427905 0.078382 0.023720 0.193335 0.299900 -0.042204 -0.093949 0.533994 0.797530 -0.001127 -0.076270 0.501307 -0.869484 0.147750 0.445469 0.648985 -0.388158 -0.065690 -0.728330 0.706541 -0.066421 -1.443145 0.747318 -0.442817 0.491217 0.334182
level -0.543007 0.022506 0.366338 -0.622681 0.480931 -0.777299 -0.336253 -0.428108 0.818122 0.269578 0.406543 0.037010 0.087330 -0.294573 -0.197808 1.153234 0.741116 -0.853123 -0.195938 0.174850 0.187174 0.383192 0.397197 0.074747 -0.427208 -0.048081 0.467485 0.699200 -2.167665 0.532168 0.182114 0.285671 0.446632 -0.210187 -0.580426 -0.061229 -1.373666 -0.261798 -0.393266 0.570355 1.043862 0.629070 -0.860561 0.039517 -0.994137 -0.024144 -0.119008 0.103039 0.962381 -0.353854
programs 0.125212 1.085475 1.019186 -0.640625 -0.848474 -0.755925 0.299614 0.809879 -0.236742 1.318460 -0.226906 0.452991 0.453391 0.140885 0.468194 -0.704765 -0.454511 -1.054345 0.196055 0.297212 0.300849 -0.223756 0.180562 -0.152751 -0.460811 -1.164337 0.719755 -1.216819 -0.470466 -0.433070 -0.257888 0.762481 -0.527509 -0.180916 -0.026643 -0.975568 -0.355676 0.227535 0.772358 -0.108299 1.144152 0.334884 0.462275 -0.454379 -0.496669 -0.818240 0.614561 0.518811 -1.033602 0.818554
career -0.546318 1.356922 0.192591 -0.288245 0.425705 -0.459086 -0.387614 0.006684 0.905390 0.414979 -0.330791 -0.043646 0.457699 -0.306821 0.492001 -0.370117 0.095803 -0.063422 -0.898394 1.199691 0.017804 0.701530 1.409522 1.113465 -0.500194 -0.424804 0.112178 0.069241 -0.510938 -1.047509 0.267473 -0.448492 -0.176283 -0.246524 0.015472 -0.420461 -0.753955 -0.743165 0.424711 0.590196 1.616053 -0.310491 -0.410864 0.370971 1.105993 -0.580752 0.350959 -0.145929 0.248541 1.209485
problem -0.002254 -1.699595 -0.181626 -0.388253 0.570334 -0.866620 1.166523 -0.022613 1.576504 -0.060076 0.546592 0.046591 -0.592961 0.197205 -0.903434 -0.567516 -0.104262 1.061434 1.090751 0.311360 -0.581893 -0.260884 -0.292731 -0.365184 -0.040864 0.534818 -0.303175 0.109552 -1.256169 -0.596601 0.673263 0.272726 0.329450 0.204892 -0.351028 0.422088 -0.068100 -0.060804 -0.771752 0.920496 0.676109 -0.007322 -0.997374 -0.983831 -0.364913 -1.094818 -1.042470 -0.208939 0.847058 0.526606
culture -0.945766 1.029584 -0.200355 0.017370 0.267499 -0.981046 -0.925271 0.135945 -0.644374 0.160754 0.133641 0.593027 0.411047 -0.421663 0.594773 -1.312476 0.746878 0.306450 0.672512 0.450809 -0.692814 0.539804 0.439878 0.128375 -0.375721 -0.651523 -0.008741 0.717731 0.111687 -0.326841 -0.279723 0.534514 0.187480 -0.328247 0.315042 0.377374 -0.455491 0.329331 0.084806 0.699628 -0.195950 -0.895259 -0.952913 0.332386 0.830002 -0.992219 -0.430432 -0.356547 0.203041 0.838310
code -0.135876 -0.090161 -0.533015 -0.841632 0.274861 -0.513625 0.021632 0.359584 -0.363785 -0.567426 0.587344 1.335705 0.140541 0.558615 -0.852401 0.655904 0.886377 0.807675 -0.567118 -0.077320 -0.089070 0.094619 0.436044 -0.573053 -1.621204 0.517054 -0.603512 0.226144 -0.642947 -0.314719 -0.929526 1.414077 0.161448 0.069651 -0.634370 0.627870 -0.558487 0.450651 0.849376 0.270203 0.382947 -0.533498 0.861672 0.291098 -0.673638 0.575815 -0.944882 0.538914 0.205263 -0.797584
cloud 0.779909 1.024441 -0.373624 -0.340714 -0.045395 -0.686109 0.691076 0.195212 0.465028 1.194963 0.737827 0.180293 -0.031458 -0.916660 -0.162146 -0.728382 -0.518523 0.256161 0.855658 0.126919 -0.834851 0.124719 -0.917459 -0.222605 -1.120064 0.079830 1.272765 -0.558003 0.023866 0.678257 -0.050896 0.928625 0.314544 -0.345250 -1.313007 0.072574 0.087143 -0.571020 0.912111 0.701173 -0.829819 -0.773652 0.632419 -1.001884 -0.368712 -0.191201 -0.226527 -0.483926 -0.047687 -0.542709
use -0.421160 0.465650 -0.165790 -0.325554 0.605495 -0.021211 1.432572 -0.156629 -0.779424 0.692497 0.469029 -0.163663 0.160967 -0.038051 -0.417173 -0.280817 0.664136 0.796717 0.546730 0.555819 -0.369974 -0.278746 -0.392982 -0.052362 -0.388159 -0.277263 0.476192 -0.168883 -0.065842 -1.214532 -1.003042 0.650677 -0.304711 -0.126633 -0.094765 -0.115567 -0.352586 0.012157 -0.436741 0.339351 0.491233 0.549794 0.470728 0.269975 -0.422898 0.220953 -1.037503 -0.560505 -0.494932 0.110495
sex 1.005205 -0.365554 -0.627862 0.764576 0.498556 -0.685897 1.418538 -0.839557 -1.207131 -0.321442 -0.655328 0.384586 -0.094312 0.575106 0.841040 -0.196741 1.107981 -0.520373 -0.425470 0.430359 0.146320 -0.103336 -0.424929 0.227756 0.516257 -0.301154 0.618318 0.523333 -0.548891 0.387532 1.626129 -0.456426 -1.343309 -0.480076 0.475835 -0.907089 0.590084 1.231005 0.219801 -0.423477 -0.400978 0.693849 -2.206265 0.651311 0.908796 0.047995 -1.246648 -0.180744 -0.401238 -0.497779
individuals 0.610737 -0.250356 -0.680078 0.458021 0.310100 -0.670184 -0.606804 -0.104040 0.432039 -0.466678 -0.302488 1.587319 -0.412737 0.760804 1.449439 0.351219 0.472402 0.016717 0.504459 -0.724633 0.210190 0.990758 -1.137416 0.096109 -0.814512 0.850776 0.229341 0.380098 -0.342052 0.036538 0.242109 -1.465108 0.175919 0.279476 -0.337293 -0.936658 -0.110822 -0.657994 0.208554 0.129653 1.271056 0.327168 -0.892699 0.220770 0.739868 -0.475836 -0.415747 0.828048 0.013565 -0.468265
group -0.955419 0.298838 -0.385958 -0.260359 0.167299 -0.693957 0.839286 0.026624 -0.217342 0.492208 0.041338 -0.014002 0.958933 0.274275 -0.068423 0.350536 0.217988 0.061873 -0.309378 0.589317 -0.951570 0.880043 -0.269261 -0.963702 -0.771956 0.480177 -0.628149 0.537401 0.845953 0.030152 0.572481 0.395215 0.054329 -1.089979 -0.499783 -0.441638 -0.077982 -0.280137 0.562728 -0.549056 0.987170 -0.194207 -0.171217 0.343117 0.218811 -1.075641 0.686496 -0.054002 0.055510 -0.010976
variety 0.101754 0.474854 0.810214 -0.681751 0.507013 -0.770123 0.541281 0.633484 -0.644198 0.186002 -0.583432 0.973963 -0.587531 0.194093 0.155702 -0.261403 -0.604898 -0.223836 -0.576351 -0.045558 -0.977813 0.669987 -0.360598 -0.851815 -0.700552 0.131582 -0.070983 -0.673647 -0.193668 -0.327880 -0.932235 0.184485 0.471405 0.184845 -0.253816 -0.286363 0.397271 -0.589028 -0.311290 0.084486 1.428490 0.847320 0.405055 0.189018 0.153960 -0.805249 -1.526203 1.268381 0.188755 0.549126
languages 0.498982 0.820052 1.409129 -0.258303 0.693080 -0.500251 1.021655 0.503769 0.065844 0.513657 0.116524 0.489628 -0.293353 0.695919 0.092627 -0.433260 0.170262 -0.107822 -0.098124 1.039145 -0.577982 -0.398652 0.608751 -0.454718 -0.943828 0.813248 -0.026575 -0.786552 -0.917872 0.347654 -0.289994 1.152346 0.262104 -0.211725 -0.281582 -0.432242 -0.175702 -0.977126 -0.158726 0.635031 0.895499 -0.898104 0.922225 -0.275629 -0.211650 1.475895 -0.724778 -0.354455 0.690504 0.212161
reports -0.396168 -0.366366 0.509942 -1.680321 0.406525 -0.426472 1.094208 -0.768506 0.129865 0.445331 -0.932805 1.380465 0.243759 -0.454647 -1.654355 0.001334 0.290478 -0.265517 -0.315160 0.386789 0.398639 0.120339 -0.213452 -0.346003 -0.046296 -0.203885 0.017499 -0.285436 -0.029836 0.766626 -1.981187 -0.165477 -0.425227 0.949503 -0.280331 -0.208254 -0.299002 -0.083498 0.016599 0.448983 0.672528 0.559602 1.181965 -0.518163 0.387658 -0.291690 0.014772 0.488495 -0.549350 0.003614
processing 0.269102 0.919782 1.193539 0.572176 0.249653 0.337635 0.666537 -0.324176 0.148227 0.981323 0.000364 -0.539922 -1.824777 -0.084002 -0.224756 -0.645926 -0.154234 -0.466305 0.290513 0.200775 -0.373432 -1.250562 -0.529689 -0.915442 -0.769320 1.045494 -0.349169 0.331867 -0.531420 0.321620 -0.794057 0.160535 -0.032067 -1.352317 -1.549543 0.277512 0.112862 -0.328050 0.820246 0.799578 0.814913 0.350919 0.312783 -0.139166 -0.995136 0.129870 -0.872849 -0.287508 0.213438 0.631584
platforms 0.619250 1.095811 0.290584 0.088532 0.218645 -0.792387 0.946443 -0.305530 -0.285253 1.034805 0.328908 -0.012771 -0.215566 -0.429571 -0.353782 -0.705073 -0.312094 0.267660 0.710525 0.473193 -1.097287 -0.165163 -0.763375 -0.475336 -0.216469 0.766146 0.717769 -0.134570 0.278686 1.145772 -0.499975 0.286379 0.232049 0.228625 -1.136193 -0.127327 -0.336941 -0.237477 0.581393 0.265176 -0.145460 -0.047484 0.562579 -0.218570 -0.613338 -0.326817 0.215507 -0.812052 -0.440824 -0.001290
duties 0.042859 -0.255647 0.309941 -0.285069 -0.098516 -1.020575 -0.041200 0.207879 -0.186545 0.616078 1.160962 0.138199 0.486274 0.410796 -1.484826 1.603241 -0.132308 -0.036913 -0.094268 0.291823 0.471372 -0.995330 -0.571317 0.865043 0.290574 -0.236708 -0.441890 0.650378 -0.544187 1.139694 -0.939281 0.957310 0.215830 -0.420462 0.196449 -0.538191 -0.430993 -0.453984 -0.134708 0.749078 1.259700 -0.117762 -0.997299 -0.365559 -0.361792 -1.765788 -0.258996 1.148107 -0.202814 0.185757
issues -0.194977 -0.150635 -0.027647 0.201446 0.244067 -1.341585 0.780886 -0.453088 0.302595 0.010480 0.266930 1.039349 -0.882331 0.389641 -1.306093 0.318687 0.413936 -0.156865 0.453113 -0.793655 0.151991 0.726500 -0.133935 -0.578136 -0.639058 -0.294832 0.090427 0.317381 -0.756887 -0.564259 0.331622 0.051739 -0.575050 0.581339 0.003403 0.376115 -0.632374 0.995173 -0.602393 0.079562 -0.722332 1.246861 0.477305 -0.451648 -1.026898 -1.075975 -1.287647 0.224215 0.163214 0.206420
client -0.821739 0.075179 0.162559 -0.385689 0.735942 -0.571973 0.948060 0.350863 0.190502 0.797600 0.992003 0.219533 -0.404200 0.475386 0.036950 -0.188404 -0.462191 0.392737 -0.162333 0.241932 -0.286437 1.554430 -0.438489 -0.967791 0.117611 -0.176337 -0.306709 -0.257658 -0.008977 -0.429342 0.381558 0.375167 1.105733 1.246419 -0.050134 -1.123513 -0.232274 -0.002423 -0.975962 -0.198423 -0.458873 0.652765 0.043600 -0.324541 -0.439359 -1.006547 -0.464293 0.016164 1.181493 0.034878
day 0.431275 0.419195 -0.389372 -0.009471 -0.393715 -0.263389 0.062808 -0.253430 -0.102002 0.265314 0.248592 0.435953 0.328459 -0.257501 -0.768781 -0.153522 1.132033 0.681524 -0.774373 -0.485620 -0.197647 -0.095551 0.609254 0.283392 -1.231065 -0.299178 0.837704 1.430063 0.281261 0.717022 0.271017 0.112203 0.826767 -0.386900 -0.083281 -0.195156 -0.228855 -0.358506 -1.201526 0.984784 1.250169 0.317046 0.199709 1.042328 0.481980 -0.783321 0.543595 0.633040 1.541891 0.544810
growth -0.812359 1.628108 0.227629 0.932852 0.226707 -0.863111 -0.407308 0.006224 1.075542 1.070653 0.370069 0.542311 0.064698 -0.323122 -0.149559 -0.833009 0.336320 -0.256063 -0.265920 1.616251 -0.163127 0.748712 0.608878 -0.237446 0.742187 -0.077153 -0.463035 0.463222 -0.073539 -0.616469 0.543059 0.417394 0.825302 0.563049 0.507228 -0.641728 -0.641182 0.054869 -0.071928 0.954066 1.017733 -0.442044 0.196792 0.264607 0.482697 0.183024 0.267222 0.381741 -0.625023 1.008376
strategy -0.532266 0.265793 -0.097072 -0.508317 0.529688 -0.466651 -0.407684 -0.291503 0.752359 1.418931 0.316116 0.106168 0.224477 -0.811435 -0.168141 -1.490083 0.449663 0.826248 0.131563 0.701329 0.643409 0.347450 -0.988759 -0.926725 -0.077476 0.271724 -0.584300 0.471413 0.298642 0.071551 -0.120916 0.294783 0.753752 0.238144 -0.741983 -1.052089 0.016594 0.986927 -0.695357 -0.195427 0.625249 0.084528 0.802622 0.247769 -0.018919 -0.670022 -0.280442 -0.182753 -1.157855 0.777919
/ 0.128448 0.168843 -0.475752 -0.405224 0.892363 0.301299 1.123789 -0.577396 -0.047428 1.018181 -0.555850 0.782004 -0.424321 0.015427 0.137983 0.072324 1.163102 0.554370 0.170653 1.015974 0.091705 -0.268781 -0.457876 -0.969996 -0.037337 0.589349 0.875719 -0.224347 -1.169595 1.171150 0.576325 1.333834 -0.647378 -0.433582 -0.375538 -0.475891 0.819130 0.448081 0.731605 -0.055821 0.078160 -1.239769 -1.266269 0.419203 -0.506139 0.259306 0.064486 -0.181307 -0.039239 -0.950151
law 0.888606 0.240508 -1.021505 -0.013094 0.002433 0.407410 0.650293 -0.215397 -0.363295 -0.374404 -1.398595 -0.622295 -0.402624 0.995513 0.144256 -0.749773 -0.042461 0.775653 -0.197728 -0.377672 0.435809 0.037453 1.152585 0.396560 -0.704868 -0.045119 0.967585 -0.596851 -1.268725 0.873891 -0.058437 0.513792 -0.973747 -1.146309 0.321479 -0.634907 0.984885 -0.144282 -0.025883 -0.185863 -0.539413 0.183138 -1.888032 0.379038 0.422631 -0.325396 -0.396244 1.043017 -0.044008 0.592106
access 0.163526 0.540895 0.393515 -0.362060 0.485289 -0.166673 -0.371529 0.026620 0.193903 0.070433 0.909181 1.717187 -0.134906 0.135636 1.424568 0.118835 0.493087 0.301334 0.213034 -0.366609 0.005831 -0.663015 0.145788 0.606826 -0.985983 0.133465 1.667369 -1.039233 -0.189233 -0.386651 -0.135282 -0.453255 -0.826536 -0.104425 -0.637290 -0.521917 -0.274275 -0.966024 0.450373 -0.385286 1.163884 1.184176 -0.148995 0.181636 0.222686 -0.901904 -1.175783 -0.886221 -0.259688 0.133933
infrastructure -0.029072 1.317446 -0.610255 -0.447828 0.549867 -0.425684 0.090763 0.555878 0.244024 1.002259 0.775744 -0.014623 -0.103937 -0.008635 -1.121828 -0.804284 -0.079021 0.456603 0.197512 0.104039 -0.778706 0.069016 0.177734 -1.236465 -1.010400 -0.085391 0.442312 -0.095252 -0.412551 0.486771 -0.359027 -0.198857 -0.378668 -0.178096 -1.152564 0.701882 -0.606631 0.380297 0.111908 -0.231628 -0.201701 0.523228 -0.160271 -0.058203 -0.683579 -1.012127 -0.941170 0.424254 -0.472421 -0.393711
reporting 0.153177 0.981394 -0.010618 -0.503878 0.576247 0.093849 0.308550 -0.612911 0.550580 0.710716 0.246980 0.008883 0.183784 -0.087407 -1.430608 -0.372865 0.562407 0.719444 1.016663 0.380900 0.260445 -0.122490 -0.056114 0.037545 -0.089948 0.604631 0.693737 -0.513606 0.364515 0.371146 -1.781367 -0.395211 0.242353 0.553563 -0.250510 -0.364206 0.062762 0.080015 -0.969683 0.178667 0.778860 0.878071 0.748552 -0.158766 -0.626933 -0.661065 -0.220199 -0.078656 -0.266089 0.210226
language 0.331650 0.686765 0.687146 0.572907 0.910706 -0.542624 0.816215 0.137384 -0.031918 0.361029 -0.493045 -0.473863 -0.779963 0.325895 0.227871 -0.288928 0.505677 -0.599400 0.205953 0.824150 -0.451268 -0.703017 0.006867 -0.145867 -0.939684 0.790198 -0.068995 0.776071 -0.843091 -0.000387 -0.363420 0.726508 -0.159770 -0.855748 -0.103721 -0.357342 -0.660079 -0.455132 0.477975 0.849422 1.039065 -0.522229 0.602812 -0.440368 -0.397904 1.288299 -1.535688 -0.385020 0.286365 0.302860
state 0.105222 0.828029 -0.671756 0.309153 -1.074226 -0.431203 0.709414 -0.320236 -0.203780 0.754799 -1.428427 -0.445456 0.098465 0.658198 -0.085294 -0.587401 0.016032 0.762266 0.686594 -0.439434 0.465008 -0.314284 -0.460562 0.166101 -0.671296 -1.184353 0.594643 -1.058869 -0.354598 0.712388 0.171933 0.343516 -1.075228 -1.072965 0.063856 -1.224472 0.857564 -0.398163 0.296424 -0.298058 0.458748 0.762441 -1.802385 0.414235 -0.516232 -0.492734 -0.222396 0.852262 -0.516505 0.315074
decision -0.360963 0.734867 0.106737 0.620596 1.099093 -0.958271 -0.580966 -0.060743 0.553172 0.077823 -0.665347 0.453408 -0.881357 0.628413 -0.862470 0.298505 0.757589 0.947539 0.902753 1.084450 -1.058078 -0.719814 -0.207440 -0.070141 0.121047 -0.427026 -1.225782 1.270924 0.251710 -0.537779 -1.322300 0.322553 -0.483325 0.002420 -0.986645 -0.841533 -1.057280 0.637018 0.088571 -0.344009 0.093524 0.348905 -0.036003 0.875048 0.597710 -0.788057 -1.583035 0.316024 -0.469638 -1.032088
analyst -0.684751 0.509943 0.131665 -1.019550 1.283460 -0.574783 -0.515608 -0.695946 0.895554 1.184514 0.028003 -0.008564 0.888376 -0.443983 -0.349957 0.637196 -0.454292 0.466804 0.405345 0.564614 0.727484 0.070721 -0.394928 -1.013723 -0.639309 0.620771 -0.290803 0.478525 -0.780395 1.095719 -0.257585 0.129320 -0.191766 0.310177 -0.122085 -0.916360 -0.600824 0.330608 0.227527 0.061409 0.802247 0.365592 -0.198880 0.444796 -0.485427 -0.228581 0.147108 -0.119314 0.177114 0.489015
production -0.651794 0.823286 0.142229 -0.895389 0.112480 -0.442806 0.190520 0.450527 0.109463 0.464290 1.034767 0.578833 -0.408853 -0.392600 -1.502343 -0.137282 1.014091 -0.434433 -0.211632 0.177711 -0.771831 -0.198883 -0.447925 -0.378067 -1.226109 -0.172915 0.071549 0.446553 -0.692968 -0.424864 -0.498289 0.674621 0.036038 0.153718 -0.718713 0.547130 -0.246884 0.092953 -0.004954 0.226482 0.121171 -0.424096 0.410913 -0.515721 -0.854698 0.991695 -0.865226 0.608840 0.482666 -0.606226
office -0.958944 -0.166431 0.349612 -1.635499 0.764403 -0.427100 -0.201446 -0.771596 -0.176712 1.033246 0.209979 -0.937109 1.677264 -0.123679 0.635921 0.000734 0.523413 0.755655 0.334818 -0.036108 -0.108469 -0.836176 0.459413 0.832369 -0.927139 -0.632518 0.072636 1.182778 -0.720631 -0.357878 -1.055361 0.742737 -0.912199 -0.854882 0.118071 0.062721 -0.187367 -0.739574 1.261321 0.247539 0.269399 0.390746 -0.736285 -0.607377 0.369090 -0.818710 0.020659 -0.655728 -0.342463 -0.115116
action 0.373816 -0.004740 -0.318015 0.191753 0.662405 0.430350 0.849333 -0.570528 0.714044 0.086253 -0.940918 1.767910 0.372565 -0.258368 0.568452 0.512519 0.850784 0.452616 0.588269 0.753550 -0.232428 0.175955 -0.438331 0.289592 0.537223 0.388109 -0.581931 0.653063 0.058476 -0.702678 0.631128 1.374771 -0.184534 -0.114818 -0.191190 -0.110181 0.858587 0.609979 0.623416 0.183960 0.300779 0.446729 -1.591124 -0.454676 -0.554273 -1.184231 0.219248 0.687893 0.130618 0.861598
insurance 0.031908 1.113247 0.605125 -0.314190 -0.158293 -0.546852 0.034479 0.439756 -0.383455 -0.909506 -0.734043 0.269045 -0.298835 -0.878720 1.149385 -0.092004 0.523152 0.381266 -0.189798 -0.275237 -0.177665 -0.231500 0.213889 -0.812986 -0.796874 0.030109 1.447664 0.462433 0.707139 0.117117 -0.191240 0.948351 0.155701 -0.405546 0.949386 -1.102499 -0.144345 1.715740 0.918832 -1.050341 0.490611 0.005835 0.964404 1.319384 0.345632 -1.375119 0.557487 -0.306770 0.450399 0.542021
datasets 0.045237 0.579230 0.453649 -0.418204 0.431229 0.030911 0.494242 -0.093534 0.093512 0.327491 -0.524293 0.555174 -0.035991 -0.216846 -0.370320 -0.366308 -0.075733 -0.022664 0.084358 0.115699 -0.829937 -0.127251 -0.691632 -0.906583 -0.010044 0.540020 0.272341 -0.064686 -0.644705 -0.066124 -0.638143 0.737081 0.002737 -0.318026 -0.492953 0.520190 -0.153267 -0.456957 -1.137369 -0.094889 0.589943 1.158795 0.950486 0.041533 -0.771409 0.652797 -0.922355 0.079194 0.278520 0.515883
background -0.053009 -0.767649 -0.269829 0.227180 0.759519 0.096336 0.168274 0.562151 -0.021475 0.371659 0.124791 0.762039 -0.304842 -1.109284 0.547230 -0.013202 0.360190 -0.019144 1.268377 -0.356567 0.348593 -0.033971 -0.915613 0.606499 -0.707480 1.071795 0.382200 0.123699 -0.120060 -0.375340 0.280163 0.851773 -0.607139 -1.672403 0.033146 -0.558473 0.106536 0.281301 -0.179149 1.073402 0.351109 -0.308746 -0.042964 -0.012504 -0.665186 0.068799 -0.794645 -0.349703 1.439530 -0.468126
databases 0.661580 -0.212215 0.643841 -1.456567 0.279800 -0.048274 1.129241 0.116745 -0.929663 0.561118 -0.619110 0.207330 -0.049286 -0.489459 -0.483732 -0.778364 -0.726926 -0.580841 0.234186 0.322274 -1.082776 -0.079570 -0.229504 -0.138892 -0.785862 0.839644 1.115990 -1.079593 -1.258145 0.808767 -1.007297 0.530633 0.744369 0.226753 -0.596902 -0.265341 -0.607312 -0.235639 0.218438 -0.233988 0.328258 0.702284 0.837822 -0.398325 -0.480308 0.259712 -0.847446 0.507428 -0.014436 -0.182459
familiarity 0.988077 0.472478 0.649883 -1.192910 0.182534 -0.857690 0.613195 0.002285 -0.360429 0.047191 -0.836320 0.101016 -0.171296 -0.119787 -0.100375 -0.412131 -0.243396 -0.874203 1.191735 0.329718 -0.896224 -0.413593 -0.979407 -0.160311 -0.709058 0.559850 0.454199 -0.486333 -0.496503 0.292727 -1.018379 1.057228 0.397967 -0.006667 -0.961075 -0.243974 -0.505988 0.464498 0.384878 -0.372383 -0.353741 -0.966173 0.488738 -0.308240 -0.534111 0.683371 -1.370631 -0.675567 0.518136 -0.303832
training -1.058143 0.768029 0.620190 -0.144689 -0.654532 -0.249817 -0.091588 0.348899 0.581608 -0.102239 0.344861 0.477602 -0.140686 0.048382 0.248319 -0.417456 0.345486 -0.173737 -0.895337 0.599220 -0.462481 -0.007340 -0.199983 0.933519 0.010021 -0.936580 1.074876 -1.489458 -0.327287 -0.120181 -0.474450 0.850790 -1.246119 -0.104297 -1.073564 -0.528159 -0.955674 -0.617001 -0.376325 0.396590 1.849800 -0.033608 -0.536494 -0.102183 0.442323 -0.652844 -0.146311 -0.966714 -0.507824 0.156044
concepts 0.456155 -0.007387 -0.128745 -0.072877 0.508486 -1.245632 0.595810 0.005208 0.283157 -0.737811 -0.153471 0.468065 -1.242657 0.558143 0.764439 -0.680087 -0.189178 0.094935 0.967868 0.074402 -0.547490 -0.362419 -0.776584 -0.519231 -0.015650 0.734749 0.279703 0.336853 0.029667 -0.212894 -0.925040 0.524974 1.523141 0.222813 -0.811534 -0.421695 0.420731 0.396007 -0.103182 0.123291 0.731984 -0.687745 0.713825 -0.520359 -0.453973 0.570222 -1.563802 -0.844037 -0.097148 -0.132629
diversity 0.062790 0.319323 -0.256475 0.814820 0.155450 -0.823363 -0.278084 0.618497 -0.524170 0.582202 -0.167273 1.256944 0.202467 0.567386 0.987041 -0.833218 1.111782 -0.232772 0.487842 0.653047 -0.597903 0.350728 1.657644 0.470363 0.347575 -0.126097 -0.865387 0.227840 1.060738 -0.630790 0.335574 -0.052262 0.473256 -0.359199 0.584182 0.227562 0.323658 -0.014453 1.263783 0.548767 0.865485 -0.656312 -1.408672 0.559749 -0.158930 -1.229202 -0.716406 0.044314 -0.409039 0.169611
spark 0.719982 1.064052 0.358050 -0.115546 0.336852 -0.229662 1.149072 -0.143525 0.309538 0.347027 0.341037 -0.447527 -0.350777 0.106433 -0.730111 -0.926517 -0.342959 -0.099404 0.012286 0.447257 -1.117603 -0.567384 -0.384834 -1.202980 -0.316407 0.698134 0.449808 -0.827133 -1.293143 0.966026 0.345464 0.687852 0.001096 -0.553908 -1.407773 0.273378 0.391105 -1.060688 -0.003534 -0.405002 -0.431092 -1.755100 -0.337531 -0.430793 -0.200343 0.733537 -0.105975 -1.120341 0.842410 -0.621100
network 0.380518 0.839012 -0.364888 0.198987 0.045840 -0.664687 -0.467626 0.402349 1.069489 -0.131499 0.050863 0.453817 0.078879 0.224018 0.641369 -0.400025 -1.726675 -0.159637 0.477896 0.649190 -0.524194 -0.269960 0.896636 -1.394632 -1.166333 -0.456832 -0.587805 -0.501566 -0.146573 -0.245809 0.520155 0.403471 -0.845519 -0.344918 -1.036829 -0.951755 -1.081672 0.026847 1.007388 0.769539 -0.627761 0.452674 1.383565 -0.497087 0.407719 -0.993238 -0.491133 0.516517 -0.778607 -0.597144
passion -0.606722 0.584274 -0.439558 0.347694 0.390700 -1.182903 0.337943 -0.113829 0.353358 -0.046235 -0.264670 0.989874 0.243946 -0.482222 -0.432507 -0.298945 -0.388867 0.636072 1.804180 -0.020016 0.263165 0.530638 0.540359 -0.144565 -0.818277 0.455293 0.050983 0.262707 -0.507683 -0.033035 0.215710 -0.247103 0.296252 -0.411938 -0.221336 0.025328 -0.403138 -0.246520 0.174667 1.437510 0.534217 -0.767302 -1.309643 0.213440 -0.334144 -0.297322 -0.403976 -0.259996 0.337296 0.929341
partner -0.462542 0.648140 -0.419233 -0.220245 0.531720 -1.005585 0.635821 0.006438 0.386385 0.858417 0.359037 0.351791 0.927310 0.507357 -0.342241 -0.722692 0.001108 0.461129 -0.456539 -0.218710 0.047496 0.553429 -0.517609 -1.379634 0.393682 -0.643595 -0.363019 0.354505 0.360655 0.951789 -0.244006 0.273666 0.376362 0.466802 0.302337 -0.299349 0.127037 -0.112185 -0.349198 -0.385748 -0.022735 0.405175 -0.053609 0.560374 -0.271149 -0.938038 -1.478054 -0.650721 -0.141351 -0.011313
states 0.947989 -1.261862 0.221821 -0.996552 -0.145306 -0.323539 0.265058 0.570193 -0.506288 1.461538 1.137483 0.664889 1.577919 0.073946 -0.703619 0.999620 1.282777 -0.647243 -0.202301 -0.583251 -0.050125 -0.015378 0.244885 -0.288839 -0.806664 -1.221854 1.740195 1.215608 0.349353 0.088988 1.518411 -0.396009 -0.609416 -0.255302 0.482420 0.591029 -0.142692 0.604532 1.407230 -0.102155 -0.231262 0.596555 -0.442194 -0.214894 -0.818401 0.217832 0.975106 0.016102 0.075970 -1.003027
functions 0.376407 0.192629 -0.183672 -0.863311 0.633371 -1.423762 -0.420591 -0.383175 0.505519 0.499113 0.747080 0.186992 -0.189192 0.587582 -0.285970 0.474362 0.203289 -0.308016 -0.051309 -0.552233 -0.259552 -0.592665 -0.689983 -0.409212 -0.009248 1.199608 0.396598 0.367987 -0.705385 0.725541 -0.559788 -0.591293 0.374443 0.468063 -0.025539 0.064410 -0.612169 -0.049092 0.570167 0.024610 1.491526 -0.027500 -0.295494 0.063956 0.411296 -0.792648 -0.723325 0.986112 -0.460524 -0.915193
regard 1.298281 -0.070622 -0.782135 0.765554 0.140248 -0.672947 0.830298 -0.640760 -0.690244 0.289647 -0.154387 1.006940 -0.031248 0.632306 0.513365 -0.292009 0.686257 -1.079339 -0.572861 0.533314 0.179723 0.558097 -0.709103 0.429745 -0.298672 -0.590147 0.026699 0.464094 -0.730840 -0.242715 1.618217 -0.629564 -1.396340 -0.385607 -0.040618 -0.940270 0.261352 1.203430 -0.693166 1.101088 -0.031869 0.521870 -1.502343 0.520094 1.110877 -0.003136 -1.076029 0.970410 -0.644572 -0.169607
mining -0.062538 0.759020 0.650666 0.357346 0.995515 -0.301293 0.731887 0.709576 -0.435145 0.381055 -0.607428 0.167630 -1.179116 -0.947699 -1.304117 -0.110820 -0.829708 0.170083 0.817833 1.240175 0.079762 -0.303246 -0.167518 0.143015 -0.407862 0.713788 0.018260 0.071089 -0.814587 -0.285890 -0.625787 -0.193274 0.370735 -0.910389 -1.049125 -1.011455 -0.233282 -0.184065 -0.316205 -0.396331 0.589028 -0.257242 -0.216457 0.476698 -0.172675 0.361117 -1.296674 0.124973 0.257999 0.966536
architecture -0.389339 0.301444 -0.995817 -0.349858 0.009932 -0.558413 -0.254810 -0.268743 0.372535 0.253244 0.579169 -0.052611 -0.695958 0.155168 -0.357007 -1.045965 -0.888340 0.904213 -0.161601 0.361306 0.147611 -0.449911 -0.756039 -1.170175 -0.940338 0.743035 -0.084485 -0.348728 -0.322890 1.152634 -0.588322 0.534846 0.286411 0.136675 -1.056043 -0.404031 -0.469568 0.199935 0.215256 0.285751 -0.201940 -0.009367 0.550376 -0.667145 -0.904932 -0.970805 -0.843907 -0.586556 -0.810202 -0.118613
implementation -0.407142 -0.002582 -0.275273 -0.169588 0.105935 0.138087 0.639782 1.065167 0.768114 0.594076 1.395801 -0.009767 -1.021450 -0.525266 -1.029923 -0.975374 0.487178 0.838729 -0.485372 0.146729 0.003983 -0.008952 -0.985530 -0.529201 -0.175364 0.463433 0.362079 -0.625795 -0.275462 0.250455 -0.362956 0.979052 0.196885 0.577828 -0.280532 -0.447519 0.036133 0.402194 -0.277303 -0.001255 0.646063 -1.020903 0.240183 -0.755727 -0.190257 -1.085627 -0.741357 0.095554 -0.579085 0.266569
analyses -0.036376 0.120811 0.699145 -0.827133 0.289463 -0.676247 0.665639 0.040453 0.216860 0.451219 -0.817585 0.827415 -0.156127 -0.564828 -1.146230 -0.002724 -0.665846 0.042382 -0.565923 0.567855 0.138976 -0.184421 -0.538957 -0.258199 -0.230405 0.272004 -0.793520 0.553789 -0.753389 -0.283516 -1.150082 1.039642 0.263348 0.674942 -0.081800 -0.787954 0.215737 0.638802 -0.398740 0.329713 1.102084 0.267799 0.795888 0.688219 0.515816 0.189597 -0.467366 1.143690 -0.684539 0.763296
candidates 0.055639 -0.331916 0.031556 -0.080565 0.595702 -0.156065 0.455921 0.615468 -1.122828 0.955797 0.714175 0.968101 0.217711 -0.142396 0.313554 0.308781 0.134652 -0.855946 0.620252 0.097181 0.194433 0.630060 -0.177588 0.338145 0.140292 0.222166 0.475557 -0.065775 -0.488966 -0.029829 0.020985 0.506709 -1.126826 -0.473701 -0.051000 -0.409729 -0.389054 -0.036718 -0.902055 1.665535 0.420051 0.134285 -0.979975 0.313724 -0.624785 -0.082856 0.022079 0.573251 0.665683 -0.767238
employee 0.405786 0.676289 0.138591 -0.219211 -0.047627 -0.649584 0.096502 0.059888 -0.664536 0.893108 1.367021 0.000576 0.315860 -0.144230 0.209152 0.017056 0.527757 -0.435373 -0.569953 -0.011122 0.269626 -0.928508 0.133349 0.312081 -0.382614 -0.070684 0.569728 0.441329 -1.191063 0.038818 0.817812 0.341766 0.899158 -0.311484 1.494676 -0.945336 0.668040 0.196578 1.017837 0.253964 1.272363 0.125572 -0.083291 0.447962 0.674515 -1.168640 0.041788 0.894848 0.026965 0.089982
programming 0.488251 -0.152424 1.016378 -0.025155 0.691272 -0.584447 0.256481 0.449599 0.340811 0.474865 -0.419979 -0.032261 -0.541197 0.971233 -0.191119 -0.377702 0.697014 -0.407210 0.031005 0.747589 -0.093981 -0.458933 0.368569 -0.117330 -1.025993 0.626570 -0.171231 -0.161923 -0.949186 0.275136 -0.481054 1.440129 0.669994 -0.344537 -0.135462 -0.507681 -0.982159 -0.300583 -0.037479 0.558531 1.281600 -0.739011 0.622558 -0.579843 -0.759453 1.664586 -0.783888 -0.428415 0.843094 0.273194
care 0.747875 -0.080682 -0.544489 -0.254721 -0.733472 -0.812561 0.527268 -0.259051 -0.254623 -1.187835 -0.055098 0.906169 0.827896 -0.322963 0.322089 -0.402059 1.537947 -0.083091 0.217414 0.035386 -1.074217 -0.568906 -0.145674 -0.273740 -0.958042 -0.286503 0.823549 0.116299 -0.502440 -0.573156 0.579106 0.096421 0.392551 -0.691483 -0.629862 -0.696428 0.038719 0.197999 -0.148373 -0.218388 -0.024534 0.533712 1.312592 1.625714 -0.030174 -1.208281 0.800251 0.053879 0.990461 0.009787
bachelors 0.257104 -0.595349 0.703957 -0.066036 0.772287 -0.945058 -0.035587 0.517231 1.237043 0.341937 0.054225 0.795031 0.737899 -0.048865 -1.030334 0.212460 0.270563 -0.691023 -0.964863 -0.855809 0.463511 -0.355799 -0.158796 -0.447166 0.589628 0.345042 1.738668 0.121019 -0.780219 0.581255 -0.176874 1.176245 -0.164911 -1.490217 -0.550903 -0.890174 -0.613628 0.410680 -0.604224 0.428146 0.577602 -0.192615 -0.478689 -0.569309 -0.884490 -0.156811 -0.224790 -1.382867 0.222882 -0.435652
center -1.139119 0.375234 -0.466229 -0.865409 -0.105295 0.079407 -0.971358 -0.170926 0.075086 0.291797 -0.139461 -0.282773 0.521955 -0.713432 -0.182231 -0.230019 0.043253 0.320774 0.086417 -0.327881 -0.565432 0.602146 0.726356 -1.498314 -0.668925 -0.660723 0.751399 -0.146155 -0.765359 -0.763612 0.226808 0.138179 0.388788 -0.797626 -0.898942 0.477435 -0.925452 -0.104962 0.797419 -0.051368 0.073074 1.054937 0.025571 0.689073 -0.474806 -1.431593 0.709697 0.766227 -0.093222 -0.352361
department -0.676661 0.051690 0.628610 -0.643703 0.316769 -0.184374 -0.169765 -0.012501 0.135708 0.349952 0.559421 0.127360 1.138058 -0.686018 -1.090645 1.144851 0.427532 0.710774 0.145778 -0.579862 0.212637 -0.084551 -0.201630 -0.354353 -0.430167 -0.403865 0.449784 -0.794262 0.060357 -0.829211 -0.459860 0.001004 -1.042567 -0.681359 0.214849 -0.640282 -1.066861 0.344717 1.112943 -0.228813 0.978499 0.860881 -0.522244 0.225726 -1.310977 -0.948930 0.741245 -0.123878 -0.872000 -0.711800
ml -1.448593 0.594656 -0.159124 -0.520985 0.078863 -0.287563 0.694371 0.433299 -0.060641 0.073363 0.438164 0.217663 -0.069431 -0.424330 -0.795023 -0.115656 -0.267477 0.353903 0.302034 0.372965 -1.223466 0.008974 -1.348157 -0.639356 -0.849404 -0.467572 -0.046499 -0.144491 0.208762 0.015150 -0.631058 0.691167 0.224038 -0.085977 -0.628363 -0.665195 0.349224 -0.362798 -0.456566 0.277577 0.338298 -1.404148 -0.253546 -0.443776 -0.154854 0.907997 -0.539963 -0.444257 0.604873 -1.046300
capabilities -0.447247 0.815132 0.315038 0.144613 0.043425 -0.471188 0.060318 0.136686 0.648651 1.100050 0.180444 -0.204136 -0.477676 -0.030383 0.410321 -0.263464 -0.237013 0.654590 0.952808 -0.035264 -0.482333 -0.166774 -0.521129 -0.071389 0.471207 -0.003227 0.130722 0.050576 0.153095 -0.056537 -0.683395 0.501481 0.414018 -0.499942 -1.209475 0.220707 -0.661184 -0.698011 -0.543039 0.522749 0.227417 0.458602 -0.056139 0.269543 -0.453084 -1.206298 -0.782670 -0.374945 0.324936 0.569627
recommendations 0.440861 -0.144658 0.884964 -0.087664 0.336632 -1.115448 0.779390 -0.392457 0.171565 0.344178 -0.781530 1.613706 0.234835 -0.145985 -1.237226 -0.568475 0.947275 0.423704 -0.096532 0.468780 0.222005 0.573544 -0.657609 -0.034972 0.564659 0.223586 -0.603276 -0.125907 -0.108683 -0.100002 -0.259734 0.631778 0.939855 0.706769 -0.274166 -0.890276 0.318082 0.508626 -0.281528 -0.189388 0.518771 0.089726 0.279995 -0.187828 0.202241 -0.544103 -0.555775 0.326306 -1.231919 0.776883
goals -0.375003 1.039773 -0.021504 0.474966 -0.448995 -0.080197 0.590168 0.155919 0.244424 0.618243 0.718855 -0.299798 0.147466 0.635471 -0.135658 -0.980831 0.381415 0.293548 0.415000 -0.486935 -0.171894 0.281749 -0.308864 0.028845 0.077122 -0.789695 -0.073772 0.474315 -0.129685 -0.612757 -0.378589 0.024477 1.158852 0.705404 0.356606 -0.964424 -0.932173 0.351545 -0.977313 0.117729 1.358264 -0.086675 -0.318022 0.072438 -0.179019 -0.978622 -0.511913 0.389467 -0.242307 0.303272
ideas -0.574136 0.245213 -0.072359 0.305165 0.376736 -1.494145 0.688214 0.576845 0.492458 -0.309437 0.034907 1.345433 -0.183109 -0.250960 -0.269289 -0.310827 0.508251 0.681536 -0.018397 0.533642 -0.672498 0.402560 0.174698 -0.294217 -0.151724 0.155966 -0.153226 0.686928 0.049328 -0.983801 0.211696 0.299786 0.836793 0.251528 0.734787 0.255533 0.284922 -0.850537 -0.091531 0.382353 -0.235092 -0.515183 0.995349 -0.409918 0.217233 -0.297268 -0.488519 0.110297 1.120671 1.221552
sciences -0.539754 -0.675735 -0.013367 -0.545668 -0.020503 -0.908713 0.496587 0.752673 -0.450062 -0.139370 -0.054181 0.565863 -0.398670 0.350724 -0.139132 0.195154 0.316336 -0.391788 -1.142563 -0.166113 0.022212 -1.031483 0.087378 -0.852118 -0.579450 0.888660 1.136954 0.837792 1.861685 -0.059373 -0.385744 0.207113 -0.261955 -2.405077 0.057810 -0.428074 -0.692263 0.921256 0.152618 -0.005241 1.063647 -0.919947 -0.244545 0.654701 0.013607 -1.241981 -0.227712 -0.326644 0.320846 0.345470
activities -0.323982 -0.279408 0.031436 -0.807479 -0.496980 -0.897364 0.502332 -0.102168 0.261822 0.846316 -0.055646 -0.297818 -0.295462 0.523782 -1.250660 -0.049251 0.763524 0.498353 -0.192269 0.181148 0.966868 -0.144428 -0.438967 -0.166720 -0.566235 -1.058635 0.180965 -0.588787 -0.585084 0.485574 -0.691246 0.714182 0.397322 0.013004 0.087981 -0.729822 0.169803 -0.091772 0.175632 -0.324828 0.922753 -0.322239 0.277292 -0.149689 -0.153882 -1.100305 -0.235058 0.597263 -0.372145 0.311656
vision -0.278267 1.134422 -0.034384 0.488951 -0.076303 -0.709071 0.918135 0.309887 -0.676829 0.060891 -0.314944 -0.621879 -0.662251 -0.512001 0.870793 0.007895 -0.025843 0.264336 0.028492 -0.158012 -0.037335 -0.767613 -0.254729 -1.143593 -0.455345 0.183933 0.489298 1.086406 0.044329 -0.573691 -0.560998 -0.082048 1.103582 -0.969908 0.744774 -0.896092 -0.131403 0.546979 0.706747 -0.074251 1.071383 -1.173231 -0.168630 0.424900 -0.244814 -1.348511 -0.200499 -0.136745 0.122744 0.893633
challenges -0.231994 1.048216 -0.153679 0.312219 -0.229253 -0.891763 0.800311 -0.117208 -1.036276 0.240188 0.280202 0.606376 0.320810 0.428872 -0.512002 -0.894509 0.551406 0.458099 -0.086756 -0.203405 -0.671906 0.696930 -0.613500 0.105899 -0.097349 -0.406926 0.381678 -0.308968 0.611119 -0.812208 -0.082032 -0.282323 1.207909 -0.444133 0.605687 -0.363940 -0.133366 -0.091409 -0.269988 0.595071 0.237556 -0.206501 -0.300707 -0.344902 -0.318022 -0.808353 -0.797411 0.222067 0.770618 0.860513
proficiency -0.217080 0.159021 1.182859 -0.883445 1.126292 -0.822243 0.381884 -0.044535 0.105427 0.164188 0.199403 -0.141578 -0.166808 -0.082902 -0.043159 -0.346635 -0.525294 0.186062 0.696324 0.729031 -0.460751 -0.738984 0.553555 0.126658 -0.684706 1.234454 -0.199233 -0.215212 -1.394267 0.226124 -0.641511 1.061130 0.391528 -0.883916 -0.113930 -0.065480 -1.051340 -0.213338 -0.176598 0.049362 0.624770 0.175695 0.130965 -0.340935 -0.573757 0.777511 -1.110847 -0.522811 0.431450 0.266277
questions 0.433996 0.270688 -0.349189 0.484443 0.697809 -1.097102 0.877702 -0.275441 0.228852 -0.020648 -0.017237 0.618753 0.305080 -0.103860 -0.973692 0.868642 0.065811 0.808331 0.630670 -0.511407 0.113105 0.473025 -0.732957 -0.780986 0.109332 -0.254880 -0.454256 0.675989 -0.859947 -0.661214 0.505433 0.116030 0.484787 0.441089 0.061001 -0.692214 0.126439 0.586713 -0.418117 0.069350 -0.176360 0.492542 0.151061 0.016377 -0.413709 0.080619 -0.935690 0.722807 -0.670294 0.033976
companies -0.043373 1.750260 -0.765141 0.028372 -0.703117 -0.425229 0.740416 -0.334822 -0.492276 0.493097 1.030548 0.330828 0.754072 0.139735 0.369876 -0.314370 -0.639795 -0.283176 -0.304192 0.254826 -0.293864 -0.012150 0.438059 -0.803520 -0.239286 -0.335967 0.707499 0.767318 1.275607 0.097845 0.389153 0.011537 0.302141 0.252159 -0.209223 -0.598939 0.149959 0.355556 1.006109 -0.044824 0.420094 -0.168699 0.379559 -0.006215 0.193454 -0.406770 1.189176 0.214864 1.066308 0.630002
